
\data\
ngram 1=29797
ngram 2=97596
ngram 3=9373

\1-grams:
-3.868186	!	-0.6859365
-4.692094	!!	-0.1717639
-4.391065	!!!	-0.1238374
-4.266126	"	-0.1065058
-5.169216	"""I	-0.1010715
-5.169216	"...Όχι,	-0.1021033
-4.868186	"100	-0.241405
-5.169216	"13th	-0.0965798
-5.169216	"5ε	-0.1025124
-5.169216	"?	-0.08430623
-5.169216	"Are	-0.08919609
-5.169216	"Austerity	-0.1025389
-5.169216	"Austerity"	-0.1025095
-5.169216	"B"	-0.1023594
-5.169216	"Banking	-0.102536
-5.169216	"But	-0.1025448
-5.169216	"Can	-0.09940369
-5.169216	"Catastroika"	-0.1023918
-5.169216	"Cows	-0.1025448
-5.169216	"Cyanide"	-0.08430623
-5.169216	"Debtocracy"	-0.0965798
-5.169216	"Der	-0.1025448
-5.169216	"Don't	-0.102533
-5.169216	"EWWWWW	-0.1025448
-5.169216	"Enough!"	-0.1010332
-5.169216	"Everything	-0.09769371
-5.169216	"Frappé"	-0.1023918
-5.169216	"God"	-0.1025418
-5.169216	"Got	-0.102068
-4.868186	"Greece	-0.09649927
-4.868186	"Greeks	-0.09961696
-4.868186	"Hence	-0.2402445
-5.169216	"Hence,	-0.1013813
-5.169216	"Hey	-0.09940369
-5.169216	"His	-0.1025448
-5.169216	"Humans	-0.1003389
-4.567156	"I	-0.101225
-4.692094	"I'm	-0.08899888
-5.169216	"Insults	-0.1003389
-4.692094	"It	-0.1009121
-5.169216	"Kill	-0.102068
-5.169216	"Lagarde	-0.1025448
-5.169216	"Let's	-0.1025242
-5.169216	"Look	-0.1014846
-5.169216	"Many	-0.1023889
-5.169216	"Mini"	-0.09415148
-5.169216	"Neo-drachma"	-0.1025448
-4.868186	"New	-0.241405
-5.169216	"No	-0.1025418
-5.169216	"No"	-0.102536
-5.169216	"No,	-0.1025095
-4.868186	"Not	-0.1020179
-5.169216	"Nothing	-0.09415148
-5.169216	"OK	-0.1013813
-5.169216	"OXI"	-0.1025448
-5.169216	"Occupation?"	-0.0965798
-5.169216	"Official	-0.1021151
-5.169216	"Paradise"	-0.1025301
-5.169216	"Pretty	-0.1025448
-5.169216	"Proletarians	-0.09671398
-5.169216	"QQ"	-0.1010715
-5.169216	"Rooms	-0.09415148
-5.169216	"Spanakopita"	-0.1011778
-5.169216	"THEN"	-0.09940369
-4.692094	"The	-0.1899741
-5.169216	"Troika"	-0.1025154
-5.169216	"Until	-0.1022447
-5.169216	"Well	-0.1014963
-5.169216	"What	-0.1024595
-5.169216	"When	-0.1025448
-5.169216	"Whoever	-0.1025154
-5.169216	"Why	-0.1023153
-5.169216	"YOLO!"	-0.1021269
-5.169216	"Yes	-0.09914288
-4.391065	"You	-0.1427287
-5.169216	"You're	-0.1025418
-4.692094	"a	-0.1025095
-5.169216	"absolve"	-0.1025154
-5.169216	"acquired	-0.1025448
-5.169216	"aggressive	-0.1025448
-5.169216	"aid".	-0.1023565
-5.169216	"almost	-0.1024036
-4.868186	"ancien	-0.1025418
-5.169216	"apo	-0.1025448
-4.214973	"austerity	-0.3406613
-4.169216	"austerity"	-0.3215213
-5.169216	"austerity",	-0.1025242
-5.169216	"austrian"	-0.1025389
-5.169216	"baby"	-0.1022976
-5.169216	"bad	-0.1025448
-5.169216	"bad"	-0.1025124
-5.169216	"bailout	-0.1023212
-5.169216	"bailout"	-0.1020444
-5.169216	"bailouts"	-0.1020386
-4.692094	"best	-0.1900211
-5.169216	"black"	-0.1020444
-5.169216	"blasphemy")	-0.1023565
-5.169216	"bless	-0.1025448
-5.169216	"branding".	-0.1023594
-5.169216	"brotherhood"	-0.1025066
-5.169216	"bush	-0.1025389
-4.868186	"but	-0.1013666
-5.169216	"buys"	-0.1022859
-5.169216	"by	-0.1020621
-5.169216	"calculation"	-0.1011158
-4.868186	"can	-0.2402445
-5.169216	"central	-0.1025448
-5.169216	"cheap"	-0.1023153
-4.692094	"church	-0.3677265
-5.169216	"common	-0.1025448
-4.868186	"communism"	-0.09847829
-5.169216	"communist"	-0.09829119
-5.169216	"comparison"	-0.1010715
-5.169216	"competitive"	-0.1011247
-5.169216	"conformity"	-0.102533
-5.169216	"could"	-0.1022564
-5.169216	"covers".	-0.08430623
-5.169216	"crafted	-0.1017558
-5.169216	"crazy".	-0.1025183
-4.868186	"creating	-0.241405
-5.169216	"credit	-0.1025242
-5.169216	"credit"	-0.1024771
-5.169216	"credits"	-0.09829119
-5.169216	"debt"	-0.1025448
-5.169216	"decreased	-0.1024595
-5.169216	"defang"	-0.1025301
-5.169216	"den	-0.1025448
-5.169216	"do	-0.09998994
-5.169216	"easy	-0.1025389
-5.169216	"eating	-0.101629
-5.169216	"ecu"	-0.1010715
-5.169216	"elite".	-0.08430623
-5.169216	"enlightened	-0.1025448
-5.169216	"entirely"	-0.1025154
-5.169216	"entitlement"	-0.1021652
-5.169216	"entitlement".	-0.1022241
-5.169216	"epipedo"	-0.102483
-5.169216	"expatriate	-0.1025448
-5.169216	"extend	-0.1024536
-4.692094	"failure	-0.3619016
-5.169216	"fall"	-0.101629
-5.169216	"family"	-0.1025448
-5.169216	"fight"	-0.09969099
-5.169216	"fish	-0.1025448
-5.169216	"flood	-0.08919609
-5.169216	"food"	-0.1025448
-5.169216	"force"	-0.09825851
-5.169216	"frappé"	-0.1023918
-5.169216	"free	-0.1025154
-5.169216	"fun	-0.1025448
-5.169216	"fundamentally	-0.1025418
-5.169216	"greece	-0.1014757
-4.692094	"greek"	-0.3676765
-5.169216	"guilt	-0.1017558
-5.169216	"haircut"	-0.1025389
-5.169216	"happy	-0.1025448
-5.169216	"hate"	-0.08919609
-5.169216	"higher"	-0.1025448
-5.169216	"hit".	-0.08430623
-5.169216	"how	-0.1017587
-5.169216	"how/what	-0.09825851
-5.169216	"i	-0.1018294
-5.169216	"if	-0.1008147
-5.169216	"information"	-0.09829119
-5.169216	"informed"	-0.1017558
-5.169216	"international	-0.1025448
-5.169216	"invest"	-0.09825851
-5.169216	"investors"	-0.1025213
-5.169216	"it	-0.1024006
-5.169216	"it's	-0.1017145
-5.169216	"judge-penitent",	-0.1025448
-5.169216	"last	-0.1018176
-5.169216	"lavraki"	-0.0965798
-5.169216	"lazy	-0.1025448
-4.868186	"legacy"	-0.2371544
-5.169216	"libertarian	-0.1025448
-5.169216	"little"	-0.1024418
-5.169216	"look,	-0.1025242
-5.169216	"luxury	-0.1025448
-5.169216	"managing	-0.1025448
-5.169216	"meme").	-0.1023594
-5.169216	"mere"	-0.1025389
-5.169216	"methodology	-0.1025448
-5.169216	"missing	-0.1025448
-5.169216	"more	-0.1025448
-5.169216	"mostly	-0.1025448
-5.169216	"mounodouloi"	-0.10233
-5.169216	"moving	-0.09415148
-5.169216	"n".	-0.08919609
-5.169216	"natural"	-0.1022358
-5.169216	"no	-0.1025448
-4.868186	"no"	-0.1025271
-5.169216	"no"-vote	-0.09998994
-5.169216	"no".	-0.1013843
-5.169216	"normal".	-0.1025448
-5.169216	"offices"	-0.0965798
-5.169216	"official	-0.1025448
-5.169216	"official"	-0.1025448
-5.169216	"oh	-0.1018294
-5.169216	"oh,	-0.1025242
-5.169216	"only"	-0.1025418
-5.169216	"organized"	-0.1024977
-5.169216	"over	-0.0965798
-4.868186	"painfull	-0.2414021
-5.169216	"parallel	-0.1025448
-5.169216	"party	-0.1025448
-5.169216	"party-army"	-0.09415148
-5.169216	"pay	-0.1016732
-5.169216	"pay-as-you-go"	-0.1023918
-5.169216	"perhaps	-0.08919609
-5.169216	"perifanos"	-0.1024654
-5.169216	"planned	-0.102536
-5.169216	"poor"	-0.09825851
-4.868186	"practical	-0.2414021
-5.169216	"promises	-0.09671398
-5.169216	"proper"	-0.1025448
-4.868186	"proven	-0.2413609
-5.169216	"punish"	-0.08919609
-4.868186	"real	-0.102536
-4.868186	"real"	-0.1023624
-5.169216	"realpolitik".	-0.1022447
-5.169216	"recognized	-0.09825851
-5.169216	"red	-0.1025448
-5.169216	"red"	-0.1025448
-5.169216	"redditor	-0.09969099
-5.169216	"rescued";	-0.08430623
-5.169216	"risk/reward/meddling	-0.1025448
-4.868186	"rwta	-0.1025036
-5.169216	"safe"	-0.1025448
-4.692094	"safety	-0.1900211
-5.169216	"salaries"	-0.1010715
-4.868186	"saved	-0.2403743
-5.169216	"scolding".	-0.08430623
-5.169216	"scorpina",	-0.1024448
-5.169216	"self-supporting"	-0.1025242
-5.169216	"shadow	-0.1025271
-5.169216	"shaken"	-0.1025271
-5.169216	"shipping	-0.1025448
-5.169216	"socialdemocracy"	-0.1011778
-5.169216	"socialism"	-0.09769371
-5.169216	"socialist"	-0.09654103
-5.169216	"society"	-0.09829119
-5.169216	"sorry	-0.09940369
-5.169216	"stand	-0.1011247
-5.169216	"stayros"	-0.1024948
-5.169216	"stimulus"	-0.102533
-5.169216	"stress	-0.1025448
-5.169216	"subreddit").	-0.08430623
-5.169216	"supposed"	-0.09415148
-5.169216	"systemic"	-0.0965798
-5.169216	"temporary").	-0.08430623
-4.567156	"the	-0.1017263
-5.169216	"theoretical"	-0.1024918
-4.868186	"there	-0.2365569
-5.169216	"this	-0.1010715
-5.169216	"three	-0.1025154
-5.169216	"ti	-0.1025448
-5.169216	"today's	-0.1025448
-5.169216	"tourist	-0.1025448
-5.169216	"tourist"	-0.1025389
-5.169216	"tsipura"	-0.1003389
-5.169216	"twisting	-0.08919609
-5.169216	"understand	-0.1016555
-5.169216	"unions"	-0.09671398
-5.169216	"us"?	-0.08430623
-5.169216	"vetoing	-0.08919609
-4.567156	"we	-0.1002355
-5.169216	"we"	-0.102486
-5.169216	"we",	-0.09940369
-5.169216	"we"really.	-0.1025389
-5.169216	"while	-0.1013813
-4.868186	"work	-0.09653804
-5.169216	"worse"	-0.09769371
-5.169216	"worth	-0.08919609
-5.169216	"wre"	-0.1024595
-5.169216	"wre".	-0.09415148
-5.169216	"yes"	-0.1023506
-4.868186	"you	-0.101343
-5.169216	"you're	-0.1024153
-5.169216	"«Όταν	-0.1020386
-5.169216	"Ή"	-0.1015317
-5.169216	"Ή";	-0.1025448
-4.868186	"Όχι	-0.2413227
-5.169216	"Όχι"	-0.1014993
-5.169216	"Α.	-0.1025418
-5.169216	"Αμα	-0.1025448
-5.169216	"Αν	-0.1025448
-5.169216	"Δεκάδες	-0.1025448
-4.868186	"Δεν	-0.1020238
-5.169216	"ΕΡΕ	-0.1025418
-5.169216	"ΕΥΡΩ"/"ΔΡΑΧΜΗ".	-0.08430623
-5.169216	"Είσαι	-0.1025448
-5.169216	"Θέλω	-0.09844265
-5.169216	"Και	-0.1025301
-5.169216	"Κατά	-0.1025271
-5.169216	"Κύριε	-0.1025448
-5.169216	"Μ'	-0.1015317
-5.169216	"ΜΑΛΑΚΑΣ".	-0.1025154
-5.169216	"ΜΟΙΡΑΣΟΥ	-0.1025448
-5.169216	"ΜΠΑΜ"	-0.1013902
-4.868186	"Μάνα,	-0.1020592
-5.169216	"Μαλάκας"	-0.1023771
-5.169216	"Μπεμπέκα"	-0.1025448
-5.169216	"Μωρό,	-0.1021033
-4.868186	"Ναί	-0.2413227
-5.169216	"Ναι"	-0.09838623
-5.169216	"Ντάξει...να	-0.1021387
-4.692094	"Ο	-0.1025301
-4.868186	"ΟΧΙ"	-0.1014049
-4.868186	"Οι	-0.241405
-5.169216	"Ορθόδοξη	-0.1025448
-5.169216	"Προφήτης	-0.1025448
-5.169216	"Ραχόι",	-0.1005193
-5.169216	"Συριζαίος	-0.1006552
-5.169216	"ΤΩΡΑ".	-0.1024065
-5.169216	"Τα	-0.1025389
-5.169216	"Το	-0.1024212
-5.169216	"Τρίτη	-0.1024212
-5.169216	"Ψίθυρους	-0.1025448
-5.169216	"άνοιξη	-0.1013902
-5.169216	"άσχημο"	-0.09838623
-5.169216	"έβγαλες"	-0.102533
-5.169216	"έγραφε	-0.1025183
-5.169216	"έξοδος	-0.1019266
-5.169216	"έπρεπε	-0.09844265
-5.169216	"έρευνα".	-0.1025448
-5.169216	"έχεις	-0.1025418
-5.169216	"έχουν	-0.1017941
-5.169216	"αγνωστη	-0.1025448
-5.169216	"αδελφοί	-0.1025448
-4.868186	"αιώνα"	-0.2402534
-5.169216	"ακροαριστερής	-0.1025448
-5.169216	"αλλά	-0.09838623
-4.868186	"αν	-0.1003153
-5.169216	"αντίστασης"	-0.1010125
-5.169216	"αξιοκρατία"	-0.102536
-5.169216	"απλοποίηση"	-0.1007763
-5.169216	"αποκρατικοποιήση",	-0.1025007
-5.169216	"αριθμοφασιστας"	-0.1007763
-5.169216	"αστεία".	-0.1024918
-4.692094	"αστείο"	-0.1696728
-5.169216	"αστική	-0.1025448
-5.169216	"αυθαίρετος	-0.1025448
-5.169216	"αυτό	-0.09863266
-5.169216	"βαρύ"	-0.1024036
-5.169216	"βγάλουμε"	-0.1011689
-5.169216	"βλάσφημε,	-0.1025448
-5.169216	"γίναμε"	-0.102536
-4.868186	"για	-0.09843969
-5.169216	"γιατι	-0.09844265
-5.169216	"δέσει"	-0.1014079
-5.169216	"δε	-0.1009653
-4.324118	"δεν	-0.1313953
-5.169216	"διάλυση"	-0.1019266
-5.169216	"διαπραγμάτευση"	-0.1015317
-5.169216	"δραχμή".	-0.1025389
-5.169216	"εάν".	-0.1025271
-5.169216	"είχαμε	-0.1025448
-5.169216	"εδώ	-0.1007763
-5.169216	"ειδήσεις"	-0.1025448
-4.868186	"εισαι	-0.2414021
-5.169216	"εκπροσώπων	-0.1013902
-5.169216	"ελαιόλαδο"	-0.08430623
-5.169216	"ελευθεριακός	-0.1025448
-5.169216	"ελευθεριακός".	-0.08430623
-5.169216	"ενήλικες"	-0.1025448
-5.169216	"ενωμένη	-0.1010715
-5.169216	"εξηγησουν"	-0.1014993
-5.169216	"εορταστικά"	-0.1025418
-5.169216	"επειχηρηματίες"	-0.102533
-5.169216	"εταίροι"	-0.1022005
-5.169216	"ετυχε"	-0.09844265
-5.169216	"ευρώ.	-0.1024359
-5.169216	"ηρωική	-0.1025448
-5.169216	"θάψιμο"	-0.1022329
-5.169216	"θαμμένα",	-0.1022123
-5.169216	"θεσμοί"	-0.1010125
-5.169216	"ιδεολογία"	-0.1025242
-5.169216	"κάνε	-0.1025448
-5.169216	"καθίστε	-0.1022829
-5.169216	"κακούς"	-0.1025389
-5.169216	"καλοί"	-0.1024683
-5.169216	"καναλαρχες"	-0.09838623
-5.169216	"κεράκια"	-0.1025066
-5.169216	"κλέβει",	-0.09863266
-4.868186	"κοινή	-0.241405
-5.169216	"κοινής	-0.1025448
-5.169216	"κουβέντες"	-0.09838623
-5.169216	"κριτική"	-0.1005193
-5.169216	"μάρτυρες".	-0.1022711
-5.169216	"μας	-0.1025448
-5.169216	"μεγάλης	-0.102536
-5.169216	"μηδενική	-0.1025448
-5.169216	"μνημονιακός"	-0.1010715
-5.169216	"μνημονιακών"	-0.09838623
-5.169216	"μου	-0.1012397
-5.169216	"μπάλες"*.	-0.1025448
-5.169216	"μόνο	-0.1018825
-5.169216	"ν"	-0.1023918
-5.169216	"ναι	-0.1022123
-5.169216	"ναι,	-0.1020032
-5.169216	"νεοκομμουνισμούς"	-0.1025271
-5.169216	"οκτωβριανή"	-0.1025389
-5.169216	"οργάνωσης"	-0.1024712
-5.169216	"οτι	-0.1025448
-5.169216	"οχι"	-0.1020621
-5.169216	"πέσουν	-0.1025448
-5.169216	"παιδί"	-0.1025418
-5.169216	"παπάτζες"	-0.1025448
-5.169216	"παρανομα"	-0.08430623
-5.169216	"παραπάνω	-0.1025448
-5.169216	"παρόμοιο	-0.1010715
-5.169216	"περηφάνεια"	-0.09838623
-5.169216	"πολλοί	-0.1025183
-5.169216	"πολυτελείας"	-0.1025389
-5.169216	"πολύπλευρη	-0.1025448
-5.169216	"πρόσωπο"	-0.1013902
-5.169216	"σάμπως	-0.09838623
-5.169216	"σάπιο	-0.1025448
-5.169216	"σε	-0.1025301
-5.169216	"στο	-0.1025448
-5.169216	"συμβουλέψει".	-0.1023035
-5.169216	"συμφωνίες"**	-0.1005193
-5.169216	"συμφωνια"...	-0.08430623
-5.169216	"συριζίτικο"	-0.1024683
-5.169216	"σχεδόν"	-0.1025389
-5.169216	"σύμβολα",	-0.1014079
-5.169216	"τα	-0.1024183
-5.169216	"τζαμπα"	-0.1024948
-4.868186	"τι	-0.2373058
-5.169216	"το	-0.1025418
-5.169216	"τυχαίοι"	-0.1025448
-5.169216	"τώρα	-0.1009653
-5.169216	"υπεκφυγή	-0.1013902
-5.169216	"υπερβολες".	-0.10233
-5.169216	"φασίστες	-0.1024065
-4.868186	"φιλελεύθερους	-0.241405
-5.169216	"χαβάς"	-0.1025448
-5.169216	"χωρίς	-0.1025418
-5.169216	"ψηφίστε	-0.1025242
-5.169216	"ψυχροπολεμικό	-0.1025448
-5.169216	"ό,τι"	-0.1024507
-5.169216	"όλοι-οι-Έλληνες-είναι-κατσαπλίαδες-και-τους-χρειάζονται-μνημόνια	-0.1025448
-4.868186	"όποιος	-0.1020886
-5.169216	"όπως	-0.1025448
-4.868186	"όχι	-0.1005784
-5.169216	#	-0.1025418
-5.169216	#26,	-0.1025448
-5.169216	#Do	-0.09940369
-5.169216	#ThisIsACoup	-0.1025448
-5.169216	#icouldhaveajobifiworkedashardfindingone	-0.08430623
-5.169216	#nolife	-0.1025448
-4.692094	#notwhatyouthink	-0.3494938
-5.169216	#too_much_time_on_my_hands	-0.08430623
-5.169216	#ΠΑΡΑΔΕΙΓΜΑ	-0.08430623
-5.169216	$1,000	-0.09829119
-4.868186	$10	-0.1014905
-5.169216	$10,000	-0.1025418
-5.169216	$100	-0.1025448
-5.169216	$100k	-0.09654103
-4.868186	$10B	-0.1014551
-5.169216	$10B,	-0.1019885
-5.169216	$10B.	-0.1013843
-5.169216	$12,000	-0.09671398
-5.169216	$13,000	-0.09654103
-5.169216	$14.5B,	-0.1015111
-5.169216	$20	-0.1025448
-4.692094	$20,000	-0.09125085
-5.169216	$2000	-0.09825851
-5.169216	$24,000,	-0.1016821
-5.169216	$2500	-0.1025448
-5.169216	$26,000	-0.1025418
-5.169216	$300	-0.1010332
-5.169216	$32k	-0.1024977
-5.169216	$4.5B	-0.102536
-5.169216	$5	-0.1014846
-5.169216	$5K	-0.102486
-5.169216	$6.50USD/hour;	-0.08919609
-5.169216	$6.53/hour.	-0.1021387
-5.169216	$6.72.	-0.08430623
-5.169216	$7.25	-0.09415148
-5.169216	$7.25/hour	-0.0965798
-5.169216	$8	-0.101688
-5.169216	$8/hour	-0.1011247
-4.868186	%	-0.09663646
-5.169216	%.	-0.102483
-3.664066	&	-0.1091421
-5.169216	&*^@^!/@&	-0.08430623
-5.169216	&amp;	-0.1024918
-5.169216	&co)	-0.1025418
-4.868186	''ΟΧΙ''	-0.2372494
-4.868186	''νωπή	-0.241405
-5.169216	''παγώθηκε''	-0.1015671
-5.169216	'04	-0.1025448
-5.169216	'15	-0.09838623
-5.169216	'16.	-0.08430623
-5.169216	'44,	-0.1014079
-5.169216	'84...	-0.08430623
-5.169216	'87	-0.1025389
-5.169216	'89?	-0.08430623
-5.169216	';...;'	-0.08430623
-5.169216	'Death'.	-0.08430623
-4.868186	'Gate	-0.1025389
-5.169216	'If	-0.09940369
-5.169216	'Merica	-0.102486
-5.169216	'No'	-0.09415148
-5.169216	'WaterWorld'.	-0.08430623
-5.169216	'We,	-0.1011778
-4.868186	'Well,	-0.0991577
-5.169216	'Work'	-0.1024712
-5.169216	'Yes'	-0.1022741
-4.868186	'a	-0.2410784
-5.169216	'android	-0.1025448
-4.868186	'bout	-0.1025301
-5.169216	'burger'.	-0.1024977
-5.169216	'cause	-0.09914288
-5.169216	'classes',	-0.1019885
-5.169216	'commie	-0.1025448
-5.169216	'correct'	-0.102533
-5.169216	'cuz	-0.1013813
-5.169216	'early'.	-0.08430623
-5.169216	'em	-0.102533
-5.169216	'em.	-0.1025448
-5.169216	'extend	-0.0965798
-5.169216	'fast	-0.1025448
-5.169216	'free	-0.09671398
-5.169216	'gatherers'	-0.1011778
-5.169216	'good'	-0.1019885
-5.169216	'how	-0.08919609
-5.169216	'lazy'.	-0.08430623
-4.868186	'liberal	-0.241405
-5.169216	'live	-0.09825851
-5.169216	'm	-0.102536
-5.169216	'man	-0.1010332
-5.169216	'more	-0.1024536
-5.169216	'normal'	-0.1025448
-5.169216	'parasites'	-0.1019885
-5.169216	'pita'	-0.09415148
-5.169216	'post-Government'	-0.102536
-5.169216	'restaurant'	-0.1025183
-5.169216	'sellers'	-0.09825851
-5.169216	'specialise'	-0.09825851
-5.169216	'suvlaki',	-0.1025389
-5.169216	'the	-0.1024477
-4.868186	'their'	-0.2380061
-5.169216	'them'	-0.1024889
-5.169216	'those	-0.1024742
-5.169216	'undeserving'	-0.0965798
-5.169216	'union'	-0.09415148
-5.169216	'want'	-0.09415148
-5.169216	'weak	-0.1025448
-5.169216	'why	-0.1022594
-5.169216	'working	-0.1025448
-5.169216	'Έχω	-0.1022005
-4.567156	'Όχι'	-0.1625465
-5.169216	'Αδωνις	-0.1017823
-5.169216	'Αθεος	-0.1007763
-5.169216	'Αράπη	-0.1025448
-5.169216	'Επιστροφής	-0.1017823
-4.868186	'ΘΗΡΑ	-0.1025389
-4.692094	'Ναι'	-0.1897151
-4.868186	'Ντάξει	-0.1003922
-5.169216	'άμα	-0.1025448
-5.169216	'αλήτης'	-0.1022123
-5.169216	'ανοιξουν	-0.1011689
-5.169216	'απο	-0.1025418
-5.169216	'αποικιοκρατίας"	-0.1006552
-5.169216	'διαπραγματευση'	-0.1021269
-5.169216	'εγκληματική	-0.1025448
-5.169216	'ευρώ	-0.1022123
-5.169216	'εχω	-0.1025183
-5.169216	'κακός'	-0.1022123
-5.169216	'καφρος'	-0.1015671
-5.169216	'μαστε	-0.1024683
-5.169216	'ναι	-0.1025418
-4.868186	'ναι'	-0.2393824
-5.169216	'πούτσο'	-0.1025448
-5.169216	'πρέπει	-0.09844265
-5.169216	'προσπαθησαν	-0.1018825
-5.169216	'σαι	-0.1024683
-5.169216	'συ;	-0.1024889
-5.169216	'συμπατριώτες'.	-0.1025036
-5.169216	'συμφωνία"	-0.1025271
-5.169216	'σωσιβιο"	-0.1024742
-4.868186	'ταν	-0.1024889
-5.169216	'φάτε	-0.1025448
-5.169216	'χα	-0.1024948
-5.169216	'χετε	-0.1025213
-4.868186	'όχι'	-0.2393824
-4.324118	(	-0.1329155
-5.169216	("Todos	-0.1025448
-5.169216	("You	-0.1021769
-5.169216	("risk/Reward")	-0.1005636
-5.169216	("zero-rated",	-0.1024418
-5.169216	(#374	-0.09914288
-5.169216	($0.18).	-0.1025418
-5.169216	(%	-0.09671398
-5.169216	(&	-0.1025183
-5.169216	(/ˈmiːm/	-0.1025448
-5.169216	(0%)	-0.1025271
-5.169216	(1-2-3	-0.1025448
-5.169216	(20%)	-0.09998994
-5.169216	(2007)	-0.08430623
-5.169216	(2010).	-0.08430623
-5.169216	(2011)	-0.09769371
-5.169216	(2011),	-0.1014963
-5.169216	(2012)	-0.102486
-5.169216	(2130	-0.1025448
-5.169216	(22%)	-0.08430623
-5.169216	(30%).	-0.08430623
-5.169216	(300	-0.1016821
-5.169216	(35	-0.1025448
-5.169216	(4	-0.1025418
-5.169216	(40%)	-0.08430623
-5.169216	(45	-0.09969099
-4.868186	(5	-0.2409901
-5.169216	(565.83eu),	-0.1015111
-5.169216	(586eu)	-0.08430623
-5.169216	(7,769	-0.1025448
-5.169216	(8	-0.1024389
-4.868186	(8imamai	-0.241405
-5.169216	(?)	-0.1014079
-5.169216	(A	-0.1025448
-5.169216	(Albert	-0.1025448
-5.169216	(Amstel/Heineken)	-0.1025448
-5.169216	(BTW	-0.1024359
-5.169216	(Brazil,	-0.102536
-5.169216	(C)	-0.1024948
-5.169216	(Copy	-0.1025418
-5.169216	(Cut	-0.1010332
-5.169216	(Denmark	-0.1025448
-5.169216	(ECB	-0.1025183
-5.169216	(EFSF)	-0.09654103
-4.868186	(East	-0.241405
-5.169216	(Edit:	-0.1025389
-5.169216	(Exact	-0.1025448
-5.169216	(FDIC)	-0.1024889
-5.169216	(FTT);	-0.1024153
-4.692094	(Fix	-0.3617674
-5.169216	(Freddo	-0.1025448
-5.169216	(From	-0.09654103
-5.169216	(GND)	-0.1025448
-5.169216	(Genuinely	-0.1025389
-5.169216	(Germany	-0.0965798
-5.169216	(Giving	-0.1023536
-5.169216	(Goldman	-0.1025448
-5.169216	(Greece	-0.1025183
-4.692094	(Greece)	-0.09795539
-5.169216	(Greeks)	-0.1005636
-3.993124	(I	-0.148715
-4.692094	(I'm	-0.1839726
-5.169216	(I've	-0.1025389
-5.169216	(IMF/WB),	-0.1011158
-4.868186	(It's	-0.2280593
-5.169216	(Its	-0.1025389
-5.169216	(John	-0.1025389
-5.169216	(Ken	-0.1025448
-5.169216	(Let's	-0.1025271
-5.169216	(Like	-0.1023094
-5.169216	(Ludwig	-0.1025448
-5.169216	(M1,	-0.1025448
-5.169216	(MNNA)"](http://www.nato.int/docu/review/1999/9901-02.htm)	-0.1025066
-5.169216	(Maiandros,	-0.09914288
-5.169216	(Makes	-0.1021711
-5.169216	(Many	-0.1023889
-5.169216	(NB.	-0.1005488
-5.169216	(Never	-0.1024124
-5.169216	(Norway	-0.1017882
-5.169216	(OXI).	-0.1025448
-5.169216	(POWER	-0.0965798
-5.169216	(Portugal	-0.1020621
-5.169216	(Propagana	-0.09671398
-5.169216	(Read:	-0.1024036
-5.169216	(Russia	-0.0965798
-5.169216	(Sorry,	-0.1011158
-5.169216	(Spain,	-0.1025448
-4.868186	(The	-0.1022241
-5.169216	(There	-0.09769371
-5.169216	(This	-0.09769371
-5.169216	(To	-0.102536
-5.169216	(Trying	-0.09415148
-5.169216	(Tsakalotos'	-0.1025301
-4.868186	(West	-0.2414021
-5.169216	(Y)	-0.08430623
-5.169216	(Yay,	-0.1019178
-5.169216	(Yeah,	-0.09914288
-5.169216	(You	-0.1017587
-5.169216	([French](https://en.wikipedia.org/wiki/French_language):	-0.1025448
-5.169216	([WP](http://en.wikipedia.org/wiki/Budget_of_the_European_Union#Net_contributors_and_recipients))	-0.0965798
-5.169216	([Wikipedia](http://en.wikipedia.org/wiki/Planned_economy))	-0.08430623
-5.169216	([alt](http://en.wikipedia.org/wiki/List_of_countries_in_Europe_by_monthly_average_wage))	-0.1023506
-5.169216	([Γαλάτεια	-0.1025448
-4.324118	(a	-0.1377063
-5.169216	(a)	-0.09914288
-5.169216	(above)	-0.09769371
-5.169216	(accounting	-0.09969099
-5.169216	(after	-0.1023447
-5.169216	(again	-0.1005488
-5.169216	(ahemamerica).	-0.08430623
-4.470246	(aka	-0.08917183
-5.169216	(albeit	-0.1023948
-5.169216	(albeit,	-0.1005488
-5.169216	(all	-0.09825851
-4.868186	(almost	-0.241099
-4.868186	(along	-0.2399879
-4.868186	(already	-0.09825554
-5.169216	(although	-0.09914288
-5.169216	(always	-0.1008176
-5.169216	(amongst	-0.1020621
-5.169216	(an	-0.09415148
-3.754242	(and	-0.1057144
-5.169216	(arguably	-0.08919609
-5.169216	(around	-0.1025448
-4.470246	(as	-0.1433028
-4.567156	(at	-0.2841529
-5.169216	(b)	-0.1025448
-5.169216	(bail	-0.1025448
-5.169216	(batshit	-0.1025301
-5.169216	(because	-0.1025036
-5.169216	(believe	-0.09998994
-5.169216	(billions	-0.0965798
-5.169216	(bougiourdi).	-0.1019679
-5.169216	(bribing,	-0.1025036
-4.868186	(but	-0.1013843
-4.868186	(by	-0.1019767
-5.169216	(c)	-0.1025448
-5.169216	(capped	-0.1014846
-5.169216	(centralised	-0.1022623
-5.169216	(close	-0.09415148
-5.169216	(coming	-0.101629
-5.169216	(communists	-0.0965798
-5.169216	(considering	-0.1020709
-5.169216	(contrary	-0.09415148
-5.169216	(cooked	-0.1025448
-5.169216	(correctly)	-0.1025066
-5.169216	(cuts	-0.09825851
-5.169216	(despite	-0.1023094
-5.169216	(doctors	-0.102536
-5.169216	(dorada/tsipura)	-0.1015406
-5.169216	(downvote).	-0.08430623
-5.169216	(due	-0.09415148
-4.567156	(e.g.	-0.1025154
-5.169216	(edit:	-0.1024771
-5.169216	(espresso,	-0.102536
-4.868186	(even	-0.08830337
-5.169216	(experts	-0.09671398
-5.169216	(fake	-0.1024065
-5.169216	(far	-0.1024036
-5.169216	(figure	-0.1020592
-5.169216	(fine)	-0.1011158
-5.169216	(fished	-0.09415148
-4.692094	(for	-0.0964426
-4.868186	(former	-0.1025007
-5.169216	(formerly	-0.1025448
-5.169216	(fresh	-0.1025448
-5.169216	(fried	-0.1025448
-4.868186	(from	-0.09604865
-5.169216	(fucking	-0.1025448
-5.169216	(fyi	-0.1023212
-5.169216	(generally).	-0.08430623
-5.169216	(grad	-0.1025448
-4.692094	(granted,	-0.1894059
-5.169216	(grape,	-0.1025448
-4.868186	(great	-0.2385542
-5.169216	(gyro	-0.1025448
-5.169216	(he	-0.1010715
-5.169216	(high	-0.1022859
-5.169216	(http://www.eurofound.europa.eu/ewco/studies/tn0702028s/tn0702028s_5.htm)	-0.08430623
-5.169216	(http://www.zougla.gr/politiki/article/lista)	-0.08430623
-5.169216	(http://youtu.be/MwpuJoIvMyA)	-0.08430623
-5.169216	(https://scontent-fra3-1.xx.fbcdn.net/hphotos-xta1/v/t1.0-9/11401290_996597603718637_8367214216421303769_n.jpg?oh=5354d9d694e7060be68ad0df84d80e9b&oe=562EE6C5)	-0.08430623
-5.169216	(https://www.youtube.com/watch?feature=player_detailpage&v=h7jq5bp52RI#t=131s)	-0.08430623
-4.214973	(i.e.	-0.124353
-4.868186	(ie	-0.1024595
-4.324118	(if	-0.2345925
-5.169216	(ignore	-0.09829119
-4.324118	(in	-0.1237197
-4.470246	(including	-0.08299129
-5.169216	(insert	-0.1025448
-5.169216	(instead	-0.09671398
-4.391065	(it	-0.2627385
-5.169216	(jon	-0.1025448
-4.692094	(just	-0.1840113
-5.169216	(keep	-0.09825851
-5.169216	(ki	-0.1011778
-5.169216	(latest	-0.09914288
-5.169216	(lavraki)?	-0.1025154
-4.868186	(let's	-0.1022859
-4.266126	(like	-0.08558968
-5.169216	(live	-0.1010332
-5.169216	(mainly	-0.1025448
-5.169216	(malakes-μαλάκες),	-0.1011158
-5.169216	(many	-0.1025448
-4.567156	(maybe	-0.1025036
-5.169216	(minus	-0.08919609
-5.169216	(most	-0.1025448
-5.169216	(most?)	-0.102536
-5.169216	(mostly	-0.101629
-5.169216	(my	-0.1025183
-5.169216	(nationale	-0.1025448
-5.169216	(need	-0.09415148
-5.169216	(neither	-0.09825851
-4.868186	(nexus	-0.241405
-4.868186	(no	-0.1025418
-5.169216	(none	-0.09671398
-4.868186	(nor	-0.09960511
-4.169216	(not	-0.1199026
-5.169216	(note	-0.1023565
-5.169216	(notice	-0.1021033
-5.169216	(now	-0.1020592
-5.169216	(of	-0.1019885
-5.169216	(only	-0.102536
-5.169216	(only)	-0.1025448
-4.169216	(or	-0.1470963
-5.169216	(our	-0.1025007
-5.169216	(past	-0.102536
-4.868186	(perhaps	-0.08919306
-4.868186	(pesticide	-0.235443
-5.169216	(platamona	-0.1022976
-5.169216	(possibly	-0.1025448
-5.169216	(ppl	-0.0965798
-5.169216	(private	-0.1025242
-5.169216	(properly)	-0.1021151
-5.169216	(public)	-0.102536
-5.169216	(quite	-0.1025418
-5.169216	(random	-0.1025242
-5.169216	(real	-0.1025448
-5.169216	(real)	-0.102536
-5.169216	(reasonable	-0.1021769
-5.169216	(regarding	-0.1022859
-5.169216	(regulating	-0.1016555
-5.169216	(relative	-0.09415148
-5.169216	(relying	-0.1010332
-5.169216	(restaurants,	-0.1025448
-5.169216	(retroactively)	-0.09415148
-5.169216	(roughly)	-0.1011158
-5.169216	(s/m,	-0.102536
-5.169216	(sales	-0.1022859
-5.169216	(same	-0.1025213
-5.169216	(say)	-0.1011778
-5.169216	(see	-0.08919609
-5.169216	(see:	-0.1025448
-5.169216	(shadowban),	-0.1015317
-4.692094	(since	-0.1873272
-5.169216	(skip	-0.1017823
-4.470246	(so	-0.144513
-5.169216	(social	-0.1025301
-5.169216	(somewhat	-0.1025448
-4.868186	(sorry	-0.1024624
-5.169216	(sounds	-0.1025418
-4.692094	(specially	-0.1011099
-5.169216	(still)	-0.102068
-5.169216	(sto	-0.102533
-5.169216	(stupid	-0.102536
-5.169216	(subjective)	-0.1025448
-5.169216	(taste	-0.1025448
-4.868186	(tax	-0.2413844
-5.169216	(terrible,	-0.1025418
-4.868186	(thanks	-0.09413648
-4.090034	(that	-0.1610868
-4.127823	(the	-0.1242217
-5.169216	(thepressproject.gr)	-0.09838623
-5.169216	(these	-0.1003389
-4.868186	(they	-0.1019502
-4.470246	(this	-0.0892143
-4.567156	(though	-0.1565995
-4.692094	(to	-0.1024712
-5.169216	(traditionally	-0.08919609
-5.169216	(unrighteously)	-0.1025301
-5.169216	(unsustainable).	-0.08430623
-5.169216	(upto	-0.1024477
-5.169216	(us	-0.102536
-5.169216	(using	-0.1024095
-5.169216	(usually	-0.1011247
-5.169216	(very	-0.1025448
-5.169216	(video	-0.1025448
-4.868186	(we	-0.1017056
-5.169216	(we)	-0.1024183
-5.169216	(well	-0.1024889
-5.169216	(well,	-0.1021858
-5.169216	(what	-0.09654103
-5.169216	(what's	-0.1024536
-4.868186	(when	-0.2280593
-3.771276	(which	-0.253289
-5.169216	(while	-0.1014846
-4.692094	(who	-0.09717583
-4.868186	(with	-0.1016762
-5.169216	(worker	-0.1025448
-5.169216	(worst	-0.1019679
-5.169216	(writing	-0.1025389
-5.169216	(wtvr)	-0.1023889
-5.169216	(x	-0.1025448
-5.169216	(yet).	-0.1025213
-4.567156	(you	-0.1006404
-5.169216	(you'll	-0.1023065
-5.169216	(yours	-0.1025418
-5.169216	(~586	-0.1016821
-5.169216	(Άσχετο	-0.1020621
-5.169216	(Γιατί	-0.1025448
-5.169216	(Δε	-0.1025124
-5.169216	(Διάβασε	-0.09838623
-5.169216	(ΕΛ)ληνικο	-0.1025448
-5.169216	(Και)	-0.1025448
-5.169216	(Καιάδα)	-0.1025389
-5.169216	(Μπλουμ	-0.1020975
-5.169216	(ΟΚ	-0.1025418
-5.169216	(ΠΑΣΟΚ/ΝΔ/Ποτάμι)	-0.1013548
-5.169216	(Σύριζα	-0.09838623
-5.169216	(Τι	-0.1025213
-5.169216	(Υ.Γ.	-0.1022711
-4.868186	(ΦΕΚ	-0.241405
-5.169216	(άρα	-0.1005193
-4.868186	(ένα	-0.2413992
-5.169216	(έπειτα	-0.1015317
-5.169216	(έχω	-0.1025389
-4.266126	(ή	-0.1609259
-4.868186	(ήδη	-0.09861485
-4.868186	(αλλά	-0.1006522
-5.169216	(αλλιώς	-0.1025448
-4.567156	(αν	-0.09806241
-5.169216	(ανεξάρτητα	-0.1015317
-5.169216	(ανεργία,	-0.1025418
-5.169216	(αντίθετα	-0.1025066
-4.868186	(απ'	-0.241358
-5.169216	(απο	-0.09863266
-5.169216	(αποτελεί	-0.1025124
-4.692094	(από	-0.0982793
-5.169216	(αρχές	-0.1013902
-5.169216	(ασχέτως	-0.1013902
-5.169216	(αυτοί	-0.1024301
-5.169216	(αυτό	-0.1005193
-5.169216	(αυτός	-0.1022005
-5.169216	(αφού	-0.1023742
-5.169216	(βέβαια	-0.102068
-5.169216	(βαρετό	-0.1009653
-5.169216	(βλέπω	-0.1025448
-5.169216	(για	-0.1025007
-5.169216	(γιατί	-0.1024036
-4.868186	(γιατι	-0.09967026
-5.169216	(δάνεια,	-0.1025448
-5.169216	(δεδομένου	-0.1013548
-4.324118	(δεν	-0.1316729
-5.169216	(δεν)	-0.1025448
-5.169216	(δες	-0.1024095
-5.169216	(δηλαδή	-0.1014993
-5.169216	(δημόσιο)	-0.1024683
-5.169216	(διασταύρωση),	-0.1009653
-4.868186	(διότι	-0.241405
-5.169216	(εγώ	-0.09863266
-5.169216	(εδώ	-0.1015317
-5.169216	(ειλικρινά	-0.1025448
-5.169216	(ειμαι	-0.1025301
-5.169216	(ελευθερη	-0.1025418
-5.169216	(εμείς	-0.1018825
-5.169216	(εμειναν	-0.1023624
-5.169216	(εξωτερικό	-0.1024095
-5.169216	(ευρωκοινοβούλιο,	-0.1025418
-4.567156	(η	-0.1024536
-5.169216	(θεμιτο	-0.1025448
-5.169216	(ιστοσελίδες,	-0.1025418
-4.692094	(κ	-0.1024801
-3.890462	(και	-0.1153098
-5.169216	(καμιά	-0.1025448
-5.169216	(κανείς	-0.102533
-5.169216	(κατά	-0.1025418
-5.169216	(κι	-0.1025389
-5.169216	(κλπ.)	-0.08430623
-4.868186	(κυρίως	-0.09862969
-5.169216	(λέω	-0.1024212
-5.169216	(λίγο	-0.1023212
-5.169216	(λόγω	-0.1025448
-5.169216	(μάλιστα	-0.09863266
-5.169216	(μένουν	-0.1010715
-5.169216	(μαζί	-0.1010715
-5.169216	(μαλάκας^TM	-0.102536
-4.692094	(με	-0.1017705
-5.169216	(μικρή	-0.1025066
-5.169216	(μλκ	-0.1020975
-5.169216	(μου	-0.09863266
-5.169216	(μπορει	-0.09838623
-5.169216	(νέος	-0.1025389
-5.169216	(να	-0.09863266
-5.169216	(ναι	-0.1024389
-5.169216	(νεο)ελληνική	-0.1025271
-5.169216	(νομίζω)	-0.1025448
-5.169216	(νομιζω	-0.1025242
-4.868186	(ο	-0.1025418
-5.169216	(οδήγησε	-0.1014993
-5.169216	(οι	-0.1025448
-5.169216	(οτι	-0.1025389
-5.169216	(ούτε	-0.1024948
-4.391065	(π.χ.	-0.09766396
-5.169216	(παραδόξως	-0.1006552
-5.169216	(πικρα	-0.1025448
-5.169216	(πλην	-0.1025448
-5.169216	(πολιτική),	-0.1014079
-5.169216	(πολύ	-0.1025448
-4.324118	(που	-0.1317177
-5.169216	(προφανως	-0.09838623
-4.692094	(προφανώς	-0.189347
-4.868186	(σε	-0.1017027
-5.169216	(στεγαστικα	-0.102533
-5.169216	(στη	-0.1025448
-4.868186	(στο	-0.1025418
-4.868186	(συχνά	-0.1010686
-5.169216	(σωστή)	-0.1025448
-4.391065	(το	-0.1438897
-5.169216	(τουναντίον).	-0.08430623
-4.692094	(τους	-0.1900182
-5.169216	(τυπικα)	-0.1025418
-5.169216	(των	-0.1025448
-5.169216	(τύπου	-0.1025448
-5.169216	(υπάρχει	-0.1015671
-5.169216	(υποθέτω	-0.1025389
-5.169216	(φιλελευθεριακός).	-0.08430623
-5.169216	(φιλελεύθερος)	-0.1020975
-5.169216	(φτάνουν	-0.1022123
-5.169216	(χ.α.)...	-0.08430623
-5.169216	(χοντρικα)	-0.08430623
-5.169216	(χρονια?)	-0.1022623
-5.169216	(ό,τι	-0.1025301
-5.169216	(όλο	-0.09863266
-5.169216	(όπου	-0.1024418
-4.567156	(όπως	-0.2362593
-4.470246	(όχι	-0.1010745
-4.169216	)	-0.4378295
-4.567156	).	-0.1469916
-3.336707	*	-0.1909541
-5.169216	*"κάτι"*	-0.1022682
-5.169216	*(transitive,	-0.1025448
-5.169216	*****	-0.08430623
-5.169216	***Please	-0.1025448
-5.169216	**1	-0.102536
-5.169216	**10	-0.1025095
-5.169216	**53.5%**	-0.1025036
-5.169216	**8%**.	-0.08430623
-5.169216	**If	-0.1013813
-5.169216	**Never	-0.1017882
-5.169216	**Post	-0.1025301
-5.169216	**Stats:**	-0.1021387
-4.868186	**The	-0.1024801
-5.169216	**Title-text:**	-0.1023271
-5.169216	**Title:**	-0.1025448
-5.169216	**United**	-0.1025418
-5.169216	**What's	-0.08919609
-5.169216	**Why	-0.1003389
-5.169216	**[collect	-0.1025448
-5.169216	**at	-0.08919609
-5.169216	**did	-0.1005488
-5.169216	**how	-0.1010332
-5.169216	**increased**.	-0.08430623
-5.169216	**is	-0.09654103
-4.868186	**not**	-0.1007527
-5.169216	**tl;dr**	-0.1021269
-5.169216	**understands	-0.1022388
-5.169216	**ΘΕΛΑΝ**	-0.09844265
-5.169216	**Προεδρικού	-0.1025448
-5.169216	**Χωρίς	-0.1025183
-5.169216	**άνδρες**	-0.102536
-5.169216	**ανωνύμων	-0.1025448
-5.169216	**διαφορετική	-0.1025448
-5.169216	**εξαφανίζει**	-0.1025389
-5.169216	**επέλεξε**	-0.1021033
-5.169216	**ευθέως**	-0.09838623
-5.169216	**θα	-0.1025389
-5.169216	**κάνατε**	-0.1025271
-4.868186	**και	-0.09786025
-5.169216	**κοπέλα**	-0.1020386
-5.169216	**ξέρω**.	-0.1024065
-5.169216	**ο	-0.1025448
-5.169216	**πάση	-0.1025448
-5.169216	**περικοπές**.	-0.1024124
-5.169216	**ποια**	-0.1005193
-5.169216	**ρητώς**	-0.1013548
-5.169216	**τί	-0.1005193
-5.169216	**φόρους**	-0.1024683
-5.169216	**€130**	-0.102533
-5.169216	**€48bn**),	-0.1023506
-5.169216	*.*	-0.08430623
-5.169216	*A	-0.1024507
-5.169216	*Due	-0.09415148
-4.868186	*French*	-0.09828822
-5.169216	*German*	-0.1024536
-5.169216	*Greece*	-0.1010715
-5.169216	*Here's	-0.08919609
-5.169216	*Hey	-0.1025418
-5.169216	*How*?	-0.1025066
-5.169216	*IS	-0.1025448
-5.169216	*Non-essentials*	-0.09769371
-5.169216	*Since	-0.1020444
-4.868186	*The	-0.241405
-5.169216	*TurbanatorUK*.	-0.08430623
-5.169216	*Who	-0.1025448
-5.169216	*Zentralbank*	-0.1025242
-5.169216	*a	-0.1025448
-5.169216	*actually	-0.1025448
-5.169216	*after*	-0.09829119
-5.169216	*all*	-0.09671398
-4.868186	*almost*	-0.1025389
-5.169216	*an*	-0.1025124
-5.169216	*and*	-0.1025418
-5.169216	*any	-0.0965798
-5.169216	*are	-0.1025418
-5.169216	*as	-0.1025418
-5.169216	*average	-0.1024712
-4.868186	*average*	-0.241255
-5.169216	*baldly	-0.08430623
-5.169216	*before*	-0.1021652
-5.169216	*blond*.	-0.08430623
-5.169216	*bona	-0.1025448
-5.169216	*can	-0.1025418
-5.169216	*can't*	-0.1022859
-5.169216	*caused	-0.08919609
-5.169216	*could*	-0.1025242
-5.169216	*current*	-0.1024242
-5.169216	*dangerout	-0.1025389
-5.169216	*do*	-0.1021769
-5.169216	*eat	-0.1015229
-5.169216	*edit	-0.1021269
-5.169216	*edit:	-0.1025448
-5.169216	*especially*	-0.1016821
-5.169216	*expected*	-0.09654103
-5.169216	*facepalm*	-0.08430623
-5.169216	*feelsgoodman.jpg*	-0.08430623
-5.169216	*fresh*.	-0.1021387
-4.868186	*from	-0.1025418
-5.169216	*generation*.	-0.1025418
-5.169216	*had*	-0.1025183
-5.169216	*have*	-0.1025242
-5.169216	*here	-0.0965798
-5.169216	*how	-0.08919609
-5.169216	*in	-0.08919609
-5.169216	*is*	-0.1025448
-5.169216	*kanei	-0.1025448
-5.169216	*kinda*	-0.1025418
-5.169216	*lost*	-0.1022329
-5.169216	*make	-0.1025448
-5.169216	*may	-0.1005488
-4.868186	*might*	-0.1007527
-5.169216	*most	-0.1025448
-5.169216	*most*	-0.1025095
-5.169216	*mostly*	-0.1018883
-5.169216	*must*	-0.1024977
-5.169216	*nearly*	-0.09825851
-5.169216	*need*	-0.1025418
-4.692094	*not*	-0.09566329
-5.169216	*our*	-0.1022947
-5.169216	*raise*	-0.08919609
-5.169216	*really*	-0.1024389
-5.169216	*roughly*	-0.1025448
-5.169216	*six*	-0.09671398
-5.169216	*some*	-0.09671398
-5.169216	*somewhat*	-0.1025418
-5.169216	*sounds	-0.1025448
-5.169216	*started	-0.1025448
-5.169216	*stiffs	-0.1025448
-5.169216	*still*	-0.1025183
-4.868186	*the*	-0.1023536
-5.169216	*they've	-0.1024301
-5.169216	*to	-0.1025448
-5.169216	*type*	-0.09671398
-5.169216	*very*	-0.1025448
-5.169216	*wearing	-0.1025448
-5.169216	*when*	-0.09940369
-5.169216	*whoosh*	-0.08430623
-5.169216	*will*	-0.1025154
-5.169216	*wink*	-0.08430623
-4.868186	*your*	-0.10228
-5.169216	*Βαρουφάκη	-0.08430623
-5.169216	*Εμείς*	-0.1009653
-5.169216	*ακριβώς*	-0.1025213
-5.169216	*αμέσως*	-0.102536
-5.169216	*αυτός	-0.1007763
-5.169216	*γιατί*	-0.102068
-5.169216	*δεν*	-0.1025271
-5.169216	*διαφωνείς	-0.1010715
-5.169216	*ζωή	-0.1025448
-5.169216	*και*	-0.1025448
-5.169216	*ξέρεις*	-0.1022299
-5.169216	*ποσο*	-0.1025448
-5.169216	*συζητήσιμο*	-0.09863266
-5.169216	*ταις	-0.1025095
-4.169216	+	-0.08364618
-3.913943	+/u/dogedtip	-1.209759
-4.692094	+1	-0.1701872
-5.169216	+1.	-0.1021181
-5.169216	+16	-0.09825851
-5.169216	+20.9%.	-0.1015111
-5.169216	+23.	-0.1025418
-5.169216	+5000	-0.1021828
-5.169216	+ΕΛΕΥΘΕΡΟCON+	-0.08430623
-5.169216	+ΜΕΣΑΙΑ	-0.1025448
-3.497118	,	-0.05522966
-5.169216	,vancouver	-0.0965798
-5.169216	,δεν	-0.102533
-5.169216	,κάποιος	-0.1025448
-5.169216	,ρε	-0.1025301
-5.169216	,τώρα	-0.1025389
-3.01388	-	-0.1227269
-4.055273	--	-0.09259941
-4.169216	---	-1.023151
-4.324118	----	-0.7814612
-5.169216	---E	-0.08430623
-5.169216	---€	-0.08430623
-5.169216	---₯	-0.08430623
-5.169216	--relies.	-0.1024006
-5.169216	-.-	-0.08430623
-5.169216	-1	-0.1020621
-5.169216	-12;	-0.1025389
-5.169216	-2.3%	-0.09671398
-5.169216	-3...	-0.08430623
-4.868186	-4	-0.2413933
-5.169216	-8	-0.09825851
-5.169216	-800	-0.1025418
-5.169216	-9.4%	-0.09671398
-4.692094	->	-0.1025124
-5.169216	-Albert	-0.1025448
-5.169216	-Angela	-0.102486
-5.169216	-I	-0.1022152
-5.169216	-I'm	-0.1025418
-5.169216	-Just	-0.1016555
-5.169216	-No	-0.1025448
-5.169216	-Well,	-0.1018176
-5.169216	-You	-0.1022211
-5.169216	-a	-0.1025213
-5.169216	-and	-0.1025154
-5.169216	-friedumb	-0.08430623
-5.169216	-google	-0.102536
-5.169216	-in	-0.09654103
-5.169216	-lower	-0.1019679
-5.169216	-neoliberal-	-0.102536
-5.169216	-now	-0.1025448
-5.169216	-one	-0.1022358
-5.169216	-shady-	-0.1025389
-5.169216	-the	-0.1024918
-4.868186	-though	-0.09907468
-5.169216	-unfortunately-	-0.1025066
-5.169216	-utopian,	-0.1025448
-5.169216	-Θυμάσαι	-0.1021828
-4.868186	-αν	-0.09828822
-5.169216	-αναπόδειχτο-	-0.1025448
-5.169216	-το	-0.1021828
-5.169216	-όχι	-0.1022741
-3.754242	.	-0.2896645
-3.890462	...	-0.1885586
-5.169216	...)	-0.09769371
-5.169216	...Oh,	-0.09914288
-4.692094	...and	-0.1014728
-5.169216	...anyways..	-0.1025213
-5.169216	...he	-0.1016438
-5.169216	...the	-0.1025448
-5.169216	...then	-0.1025418
-5.169216	...έχεις	-0.102483
-5.169216	..however	-0.08919609
-5.169216	.9	-0.1025301
-5.169216	.NET	-0.09838623
-5.169216	.eu	-0.1024712
-5.169216	.svg	-0.1020621
-5.169216	.svg](http://imgh.us/r_greece.svg).	-0.10233
-5.169216	.Ενω	-0.1014079
-4.324118	/	-0.09433737
-4.868186	/int/	-0.1021593
-5.169216	/r/	-0.1015111
-5.169216	/r/DotA2	-0.08430623
-4.692094	/r/Europe	-0.1884416
-5.169216	/r/FellowKids.	-0.1025418
-5.169216	/r/GlobalOffensive	-0.1017558
-5.169216	/r/Greece	-0.1023212
-5.169216	/r/Greece,	-0.1020032
-5.169216	/r/Greece.	-0.09914288
-5.169216	/r/GreecePorn!	-0.08430623
-5.169216	/r/IAMA	-0.1024654
-5.169216	/r/IAmA).	-0.08430623
-5.169216	/r/IAmA.	-0.08430623
-5.169216	/r/TumblrInAction.	-0.08430623
-5.169216	/r/adviceanimals	-0.08430623
-5.169216	/r/bicycletouring	-0.08430623
-5.169216	/r/bicycling	-0.08430623
-5.169216	/r/bringbackhardouvelisemail.	-0.08430623
-5.169216	/r/centuryclub	-0.1007763
-5.169216	/r/coffee	-0.1025448
-5.169216	/r/conspiracy	-0.09844265
-5.169216	/r/cringepics	-0.08430623
-5.169216	/r/dadjokes	-0.08430623
-5.169216	/r/earthporn	-0.1011778
-5.169216	/r/economics	-0.1019885
-4.868186	/r/europe	-0.09755389
-5.169216	/r/europe)	-0.09838623
-4.692094	/r/europe,	-0.1024153
-5.169216	/r/europe.	-0.08430623
-5.169216	/r/facepalm	-0.08430623
-5.169216	/r/frappe).	-0.08430623
-5.169216	/r/funny	-0.1024889
-5.169216	/r/funny.	-0.08430623
-5.169216	/r/gaming	-0.1025448
-3.868186	/r/greece	-0.18017
-4.868186	/r/greece)	-0.08429089
-4.868186	/r/greece).	-0.08430316
-4.567156	/r/greece,	-0.100401
-4.324118	/r/greece.	-0.1789295
-5.169216	/r/greece/	-0.102536
-4.868186	/r/greece;	-0.241405
-4.692094	/r/greece?	-0.1024565
-5.169216	/r/greece[2]	-0.1025095
-5.169216	/r/greece](http://imgur.com/a/YFy5r)	-0.08430623
-5.169216	/r/greececirclejerk	-0.08430623
-5.169216	/r/greececirclejerk?	-0.08430623
-5.169216	/r/greeceporn	-0.09940369
-5.169216	/r/greekcirclejerk!	-0.08430623
-5.169216	/r/greekpolitics	-0.09838623
-5.169216	/r/historyporn	-0.08430623
-4.692094	/r/iama	-0.07607795
-5.169216	/r/iama?	-0.08430623
-5.169216	/r/noshitsherlock	-0.1020621
-5.169216	/r/photography	-0.08430623
-4.692094	/r/pics	-0.09736639
-5.169216	/r/polandball	-0.1025418
-5.169216	/r/pyongyang	-0.08430623
-5.169216	/r/reddit.com/	-0.102536
-5.169216	/r/shitpost).	-0.1025448
-5.169216	/r/syriza,	-0.1025448
-5.169216	/r/technology	-0.1025448
-5.169216	/r/thatHappened	-0.08430623
-5.169216	/r/toolbox	-0.1005193
-5.169216	/r/travel	-0.08430623
-5.169216	/r/unexpectedjihad	-0.102536
-5.169216	/r/worldnews.	-0.08430623
-5.169216	/rIAmA	-0.1010715
-4.391065	/s	-0.736257
-5.169216	/sarcasm	-0.08430623
-4.567156	/u/Anwnymia	-0.1024095
-5.169216	/u/Anwnymia.	-0.1025036
-5.169216	/u/Anwnymia;	-0.08430623
-4.868186	/u/Anwnymia[1]	-0.2414021
-5.169216	/u/Anwnymia[3]	-0.1025389
-5.169216	/u/GovSchwarzenegger	-0.08430623
-4.868186	/u/Naurgul	-0.0967885
-5.169216	/u/Naurgul,	-0.1025448
-5.169216	/u/Naurgul.	-0.08430623
-5.169216	/u/NonAmerican	-0.1005193
-5.169216	/u/Quzga	-0.08430623
-5.169216	/u/Stockguy777,	-0.1025448
-5.169216	/u/changetip	-0.1023624
-5.169216	/u/chooter)	-0.1015317
-5.169216	/u/e1821e)	-0.1014993
-4.391065	/u/gschizas	-0.09331396
-5.169216	/u/gschizas.	-0.08430623
-5.169216	/u/iamamemeama	-0.09969099
-4.692094	/u/kafros	-0.08198085
-5.169216	/u/kafros.	-0.1025448
-5.169216	/u/karmanaut	-0.1007763
-5.169216	/u/kerato	-0.08430623
-5.169216	/u/koyima	-0.1020032
-5.169216	/u/naurgul	-0.1025271
-5.169216	/u/naurgul.	-0.08430623
-5.169216	0	-0.1025271
-4.692094	0%	-0.09661558
-5.169216	0,1%	-0.1011689
-5.169216	0.0039%	-0.08919609
-5.169216	0.4%	-0.1024771
-5.169216	0.48%	-0.09671398
-4.692094	00100000	-0.1900182
-5.169216	0030	-0.1025448
-5.169216	01001001	-0.1025389
-4.692094	01100001	-0.1025301
-5.169216	01101000	-0.1025448
-4.868186	01101101	-0.1025301
-5.169216	01101110	-0.08430623
-5.169216	01110101	-0.1025418
-5.169216	05:11	-0.1025448
-5.169216	09:50:04	-0.1025448
-4.868186	0e	-0.2412285
-3.637737	1	-0.1049873
-5.169216	1%	-0.1025448
-4.266126	1)	-0.1021622
-5.169216	1)Falafel	-0.09769371
-4.692094	1,	-0.36755
-4.868186	1,000	-0.0965291
-5.169216	1,4%	-0.1022594
-5.169216	1,500.	-0.08919609
-5.169216	1,6	-0.1025301
-5.169216	1,96%	-0.1019266
-5.169216	1,991	-0.1025242
-4.868186	1-2	-0.102486
-4.169216	1.	-0.1218685
-5.169216	1.098.400	-0.1024095
-4.868186	1.10	-0.1010036
-5.169216	1.1EUR	-0.1025448
-5.169216	1.2	-0.1025448
-5.169216	1.21	-0.1025389
-5.169216	1.292.300	-0.1021151
-5.169216	1.5	-0.1025124
-4.868186	1.5%	-0.09643961
-4.692094	1.6	-0.1024683
-5.169216	1.65	-0.1025418
-5.169216	1.70	-0.1025448
-5.169216	1.9	-0.1021269
-5.169216	1.96%	-0.1025124
-5.169216	1/10	-0.08430623
-4.692094	1/3	-0.3619016
-5.169216	1/3rd	-0.09671398
-5.169216	1/4	-0.09671398
-3.706818	10	-0.1603598
-4.391065	10%	-0.13842
-4.692094	10+	-0.10238
-5.169216	10-11%,	-0.1019767
-5.169216	10-12	-0.1023271
-5.169216	10-15	-0.1025448
-5.169216	10-year	-0.1025242
-5.169216	10.	-0.08430623
-5.169216	10.000Ε	-0.09863266
-5.169216	10/10	-0.08430623
-3.722058	100	-0.454015
-4.090034	100%	-0.1130473
-5.169216	100%.	-0.1024977
-5.169216	100,000	-0.102483
-5.169216	100-speed	-0.1025213
-4.090034	1000	-0.3708027
-5.169216	100Eur	-0.1025448
-5.169216	100e.	-0.08430623
-5.169216	100k	-0.1018
-5.169216	100Κ	-0.1024095
-5.169216	100άδες	-0.1025389
-5.169216	1015	-0.1025448
-4.868186	10:1).	-0.2410019
-4.868186	10k	-0.1019738
-5.169216	10th	-0.1025448
-5.169216	10x	-0.1018
-5.169216	10~20	-0.1024977
-5.169216	10ος	-0.1025448
-4.868186	11	-0.1025418
-4.266126	11%	-0.2588698
-5.169216	11%.	-0.1025418
-5.169216	11,	-0.1025007
-5.169216	1100	-0.1025448
-5.169216	110billion	-0.1025448
-4.090034	12	-0.176919
-5.169216	12%,	-0.1023565
-5.169216	12-16	-0.1024389
-5.169216	12/10	-0.1025271
-5.169216	120	-0.1025389
-5.169216	120,	-0.1022623
-5.169216	1200	-0.1025448
-5.169216	1200Eur.	-0.08430623
-5.169216	1204	-0.1025448
-5.169216	125	-0.1024801
-5.169216	128	-0.1025124
-5.169216	12m2	-0.1025124
-4.692094	13	-0.1870636
-4.868186	13'	-0.09724134
-5.169216	131.957.400	-0.1025448
-4.567156	137	-0.2411549
-4.868186	13th	-0.096371
-4.868186	13ο	-0.2414021
-4.324118	14	-0.1762185
-5.169216	14)...	-0.1017734
-5.169216	1400	-0.09969099
-5.169216	140€.	-0.1022034
-5.169216	145.000	-0.08430623
-5.169216	148.28	-0.102483
-5.169216	14h	-0.09671398
-4.692094	14th	-0.1024507
-5.169216	14ο	-0.1025448
-4.169216	15	-0.2364165
-4.324118	15%	-0.1234948
-5.169216	15.553.200	-0.1021151
-4.868186	150	-0.102533
-5.169216	150%	-0.1025448
-4.868186	150.000	-0.2413639
-5.169216	1500€	-0.1010125
-5.169216	150Eur?	-0.09914288
-5.169216	150euro	-0.1023653
-5.169216	150€	-0.08430623
-5.169216	15γουστο?	-0.08430623
-4.692094	16	-0.1014934
-5.169216	16,	-0.09825851
-5.169216	160	-0.1024801
-5.169216	162	-0.1025448
-5.169216	165%	-0.1025389
-5.169216	17	-0.1025095
-4.868186	17%	-0.10233
-5.169216	17-27k	-0.1023653
-5.169216	17.5%	-0.09671398
-5.169216	175Eur	-0.08430623
-4.391065	18	-0.1013518
-5.169216	18%	-0.09415148
-5.169216	18,	-0.1008147
-5.169216	18-	-0.1025389
-5.169216	18.	-0.1024683
-4.868186	180	-0.1025389
-5.169216	180%	-0.0965798
-5.169216	180,	-0.1025448
-4.868186	1800	-0.2413992
-4.868186	18th	-0.2413992
-5.169216	18δις	-0.09838623
-5.169216	18–24.	-0.08430623
-4.567156	19%	-0.161795
-5.169216	19%.	-0.1023712
-5.169216	19.6%.	-0.102536
-5.169216	1900s	-0.1016821
-5.169216	1917)	-0.0965798
-5.169216	1940	-0.1024477
-5.169216	1944	-0.08430623
-5.169216	1945.	-0.08430623
-5.169216	1956,	-0.09998994
-5.169216	1957	-0.1014846
-5.169216	1958,	-0.1024565
-5.169216	1975.	-0.102536
-4.868186	1978	-0.0843001
-5.169216	1978,	-0.0965798
-5.169216	1980	-0.1021269
-5.169216	1980-2005	-0.1009653
-5.169216	1986,	-0.1010715
-5.169216	198st	-0.0965798
-5.169216	1991	-0.1011247
-5.169216	1992?	-0.0965798
-5.169216	1994,	-0.1021151
-5.169216	1995,	-0.1025448
-5.169216	1999	-0.102483
-5.169216	1999.	-0.1025271
-5.169216	19th	-0.1025448
-5.169216	1:	-0.1024036
-4.692094	1:1	-0.1898476
-5.169216	1EUR	-0.09829119
-5.169216	1st	-0.09769371
-4.868186	1η	-0.102486
-3.369875	2	-0.1192205
-5.169216	2%	-0.09671398
-5.169216	2%,	-0.102483
-5.169216	2(+1)	-0.09829119
-4.214973	2)	-0.1023594
-5.169216	2+	-0.1025271
-4.868186	2,	-0.1008472
-5.169216	2,000	-0.102483
-5.169216	2,19%	-0.1019266
-5.169216	2,3%	-0.1022594
-5.169216	2-.	-0.1024065
-4.324118	2-3	-0.09796728
-5.169216	2-3am.	-0.1025448
-5.169216	2-6	-0.1025448
-5.169216	2-page	-0.1025271
-4.090034	2.	-0.1211926
-5.169216	2.22%	-0.09671398
-5.169216	2.25%	-0.1025418
-4.868186	2.5	-0.1025271
-5.169216	2.5%	-0.09671398
-5.169216	2.966.582	-0.1024389
-5.169216	2/3	-0.09671398
-5.169216	2/3).	-0.08430623
-3.938767	20	-0.1398998
-4.470246	20%	-0.09376445
-5.169216	20's	-0.09671398
-4.868186	20,	-0.09627551
-5.169216	20,000	-0.09654103
-5.169216	20.	-0.09914288
-5.169216	20.000	-0.102533
-4.470246	200	-0.1024036
-5.169216	200%	-0.1017558
-5.169216	200-250,000k	-0.1023653
-5.169216	200.	-0.08430623
-5.169216	2000	-0.09415148
-5.169216	2000's	-0.1019885
-4.692094	2000,	-0.1899976
-5.169216	2000-6000	-0.1025418
-5.169216	2000.	-0.08430623
-5.169216	2000something	-0.1021151
-5.169216	2000usd.	-0.08430623
-4.868186	2001	-0.235443
-5.169216	2002	-0.1015406
-5.169216	2002)	-0.08430623
-5.169216	2002.	-0.1019679
-5.169216	2002:	-0.1025448
-5.169216	2004,	-0.1025448
-5.169216	2004-2005,	-0.1024536
-5.169216	2005	-0.1025095
-5.169216	2006,	-0.1022976
-5.169216	2006.	-0.1025448
-4.868186	2007	-0.1025418
-5.169216	2007)	-0.09969099
-5.169216	2007,	-0.0965798
-5.169216	2007-2008	-0.1021151
-5.169216	2007.	-0.1021828
-4.266126	2008	-0.1126294
-4.567156	2008,	-0.1629589
-5.169216	2008.	-0.08430623
-5.169216	2008:	-0.1025448
-5.169216	2008?	-0.08430623
-4.692094	2009	-0.1840561
-4.391065	2009.	-0.09756578
-4.692094	2009...	-0.102486
-5.169216	200Eur	-0.1025242
-4.692094	200e	-0.3675529
-5.169216	200eur	-0.0965798
-4.470246	2010	-0.1514831
-4.868186	2010,	-0.09828524
-4.868186	2010.	-0.08392567
-5.169216	2010:	-0.1025448
-4.692094	2011	-0.09999882
-5.169216	2011,	-0.1025066
-5.169216	2011.	-0.08430623
-5.169216	2011/2010	-0.1025448
-4.470246	2012	-0.1154316
-5.169216	2012)	-0.08430623
-5.169216	2012**	-0.1025448
-5.169216	2012,	-0.08919609
-5.169216	2012](http://ec.europa.eu/social/BlobServlet?docId=7805&langId=en)	-0.08430623
-5.169216	2013:	-0.1025418
-4.868186	2014	-0.1021828
-5.169216	2014,	-0.1009653
-5.169216	2014-15.	-0.08430623
-4.692094	2015	-0.1717854
-5.169216	2016	-0.1025213
-5.169216	2017.	-0.08430623
-5.169216	2023.	-0.1025389
-5.169216	2060	-0.1007763
-5.169216	20αριά+	-0.1024654
-5.169216	20€	-0.09863266
-5.169216	212	-0.1025389
-5.169216	21:00-22:00.	-0.1013843
-5.169216	21:20:55	-0.1025448
-5.169216	21:21	-0.1025448
-5.169216	21:24	-0.1025448
-5.169216	21:52	-0.1025448
-5.169216	22	-0.1024595
-5.169216	22%	-0.102533
-5.169216	22/1,	-0.102433
-5.169216	222	-0.09415148
-5.169216	225	-0.102533
-5.169216	23	-0.1025448
-4.391065	23%	-0.1408983
-5.169216	23%.	-0.1021387
-5.169216	24	-0.1025389
-5.169216	24!	-0.08430623
-4.470246	25	-0.1381846
-4.868186	25%	-0.2355772
-5.169216	250+	-0.1025301
-4.868186	26	-0.2402534
-4.567156	27%	-0.1511645
-5.169216	28	-0.1025389
-5.169216	28%	-0.1025301
-5.169216	28η	-0.1023977
-5.169216	28η).	-0.102433
-4.868186	29	-0.09837139
-5.169216	29,	-0.1025301
-5.169216	29.500.000	-0.1025389
-5.169216	2964	-0.102483
-5.169216	2:	-0.1024742
-4.868186	2:1	-0.241405
-5.169216	2am	-0.1025448
-5.169216	2funny2die	-0.08430623
-4.567156	2nd	-0.166388
-5.169216	2t	-0.1025242
-5.169216	2x	-0.1024742
-5.169216	2δις	-0.1020032
-5.169216	2ο	-0.1025418
-5.169216	2€,	-0.1025154
-3.567156	3	-0.1194286
-5.169216	3!!!!!!	-0.08430623
-4.868186	3%	-0.1024536
-4.391065	3)	-0.1221328
-5.169216	3,	-0.102533
-4.567156	3-4	-0.09743188
-4.391065	3.	-0.1020238
-4.868186	3.5:1	-0.235443
-5.169216	3/10	-0.08430623
-5.169216	3/5	-0.1015317
-4.169216	30	-0.1477904
-4.567156	30%	-0.1556326
-5.169216	30's.	-0.1022034
-5.169216	30+%,	-0.1024565
-5.169216	30,8%).	-0.1024359
-5.169216	30-year	-0.1025448
-5.169216	30-year-old	-0.1025448
-4.470246	300	-0.1013695
-5.169216	300Eur,	-0.102533
-4.868186	300χιλιάρικα	-0.1010656
-5.169216	3030	-0.1025448
-5.169216	30s)	-0.09914288
-5.169216	31%	-0.1024771
-4.868186	34	-0.1025418
-5.169216	34%.	-0.1024006
-4.470246	35	-0.1526531
-5.169216	350	-0.1025124
-4.868186	359e	-0.2385542
-4.868186	36	-0.102536
-5.169216	360Eur,	-0.1025389
-5.169216	370something	-0.09671398
-4.868186	385.077	-0.1025154
-5.169216	39.500.000	-0.1025389
-5.169216	39αριού	-0.1025448
-4.868186	3:	-0.1023918
-5.169216	3:10	-0.1020621
-5.169216	3?	-0.08430623
-5.169216	3eme8hstes	-0.1022976
-5.169216	3eperna	-0.1022976
-5.169216	3erw	-0.1025301
-5.169216	3k	-0.1023271
-5.169216	3rd	-0.1024771
-5.169216	3rd](http://apod.nasa.gov/apod/ap130703.html)	-0.08430623
-5.169216	3upnousan	-0.1025448
-5.169216	3€	-0.1007763
-3.722058	4	-0.1145635
-5.169216	4"	-0.1025301
-4.692094	4)	-0.1016202
-5.169216	4)Almost	-0.1024536
-5.169216	4,4%,	-0.1025418
-5.169216	4-5	-0.1025271
-5.169216	4-5,	-0.1025154
-4.567156	4.	-0.08379056
-4.324118	4.5%	-0.1262259
-5.169216	4/5	-0.1025448
-3.993124	40	-0.1796644
-4.692094	40%	-0.3619016
-5.169216	40'	-0.1020975
-5.169216	40,	-0.1023477
-4.692094	400	-0.09652314
-5.169216	4000	-0.1025448
-4.692094	401k	-0.09768181
-5.169216	404	-0.1014993
-5.169216	40h/week	-0.08430623
-5.169216	40k	-0.1023653
-5.169216	40s	-0.09829119
-4.868186	42%	-0.09664242
-5.169216	420%	-0.09671398
-5.169216	420eur	-0.102533
-4.692094	420€	-0.1815947
-5.169216	43'.Είναι	-0.1025418
-5.169216	43.1	-0.1024389
-5.169216	43.598.000	-0.1017823
-5.169216	430Eur.	-0.08430623
-5.169216	43K.	-0.1025448
-5.169216	44	-0.1025448
-4.692094	45	-0.09814561
-4.692094	45%	-0.3619016
-5.169216	45,6%	-0.09838623
-4.692094	450	-0.1898976
-5.169216	450€	-0.09654103
-5.169216	46%	-0.09671398
-5.169216	47	-0.1025448
-4.692094	48	-0.1025242
-5.169216	48,2%	-0.1015406
-5.169216	49.7%	-0.1021269
-5.169216	4:1	-0.102536
-5.169216	4July	-0.1021269
-5.169216	4^th	-0.1024889
-4.324118	4chan	-0.09436135
-5.169216	4chan's	-0.1025418
-5.169216	4chan,	-0.1025448
-5.169216	4chan.	-0.1025448
-4.692094	4th	-0.09668715
-5.169216	4η	-0.1025448
-3.44494	5	-0.2076505
-5.169216	5!").	-0.08430623
-5.169216	5"	-0.1025448
-4.567156	5%	-0.1635604
-5.169216	5'	-0.1012397
-4.692094	5)	-0.08411907
-5.169216	5,	-0.1011158
-5.169216	5,5%,	-0.1025448
-4.692094	5-6	-0.1025095
-5.169216	5-6,000	-0.102483
-5.169216	5-6am.	-0.08430623
-5.169216	5-year	-0.1024536
-4.868186	5.	-0.102483
-5.169216	5...	-0.08430623
-5.169216	5.5%	-0.09969099
-4.023088	50	-0.1062395
-4.324118	50%	-0.3007059
-5.169216	50%.	-0.1025389
-5.169216	50-50	-0.1011689
-4.868186	50-55	-0.07924277
-5.169216	50-55.	-0.1022152
-5.169216	50-60	-0.1024595
-4.868186	500	-0.1014108
-5.169216	500%	-0.09415148
-5.169216	500)	-0.1024918
-5.169216	500-g	-0.1025154
-4.868186	5000e	-0.1021858
-5.169216	500g	-0.09829119
-5.169216	500χμ	-0.1025418
-5.169216	500€	-0.1009653
-5.169216	50?	-0.1024624
-5.169216	50B	-0.1025301
-5.169216	50£	-0.09654103
-5.169216	50Κ.	-0.1025448
-5.169216	50αριά	-0.1025036
-5.169216	52	-0.1025213
-5.169216	52.500.000	-0.1025389
-5.169216	53	-0.1025418
-5.169216	54%.	-0.08430623
-4.692094	55	-0.1001645
-5.169216	55%	-0.09671398
-5.169216	55,	-0.1011158
-4.868186	57	-0.1023329
-5.169216	57th	-0.1025448
-5.169216	58.	-0.08430623
-5.169216	586	-0.1025389
-5.169216	589Eur	-0.08430623
-5.169216	59.6	-0.08430623
-5.169216	59.7	-0.08430623
-5.169216	5:30	-0.1010332
-4.868186	5;	-0.2408546
-5.169216	5EUR/hour	-0.09769371
-5.169216	5Eur	-0.09415148
-4.692094	5e	-0.1897593
-5.169216	5euros	-0.1024801
-4.868186	5th	-0.2355772
-5.169216	5ετίας...	-0.08430623
-5.169216	5λεπτα)	-0.08430623
-5.169216	5λεπτο	-0.09838623
-5.169216	5μηνο	-0.1025213
-5.169216	5ου	-0.1025448
-5.169216	5€	-0.1025448
-5.169216	5€/hr	-0.0965798
-4.324118	6	-0.1721088
-4.868186	6)	-0.08370148
-5.169216	6,26%	-0.09671398
-5.169216	6-12	-0.102483
-5.169216	6.217.000	-0.1015789
-4.868186	6.9%,	-0.1025389
-4.214973	60	-0.1234794
-4.868186	60%	-0.2355772
-5.169216	60-80	-0.1023271
-5.169216	60.	-0.08430623
-5.169216	60.443.500	-0.1025418
-5.169216	60.9	-0.08430623
-4.868186	600	-0.1016172
-4.868186	60m	-0.2413433
-5.169216	60s.	-0.08430623
-5.169216	60yr	-0.1024536
-5.169216	60ς,	-0.1025036
-5.169216	61%	-0.1025418
-5.169216	61.441.900	-0.1025418
-5.169216	61.7	-0.1019885
-5.169216	61.9	-0.08430623
-5.169216	62,47%	-0.09671398
-5.169216	62.1	-0.08430623
-5.169216	63,	-0.1019885
-5.169216	63.7	-0.08430623
-5.169216	64oz	-0.1025448
-4.567156	65	-0.08419272
-5.169216	65%	-0.1025389
-5.169216	65,	-0.1018176
-5.169216	650	-0.102533
-5.169216	650bn	-0.1023418
-4.868186	66	-0.241405
-5.169216	66%	-0.1022241
-5.169216	666	-0.1025448
-4.692094	67	-0.1832591
-5.169216	67%	-0.09969099
-5.169216	69	-0.1011778
-5.169216	6μηνο	-0.1025448
-5.169216	6χρονο	-0.1025448
-4.391065	7	-0.09632921
-4.692094	7%	-0.08419578
-5.169216	7%,	-0.1024212
-5.169216	7%.	-0.1021387
-5.169216	7'	-0.1015406
-5.169216	7',	-0.1024448
-4.868186	7)	-0.08411907
-5.169216	7-8	-0.1024918
-5.169216	7.25	-0.101688
-5.169216	7.3%	-0.09825851
-5.169216	7/10	-0.1025448
-4.055273	70	-0.1617256
-4.391065	70%	-0.1420968
-4.470246	70,	-0.1426257
-5.169216	70-year-olds	-0.1024918
-4.266126	70.	-0.1477999
-5.169216	700	-0.1025448
-5.169216	700-800	-0.102483
-5.169216	700e	-0.1023653
-5.169216	70???	-0.1024683
-5.169216	70s	-0.1011158
-5.169216	70s.	-0.1021387
-5.169216	718	-0.1025418
-5.169216	74)	-0.1022859
-5.169216	75	-0.102533
-4.567156	750	-0.1662703
-5.169216	7pm	-0.09415148
-3.965096	8	-0.2431419
-5.169216	8,5	-0.1024595
-5.169216	8.000	-0.1022476
-5.169216	8.50	-0.09654103
-4.868186	8.50e	-0.1023359
-5.169216	8.50e/month	-0.1024977
-4.324118	80	-0.1970491
-4.470246	80%	-0.2358228
-5.169216	80's	-0.0965798
-5.169216	80-85K	-0.10238
-4.567156	800	-0.1024742
-5.169216	800.	-0.1013843
-5.169216	8000Ευρώ	-0.1017941
-5.169216	800€+	-0.1010125
-5.169216	80m2	-0.102536
-4.692094	80s	-0.08456384
-5.169216	80s,	-0.102383
-5.169216	81-99.9%.	-0.1019914
-4.868186	82m.	-0.08394717
-5.169216	87.	-0.1024418
-4.868186	8:30	-0.09647541
-5.169216	8========D	-0.1014079
-4.169216	8a	-0.0939505
-5.169216	8am	-0.1025448
-5.169216	8am.	-0.1024948
-5.169216	8elei,	-0.09415148
-5.169216	8elete?	-0.08430623
-5.169216	8ema,	-0.1025448
-5.169216	8imamai	-0.1024889
-5.169216	8δις	-0.102536
-4.266126	9	-0.06279302
-5.169216	9.952.570	-0.1024389
-5.169216	9/11	-0.1025448
-5.169216	90	-0.102536
-4.692094	90%	-0.3619016
-4.567156	90's	-0.1653217
-5.169216	900	-0.102536
-5.169216	9000	-0.09825851
-5.169216	90s	-0.09829119
-4.868186	90s.	-0.2231694
-4.868186	92	-0.08304051
-5.169216	92,	-0.0965798
-5.169216	925	-0.1025448
-5.169216	94	-0.1025389
-5.169216	95%	-0.09671398
-5.169216	97	-0.102483
-5.169216	98	-0.1011158
-4.324118	99%	-0.1881634
-5.169216	99.99%	-0.1022594
-5.169216	99.9999%	-0.1025301
-4.868186	9?	-0.2231694
-5.169216	9fag	-0.1025389
-4.692094	9gag	-0.09832683
-5.169216	9gag?	-0.08430623
-5.169216	9pm	-0.09769371
-5.169216	9th	-0.1025389
-4.324118	:	-0.08413748
-3.993124	:(	-0.7830768
-5.169216	:(](http://www.youtube.com/watch?v=75_4zO6xtqc)	-0.08430623
-3.428853	:)	-1.122113
-5.169216	:))	-0.08430623
-5.169216	:)))	-0.08430623
-4.692094	:).	-0.08388883
-4.692094	:-)	-0.3494938
-5.169216	:-D	-0.08430623
-5.169216	:-s	-0.08430623
-4.567156	:/	-0.5590376
-5.169216	:3	-0.08430623
-5.169216	::goes	-0.1020592
-3.868186	:D	-0.9080708
-5.169216	:D).	-0.1021828
-4.692094	:O	-0.3494938
-3.868186	:P	-0.994016
-5.169216	:P.	-0.1025448
-4.868186	:S	-0.2231694
-5.169216	:^	-0.1025183
-4.692094	:p	-0.3494938
-5.169216	:p?	-0.08430623
-4.868186	:|	-0.2231694
-4.567156	:Ρ	-0.5590376
-5.169216	:Ρ!	-0.08430623
-4.090034	;	-0.6861821
-4.214973	;)	-1.038546
-5.169216	;).	-0.08430623
-5.169216	;D	-0.08430623
-5.169216	;_;	-0.08430623
-5.169216	;p	-0.08430623
-1.385813	</s>
-4.470246	<3	-0.1915991
-99	<s>	-0.2485263
-5.169216	<Ὅστις	-0.1024624
-3.692095	=	-0.1154609
-5.169216	=)	-0.08430623
-5.169216	=))	-0.08430623
-5.169216	=/=	-0.1025095
-5.169216	=8-)	-0.08430623
-5.169216	==	-0.1025448
-5.169216	===	-0.1025301
-2.742705	>	-0.1785773
-5.169216	>(τους	-0.1025389
-4.470246	>*	-0.1528826
-5.169216	>**nes**cafe	-0.08430623
-5.169216	>**nes**tle	-0.08430623
-5.169216	>*^28,478,415	-0.1025448
-5.169216	>-9	-0.08430623
-5.169216	>...	-0.0965798
-5.169216	>====	-0.08430623
-4.692094	>A	-0.1023624
-5.169216	>Active	-0.1025448
-5.169216	>Adjusted	-0.09969099
-5.169216	>After	-0.1025271
-5.169216	>Also	-0.1025036
-4.692094	>And	-0.1014905
-5.169216	>Anyway.	-0.1013843
-5.169216	>Apart	-0.101629
-5.169216	>As	-0.09940369
-5.169216	>BUT	-0.101629
-5.169216	>Bailouts	-0.1024624
-5.169216	>But	-0.1016555
-5.169216	>Can	-0.1015111
-5.169216	>Coffee	-0.1010715
-5.169216	>Contrary	-0.09415148
-4.868186	>Currently	-0.2403743
-5.169216	>Default	-0.08430623
-5.169216	>Default.aspx	-0.08430623
-5.169216	>Democracy	-0.08430623
-5.169216	>Depending	-0.1010332
-5.169216	>E.g.	-0.1025213
-5.169216	>Everyone	-0.1021652
-5.169216	>Fixed	-0.1025448
-5.169216	>Germans	-0.1003389
-4.692094	>Greece	-0.3628813
-5.169216	>Having	-0.1024477
-5.169216	>Houses	-0.1024595
-3.965096	>I	-0.1588385
-5.169216	>IHSOYS	-0.1025448
-4.868186	>If	-0.08655819
-4.692094	>In	-0.1025213
-5.169216	>Information	-0.1018883
-5.169216	>Instructions	-0.09969099
-4.470246	>It	-0.4312668
-4.692094	>Many	-0.3677147
-5.169216	>Most	-0.1022947
-4.868186	>No	-0.1015553
-5.169216	>Now	-0.09914288
-5.169216	>On	-0.1025124
-5.169216	>Our	-0.1021828
-5.169216	>Personally	-0.09914288
-5.169216	>Rafina:	-0.08430623
-5.169216	>Reforms	-0.09969099
-5.169216	>Regulators	-0.0965798
-5.169216	>Same	-0.1024036
-5.169216	>Save	-0.09969099
-5.169216	>Seventy	-0.1023271
-4.868186	>Small	-0.2413992
-5.169216	>So	-0.1016821
-5.169216	>Soy	-0.1025213
-5.169216	>That	-0.1023418
-3.913943	>The	-0.202724
-5.169216	>Their	-0.1025271
-5.169216	>Then	-0.1025124
-5.169216	>There	-0.09769371
-4.868186	>This	-0.09766396
-5.169216	>To	-0.1008176
-4.868186	>U.S.	-0.102533
-5.169216	>Unemployment	-0.1023771
-5.169216	>VAT	-0.102533
-5.169216	>Water	-0.09998994
-4.391065	>We	-0.1421529
-5.169216	>Well	-0.1016821
-4.567156	>What	-0.0954421
-5.169216	>Where	-0.1003389
-4.692094	>Why	-0.3628813
-5.169216	>Winners:	-0.1024301
-5.169216	>Wow,	-0.09940369
-5.169216	>Yes,	-0.1025301
-4.567156	>You	-0.1013047
-5.169216	>[**Image**](https://i.imgur.com/iiG63CM.jpg)	-0.1025448
-5.169216	>[**The	-0.1025448
-5.169216	>[2015-06-14	-0.1025448
-5.169216	>[2015-06-26	-0.1025448
-5.169216	>[[Attached	-0.1025448
-5.169216	>__Pyramid	-0.1025448
-5.169216	>__Regulatory	-0.1025389
-5.169216	>___The	-0.1025448
-4.868186	>and	-0.09911916
-4.692094	>but	-0.09917548
-5.169216	>every	-0.1025418
-5.169216	>fateswarm	-0.1024595
-5.169216	>half	-0.09671398
-5.169216	>how	-0.1020886
-5.169216	>http://www.star.gr/Pages/Default.aspx	-0.08430623
-5.169216	>if	-0.08919609
-4.868186	>most	-0.101573
-5.169216	>seems	-0.1016762
-5.169216	>so	-0.1021769
-4.868186	>that	-0.1015936
-5.169216	>they'd	-0.1022741
-5.169216	>those	-0.102121
-5.169216	>too	-0.10228
-5.169216	>unions	-0.08430623
-4.868186	>we	-0.09982125
-5.169216	>well	-0.09940369
-5.169216	>what	-0.1024683
-5.169216	>which	-0.09914288
-5.169216	>while	-0.1013813
-5.169216	>with	-0.09654103
-5.169216	>without	-0.1024654
-5.169216	>your	-0.1025389
-5.169216	>ΑΠΟ	-0.1025418
-5.169216	>Αυτό	-0.09863266
-5.169216	>Βγάλε	-0.1025418
-5.169216	>Γιατί	-0.1025389
-4.692094	>Δεν	-0.09648734
-4.868186	>Εγώ	-0.1006375
-5.169216	>Επίσης	-0.1025389
-4.868186	>Η	-0.1025271
-5.169216	>Κανένα	-0.1025301
-5.169216	>Κανένας	-0.1006552
-5.169216	>Μην	-0.1025389
-5.169216	>Τι	-0.1025271
-5.169216	>Το	-0.1024948
-5.169216	>Τώρα	-0.1013548
-5.169216	>γιατί	-0.1024507
-5.169216	>εναντίων	-0.1022594
-5.169216	>εξωτικό	-0.08430623
-5.169216	>η	-0.1025183
-5.169216	>κομπλεξικός	-0.1025418
-5.169216	>ο	-0.1025066
-5.169216	>οι	-0.1025448
-5.169216	>χρεοκοπία	-0.1025213
-5.169216	>€1,600,000,000	-0.1025301
-4.090034	?	-0.3567441
-5.169216	??	-0.1025066
-5.169216	@	-0.1025271
-4.868186	@@	-0.1010686
-5.169216	@atsipras	-0.1024095
-5.169216	@koyima	-0.1010125
-5.169216	@panostop,	-0.1006552
-3.391065	A	-0.1468428
-4.868186	A,	-0.1025301
-4.868186	A-fucking-men.	-0.2413962
-5.169216	A.	-0.102536
-5.169216	ACCEPT	-0.1025418
-5.169216	ACTUALLY	-0.1025271
-5.169216	AD!	-0.08430623
-5.169216	ADHD	-0.0965798
-5.169216	AFAIK.	-0.1023565
-5.169216	AGAIN.	-0.1019679
-5.169216	AHAHAHAHAHAH	-0.08430623
-5.169216	AHAHAHAHAHHAHAHAHAHAHAHAHAHAHAHAHA	-0.08430623
-5.169216	AIG,	-0.1025448
-5.169216	AIM/HS	-0.1025418
-4.868186	ALL	-0.08896246
-5.169216	ALREADY	-0.1025418
-5.169216	ALT+Q+Q	-0.09415148
-5.169216	ALTER	-0.09844265
-4.868186	ALWAYS	-0.1007999
-5.169216	AM	-0.1020003
-4.692094	AMA	-0.1001645
-5.169216	AMA!!!1!11shiftone*	-0.09914288
-5.169216	AMA...	-0.08430623
-5.169216	AMA...Reddit's	-0.102536
-5.169216	AMA?	-0.08430623
-5.169216	AN	-0.1025448
-4.692094	AND	-0.1005429
-5.169216	ANYONE	-0.1022211
-5.169216	APO	-0.102536
-5.169216	ARE	-0.1025448
-5.169216	ASP.NET	-0.1025448
-4.470246	ATM	-0.09345518
-5.169216	ATM,	-0.1019561
-4.692094	ATM.	-0.08074234
-5.169216	ATM...	-0.08430623
-5.169216	ATMs	-0.1025154
-4.692094	AThinker	-0.09829416
-5.169216	AWESOMEST	-0.1025242
-5.169216	AYY	-0.1025448
-5.169216	Aang	-0.1015317
-5.169216	Aang,	-0.1020032
-4.868186	About	-0.08909295
-5.169216	Above	-0.1025095
-4.567156	Absolutely	-0.241358
-4.391065	According	-0.7461022
-5.169216	Act	-0.1025448
-5.169216	Act](https://en.wikipedia.org/wiki/Dodd%E2%80%93Frank_Wall_Street_Reform_and_Consumer_Protection_Act)	-0.1010715
-5.169216	Active	-0.1025448
-5.169216	Actual	-0.1024124
-4.470246	Actually	-0.09785432
-4.470246	Actually,	-0.1471977
-5.169216	Actualy	-0.1019767
-5.169216	Add	-0.09415148
-4.567156	Additionally,	-0.08722908
-5.169216	Adjusted	-0.09969099
-5.169216	Admittedly	-0.1019767
-5.169216	Adobe	-0.1025448
-5.169216	Adolf	-0.1025448
-4.868186	Adonis	-0.09769074
-5.169216	Adrianou	-0.1025183
-4.868186	Advocate	-0.2355772
-5.169216	Aegean	-0.1025418
-5.169216	Aegina	-0.102533
-5.169216	Aegina.	-0.1025183
-5.169216	Aerospace,	-0.1025448
-5.169216	Aesthetics	-0.08430623
-5.169216	Affairs	-0.1025448
-5.169216	Affleck:	-0.1025389
-5.169216	Africa)	-0.1024771
-5.169216	Africa.	-0.08430623
-5.169216	African	-0.1025448
-4.127823	After	-0.1351984
-5.169216	Afto	-0.09415148
-5.169216	Ag	-0.102533
-5.169216	Ag.sofias).	-0.09914288
-4.567156	Again	-0.09606358
-4.470246	Again,	-0.09455915
-5.169216	Again.	-0.1024948
-5.169216	Agglia	-0.1025036
-4.868186	Agora	-0.08304051
-5.169216	Agori	-0.1025124
-5.169216	Agreed.	-0.08430623
-4.868186	Agreement	-0.09772643
-5.169216	Ah	-0.1025242
-4.868186	Ah,	-0.1017499
-5.169216	Ahead	-0.09671398
-5.169216	Aidegamisou	-0.1025213
-5.169216	Ainos	-0.1010332
-5.169216	Aki...he	-0.09769371
-5.169216	Al	-0.1025448
-5.169216	Alabama	-0.0965798
-5.169216	Alas,	-0.09998994
-5.169216	Albania	-0.1019531
-5.169216	Albania**](https://en.wikipedia.org/wiki/Pyramid%20schemes%20in%20Albania):	-0.1025389
-5.169216	Albania.	-0.102536
-5.169216	Albania](https://en.wikipedia.org/wiki/1997_unrest_in_Albania).	-0.1021828
-4.868186	Albert	-0.1025418
-5.169216	Alexander	-0.1025448
-4.868186	Alexis	-0.1025154
-5.169216	Alien	-0.1025448
-3.826793	All	-0.1596507
-4.868186	Alla	-0.1024359
-5.169216	Allow	-0.1021711
-5.169216	Allowance	-0.09969099
-4.868186	Almost	-0.10233
-5.169216	Along	-0.1024918
-5.169216	Alpha	-0.1025448
-5.169216	Alright,	-0.1023477
-4.169216	Also	-0.08283124
-3.965096	Also,	-0.08646043
-5.169216	Alt-F4...?	-0.08430623
-5.169216	Alter	-0.0965798
-5.169216	Alternately,	-0.09998994
-5.169216	Although	-0.08919609
-4.868186	Always	-0.1024242
-4.692094	Am	-0.1846104
-5.169216	Amazing	-0.1025448
-4.470246	America	-0.09293522
-5.169216	America!	-0.08430623
-3.938767	American	-0.07634987
-4.868186	American,	-0.2380061
-4.391065	Americans	-0.1327537
-5.169216	Americans.	-0.08430623
-5.169216	Amerikh!	-0.1025389
-5.169216	Among	-0.1020621
-5.169216	Amphipolis,	-0.1025389
-5.169216	Amsterdam.	-0.08430623
-5.169216	Amusing	-0.1025183
-4.169216	An	-0.1023065
-5.169216	Ancient	-0.1022947
-3.10103	And	-0.2496052
-4.868186	And,	-0.1022505
-5.169216	Andrew	-0.1025448
-5.169216	Anecdotal	-0.1025389
-4.692094	Angela	-0.3676735
-5.169216	Angeles,	-0.0965798
-5.169216	Announcement	-0.101629
-5.169216	Annunciation	-0.1015406
-4.470246	Another	-0.09957847
-5.169216	Antonio.	-0.08430623
-5.169216	Anwnumia	-0.1022976
-4.567156	Anwnymia	-0.09412149
-5.169216	Anwnymia.	-0.102536
-4.470246	Any	-0.1523027
-5.169216	Anyhow,	-0.1025154
-5.169216	Anyone	-0.1024683
-5.169216	Anything	-0.09829119
-5.169216	Anytime	-0.09914288
-5.169216	Anytime!	-0.08430623
-5.169216	Anytime,	-0.09940369
-4.868186	Anyway	-0.09824365
-4.567156	Anyway,	-0.09806538
-5.169216	Anyway.	-0.1013843
-4.868186	Apart	-0.2404922
-4.868186	Apla	-0.1024889
-5.169216	Aplws	-0.1025448
-5.169216	Apo	-0.1025183
-4.567156	Apparently	-0.08448413
-5.169216	Apply	-0.1025389
-5.169216	April	-0.09415148
-5.169216	April).	-0.102536
-5.169216	Arabic	-0.1025448
-5.169216	Arangements	-0.09969099
-3.965096	Are	-0.8998198
-5.169216	Area	-0.1025448
-5.169216	Area.	-0.08430623
-5.169216	Aren't	-0.1025448
-4.391065	Argentina	-0.14295
-4.692094	Argentina.	-0.102483
-5.169216	Arkansas	-0.1024536
-5.169216	Armee	-0.1025448
-5.169216	Armenia!	-0.08430623
-5.169216	Army	-0.09769371
-5.169216	Arrwstisa	-0.102486
-5.169216	Article	-0.1025448
-5.169216	Arxidia	-0.1025448
-4.868186	Aryan	-0.1025301
-3.470246	As	-0.3926702
-5.169216	Ase	-0.1024918
-5.169216	Asia.	-0.09914288
-5.169216	Asian	-0.1025448
-4.868186	Aside	-0.2404922
-4.692094	Ask	-0.1023624
-5.169216	Asset	-0.1025095
-5.169216	Assuming	-0.1008147
-5.169216	Astoria	-0.09940369
-5.169216	Astronomy	-0.1025448
-3.913943	At	-0.4053139
-5.169216	Atheist	-0.1025007
-3.868186	Athens	-0.232705
-4.391065	Athens,	-0.140053
-4.391065	Athens.	-0.1245241
-5.169216	Athina	-0.10233
-5.169216	Athinaiki	-0.1025448
-5.169216	August	-0.1025448
-5.169216	Aussies	-0.1021652
-4.391065	Austerity	-0.07843195
-4.868186	Austerity,	-0.2412138
-4.868186	Australia	-0.08406381
-5.169216	Austria	-0.1018176
-5.169216	Austria:	-0.1025418
-4.324118	Austrian	-0.1368756
-5.169216	Auto	-0.1025448
-4.692094	Avatar:	-0.3665719
-5.169216	Average	-0.1024712
-5.169216	Avra	-0.1025066
-4.868186	Awesome	-0.1021946
-5.169216	Awesome.	-0.08430623
-5.169216	Aww	-0.1025448
-5.169216	Aww,	-0.1024006
-5.169216	Awwww,	-0.1017734
-5.169216	Axx...	-0.1024242
-5.169216	Ay,	-0.1025418
-5.169216	Aλλά	-0.09863266
-5.169216	B.	-0.1025418
-5.169216	B.C.,	-0.1011247
-5.169216	BAD.	-0.1025095
-4.868186	BAILOUT	-0.241405
-5.169216	BAN	-0.1014993
-5.169216	BANKS!	-0.08430623
-5.169216	BBB-,	-0.1025007
-5.169216	BBC	-0.1022358
-5.169216	BBC)	-0.08430623
-5.169216	BBQs	-0.0965798
-5.169216	BC	-0.1021269
-5.169216	BE	-0.1025448
-5.169216	BIG	-0.1025448
-5.169216	BIGGEST	-0.1025448
-5.169216	BMW's.	-0.1023271
-5.169216	BMWs,	-0.1024036
-5.169216	BOP,	-0.1025448
-5.169216	BPN	-0.1025448
-5.169216	BRICS	-0.1025448
-4.868186	BS	-0.1024477
-5.169216	BS.	-0.1022241
-4.868186	BTW	-0.08308972
-5.169216	BTW)	-0.08430623
-5.169216	BTW,	-0.102483
-5.169216	BUT	-0.101629
-5.169216	Baby	-0.1025448
-5.169216	Back	-0.09415148
-5.169216	Bad	-0.1025418
-5.169216	Bahaha!	-0.08430623
-4.868186	Bailouts	-0.2413256
-4.692094	Baklava	-0.1836831
-5.169216	Baklava.	-0.08430623
-5.169216	Balkans	-0.1015406
-5.169216	Ban;	-0.1024595
-5.169216	Bangalore,	-0.1025448
-5.169216	Bangladesh	-0.09969099
-4.567156	Bank	-0.08414976
-5.169216	Bank.	-0.1021828
-5.169216	Bankers	-0.1025389
-4.567156	Banks	-0.1012309
-5.169216	Banks,	-0.1011158
-5.169216	Barack	-0.1025418
-5.169216	Barroso	-0.1019531
-5.169216	Bars	-0.09825851
-5.169216	Basic	-0.1025389
-5.169216	Bastard!	-0.08430623
-5.169216	Batman."	-0.08430623
-4.868186	Bay	-0.1025418
-4.567156	Be	-0.1621843
-5.169216	Beach.	-0.1020474
-4.868186	Bear	-0.2371217
-4.692094	Beautiful	-0.08427556
-3.846997	Because	-0.2249937
-5.169216	Because,	-0.08919609
-4.692094	Before	-0.3543837
-5.169216	Beggar	-0.0965798
-4.868186	Beggars	-0.2408163
-5.169216	Beggars,	-0.10228
-5.169216	Belgium	-0.1005636
-4.868186	Belgium,	-0.1024948
-5.169216	Belgium:	-0.1025448
-5.169216	Ben	-0.1025448
-5.169216	Berlin	-0.1025213
-5.169216	Berlin,	-0.1024595
-5.169216	Bernie	-0.102536
-5.169216	Berserk,	-0.1025389
-5.169216	Berserk...	-0.08430623
-4.868186	Besides	-0.09819315
-4.868186	Best	-0.09665137
-5.169216	Bewwwwwwwwww.	-0.1024624
-5.169216	Billion	-0.1025183
-5.169216	Billions	-0.09671398
-5.169216	Bills	-0.1023241
-5.169216	Bioshock	-0.1025448
-4.868186	Bitcoin	-0.2414021
-5.169216	Blair,	-0.1025448
-5.169216	Blank	-0.1025301
-5.169216	Blankfein	-0.09671398
-5.169216	Blasphemy	-0.09769371
-5.169216	Bleeh.	-0.08430623
-5.169216	Bless.	-0.08430623
-5.169216	BoA,	-0.1025448
-5.169216	Bong	-0.1025448
-5.169216	Boomerang	-0.1017558
-5.169216	Boomerang,	-0.1014993
-5.169216	Boomers.	-0.08430623
-5.169216	Bosnia,	-0.1025448
-5.169216	Bot.	-0.08430623
-4.692094	Both	-0.1014492
-5.169216	Both,	-0.09914288
-5.169216	Bottom	-0.1025418
-5.169216	Branding	-0.102068
-4.868186	Bravo	-0.1024565
-5.169216	Brazil!	-0.1023859
-4.868186	Brazilian	-0.241405
-5.169216	Breakfast	-0.09769371
-4.868186	Breaking	-0.1025418
-5.169216	Brilliant	-0.08430623
-4.868186	Britain	-0.09651717
-5.169216	Britain!	-0.1025448
-5.169216	Britain’s.	-0.102483
-4.324118	British	-0.1288889
-5.169216	British,	-0.1025448
-5.169216	British.	-0.1024918
-5.169216	Bronn	-0.1003389
-5.169216	Bros.,	-0.1025301
-5.169216	Brothers.	-0.1025242
-4.868186	Broxi	-0.241405
-4.567156	Brussels	-0.1656666
-5.169216	Btw,	-0.1019767
-5.169216	Bud	-0.0965798
-4.692094	Bulgaria	-0.09418746
-5.169216	Bulgaria?	-0.1024624
-4.868186	Bulgarian	-0.09654997
-4.868186	Bulgarians	-0.09655892
-4.868186	Bullshit.	-0.1013666
-5.169216	Bureau](https://en.wikipedia.org/wiki/Consumer_Financial_Protection_Bureau).	-0.08430623
-5.169216	Burn	-0.08919609
-5.169216	Bush	-0.0965798
-4.692094	Bush's	-0.1024683
-5.169216	Business	-0.09769371
-3.093669	But	-0.2706331
-4.391065	But,	-0.1263848
-4.470246	By	-0.08714376
-4.868186	Bye	-0.1025418
-5.169216	Böhmermann.	-0.1022034
-5.169216	C#	-0.09838623
-5.169216	C,	-0.1024036
-5.169216	C==========3	-0.08430623
-5.169216	CA,	-0.1025448
-5.169216	CAN'T	-0.1025154
-5.169216	CAP	-0.0965798
-5.169216	CARES	-0.1025448
-5.169216	CDS	-0.1025448
-5.169216	CDU.	-0.08430623
-5.169216	CEO)	-0.0965798
-5.169216	CHOPPAAAAH!	-0.1025448
-5.169216	CLOSE	-0.09415148
-5.169216	CLOTHES	-0.1025448
-5.169216	CO.	-0.1025448
-5.169216	COME?	-0.1025448
-5.169216	CONDONING	-0.08919609
-5.169216	CONFIRMED	-0.08430623
-5.169216	CRASHING	-0.1025389
-5.169216	CREATIN	-0.1025448
-5.169216	CRITICAL.	-0.08430623
-5.169216	CS	-0.1025389
-5.169216	CS:GO)	-0.102536
-5.169216	CU-Buff!	-0.08430623
-5.169216	Cafes	-0.1018294
-5.169216	Calculations	-0.1025389
-4.470246	California	-0.2318238
-5.169216	California,	-0.09829119
-5.169216	California.	-0.08430623
-4.868186	Call	-0.08317893
-5.169216	Calls	-0.08430623
-5.169216	Calorically	-0.1025418
-4.470246	Camden	-0.1465236
-4.868186	Camden,	-0.2414021
-5.169216	Camera	-0.1025271
-5.169216	Cameras	-0.1010332
-4.567156	Campari	-0.5770526
-5.169216	Camus	-0.1025448
-5.169216	Camus'	-0.1025448
-5.169216	Camus,	-0.1025448
-5.169216	Camus](http://en.wikipedia.org/wiki/The_Fall_%28Albert_Camus_novel%29).	-0.102536
-5.169216	Camus](https://en.wikipedia.org/wiki/Albert_Camus).	-0.1025213
-3.938767	Can	-0.5317432
-4.470246	Can't	-0.1016202
-4.567156	Canada	-0.09476583
-4.868186	Canada,	-0.09769966
-5.169216	Canada.	-0.08430623
-4.692094	Canadian	-0.0843001
-5.169216	Cannes,	-0.1025448
-5.169216	Cannot	-0.1025448
-5.169216	Capital	-0.0965798
-5.169216	Capitalism	-0.1025448
-5.169216	Cappuccino/Esspreso,	-0.1025448
-5.169216	Caprini	-0.1025448
-5.169216	Captain.	-0.1022152
-5.169216	Capuccino	-0.1025448
-5.169216	Care	-0.09415148
-5.169216	Careful	-0.1011247
-5.169216	Caring	-0.1020386
-5.169216	Carta	-0.08430623
-5.169216	Centauri	-0.102383
-4.470246	Central	-0.3126486
-5.169216	Cephalonia.	-0.1025418
-5.169216	Certain	-0.1025036
-5.169216	Chancellery	-0.1025448
-5.169216	Chancellor	-0.1025389
-5.169216	Chances	-0.1003389
-4.868186	Chaotic	-0.09913991
-4.692094	Check	-0.1761745
-5.169216	Cheers	-0.09969099
-5.169216	Cheers,	-0.0965798
-4.692094	Cheese	-0.3677265
-5.169216	Chester	-0.1025418
-4.391065	Chicago	-0.09522675
-4.868186	China	-0.09767586
-5.169216	China)	-0.09415148
-5.169216	China),	-0.102536
-4.868186	China,	-0.09512803
-5.169216	China.	-0.08430623
-5.169216	Chinamen	-0.1025271
-5.169216	Chinese	-0.1003389
-5.169216	Christ	-0.1025213
-5.169216	Christian	-0.1025448
-4.692094	Christine	-0.102536
-5.169216	Christine,	-0.1025124
-5.169216	Christmas	-0.0965798
-5.169216	Christmas,	-0.1025389
-5.169216	Chuck	-0.1025448
-4.868186	Church	-0.09656787
-4.567156	Churchill	-0.1023447
-5.169216	Churchill,	-0.1025448
-5.169216	Chute___)	-0.09769371
-5.169216	Citi,	-0.1025448
-5.169216	City	-0.09838623
-5.169216	Civ?	-0.1025271
-4.567156	Civilization	-0.1662291
-5.169216	Claimants	-0.1018825
-5.169216	Clamence	-0.102536
-5.169216	Clamence,	-0.1011778
-5.169216	Clearing	-0.08919609
-5.169216	Clinton	-0.102536
-5.169216	Close	-0.1025271
-5.169216	Clucking	-0.1016732
-5.169216	Co.	-0.1024595
-5.169216	CoC:DCotE	-0.1024095
-4.567156	Cocktails	-0.2820029
-5.169216	Cod	-0.08430623
-4.868186	Coffee	-0.0962009
-5.169216	Coffee)	-0.1017587
-5.169216	Cogratulations	-0.0965798
-5.169216	Coincidentally,	-0.1025242
-5.169216	Cointreau.	-0.08430623
-4.868186	Cold	-0.1025418
-5.169216	Colfax...not	-0.102536
-5.169216	Colleague	-0.1024918
-5.169216	Colorado	-0.1025301
-5.169216	Columbine	-0.0965798
-5.169216	Combine	-0.09829119
-5.169216	Come	-0.09969099
-5.169216	Comedy	-0.09769371
-5.169216	Comics	-0.1014993
-5.169216	Commenting	-0.1016732
-5.169216	Comments.	-0.08430623
-4.868186	Commission	-0.09656787
-5.169216	Common,	-0.09825851
-4.868186	Communism	-0.09769074
-4.868186	Communism.	-0.08429703
-4.470246	Communist	-0.09643962
-5.169216	Communist,	-0.09825851
-5.169216	Communist.	-0.1023712
-5.169216	Communists	-0.1024918
-4.868186	Compare	-0.100469
-5.169216	Complete,	-0.1025271
-4.868186	Con:	-0.1025213
-5.169216	Concerning	-0.08919609
-5.169216	Confirmed	-0.08430623
-5.169216	Confirmed!	-0.08430623
-5.169216	Congratulations	-0.1025448
-4.868186	Congress	-0.1005429
-5.169216	Congress.	-0.1024712
-5.169216	Conscripted	-0.1025007
-4.868186	Consider	-0.09985677
-4.692094	Considering	-0.08694865
-4.868186	Constant	-0.241405
-4.868186	Constitution	-0.09652314
-5.169216	Consumer	-0.1025418
-5.169216	Contact.	-0.08430623
-5.169216	Content	-0.1025418
-5.169216	Context?	-0.08430623
-5.169216	Contra	-0.1025418
-5.169216	Convergence	-0.1017587
-5.169216	Conversely,	-0.1024301
-4.692094	Cool,	-0.1020091
-5.169216	Coolthnx.	-0.08430623
-5.169216	Cooper	-0.102536
-5.169216	Corfu,	-0.1011247
-5.169216	Corinth-Patras	-0.1025448
-4.868186	Corners	-0.2355772
-5.169216	Corona.	-0.102536
-5.169216	Corporation](https://en.wikipedia.org/wiki/Federal_Deposit_Insurance_Corporation)	-0.1025448
-5.169216	Correction	-0.1025389
-5.169216	Corrupt	-0.1024654
-5.169216	Corruption	-0.1025448
-5.169216	Cosco	-0.1024742
-4.692094	Cost	-0.1756853
-5.169216	Costco	-0.1025418
-5.169216	Costner	-0.09825851
-5.169216	Costner.	-0.1013843
-4.567156	Could	-0.09942147
-5.169216	Council	-0.09671398
-4.868186	County-wide	-0.2413374
-5.169216	Create	-0.1025213
-4.868186	Creditors	-0.1002384
-5.169216	Crete	-0.0965798
-5.169216	Crime	-0.09769371
-5.169216	Crisis	-0.09654103
-5.169216	Criticising	-0.08919609
-4.692094	Croatia,	-0.1895384
-5.169216	Croatia...	-0.1023477
-5.169216	Cryptocurrency	-0.09825851
-5.169216	Cth...Pastamonster.	-0.08430623
-5.169216	Cthulhu,	-0.1025389
-5.169216	Ctrl+F	-0.1025448
-4.692094	Currently	-0.1756093
-5.169216	Curtain,	-0.1023123
-5.169216	Cutlass)	-0.08430623
-5.169216	Cuts	-0.1003389
-4.868186	Cutting	-0.1025183
-5.169216	Cyberpunk/SciFi.	-0.102536
-5.169216	Cyclades	-0.102533
-5.169216	Cynical	-0.09769371
-4.567156	Cyprus	-0.1532982
-4.692094	Cyprus,	-0.1899564
-5.169216	Cyprus.	-0.1021828
-4.868186	Czech	-0.1015376
-5.169216	D.	-0.1025448
-5.169216	DA	-0.1025448
-5.169216	DAY	-0.09969099
-4.868186	DDR	-0.241405
-5.169216	DEBT	-0.08430623
-5.169216	DEEZ	-0.1025448
-5.169216	DG	-0.1025448
-5.169216	DID	-0.1025418
-5.169216	DIDN'T	-0.102536
-5.169216	DIE!	-0.08430623
-5.169216	DIIIIIIGGGIIIIIIIMOOOOOONNNNNNN	-0.08430623
-4.868186	DM	-0.08163837
-5.169216	DNA	-0.1019266
-4.692094	DO	-0.09622776
-5.169216	DOES	-0.1024712
-5.169216	DUDE	-0.09914288
-5.169216	DUI.	-0.08430623
-5.169216	Da	-0.1025448
-5.169216	Dad!	-0.1025271
-5.169216	Dafoe...	-0.1020032
-5.169216	Daks.	-0.1025448
-5.169216	Dallas	-0.1014846
-4.868186	Damn	-0.09828822
-4.692094	Danish,	-0.1024624
-5.169216	Danke!	-0.08430623
-5.169216	Daredevil.	-0.08430623
-4.692094	Dark	-0.1900211
-4.868186	Darkest	-0.241405
-5.169216	David	-0.1025448
-5.169216	Dawn	-0.102536
-5.169216	Dawn?	-0.08430623
-5.169216	Dax	-0.1017882
-5.169216	Day	-0.09969099
-5.169216	DeSaad	-0.1025389
-4.868186	Debt	-0.09768777
-5.169216	Debt/GDP	-0.1025448
-5.169216	Defanging	-0.1024742
-5.169216	Default	-0.1024301
-5.169216	Default,	-0.1005636
-5.169216	Default.	-0.1025418
-5.169216	Deferred	-0.1025154
-5.169216	Definately	-0.09940369
-5.169216	Definitely	-0.1005488
-5.169216	Deletion&message=%2Bdelete+coonndr)^.	-0.1025389
-5.169216	Deletion&message=%2Bdelete+covidl0)^.	-0.1025389
-5.169216	Deletion&message=%2Bdelete+ct1jafq)^.	-0.1025389
-5.169216	Demand	-0.09769371
-5.169216	Demands	-0.09415148
-5.169216	Democracy	-0.0965798
-4.692094	Den	-0.1024507
-5.169216	Denial?	-0.1025448
-5.169216	Denmark	-0.1025418
-4.692094	Denmark,	-0.09746461
-4.692094	Depending	-0.3662208
-4.868186	Depends	-0.09517889
-5.169216	Deposit	-0.1025418
-5.169216	Depression	-0.0965798
-4.868186	Despite	-0.1016054
-5.169216	Destroy	-0.08919609
-5.169216	Detroit	-0.1025301
-5.169216	Deutsche	-0.1025448
-5.169216	Deutsche!	-0.1025448
-5.169216	Devalue	-0.102536
-4.868186	Devil	-0.2413491
-5.169216	Diablo	-0.1025301
-5.169216	Dictionary	-0.1025271
-4.127823	Did	-0.3352115
-4.868186	Didn't	-0.102383
-5.169216	Die	-0.1025448
-5.169216	Dieser	-0.1025448
-5.169216	Diet	-0.1025418
-5.169216	Different	-0.1025389
-5.169216	Digimon	-0.08430623
-4.868186	Dignity	-0.09720859
-4.868186	Dijsselbloem	-0.09653506
-5.169216	Dijsselbloem,	-0.1025124
-5.169216	Dijsselbloem.	-0.08430623
-5.169216	Dijsselbloem’s	-0.1025389
-5.169216	Dimitris	-0.1025448
-5.169216	Dinner	-0.1025448
-5.169216	DirectTV	-0.1025448
-5.169216	Director	-0.1025389
-5.169216	Director-General	-0.09969099
-5.169216	Disagree,	-0.09998994
-5.169216	Disappointment.	-0.1025271
-5.169216	Discussing	-0.08919609
-5.169216	Disney	-0.08430623
-5.169216	Disney?	-0.08430623
-5.169216	Disregard	-0.08919609
-5.169216	Disturbingly	-0.1025095
-4.868186	Dn	-0.1025389
-3.706818	Do	-0.4572151
-5.169216	Doc,	-0.102121
-5.169216	Dock	-0.1022005
-5.169216	Dockworkers	-0.1023565
-5.169216	Dodoni	-0.1025389
-4.692094	Does	-0.08720775
-5.169216	Doesnt	-0.1022005
-5.169216	Doing	-0.1014963
-5.169216	Dollar	-0.10238
-3.868186	Don't	-0.1847815
-5.169216	Done	-0.1020003
-5.169216	Done,	-0.1023477
-5.169216	Dont	-0.102533
-5.169216	Dorado	-0.1022476
-5.169216	Downtown	-0.09769371
-5.169216	Downvote	-0.101688
-5.169216	Downvoted.	-0.08430623
-5.169216	Drachma	-0.1019885
-5.169216	Drahmer.	-0.1013843
-5.169216	Drake	-0.0965798
-5.169216	Dritsas'	-0.1025301
-5.169216	Dritsas,	-0.1010715
-5.169216	Driving	-0.09825851
-4.868186	Dublin	-0.241405
-5.169216	Dubya.	-0.08430623
-4.470246	Dude,	-0.1443001
-4.868186	Due	-0.2330147
-4.868186	Dungeon	-0.2411932
-5.169216	Dunno	-0.1016555
-5.169216	Duo	-0.1025448
-4.868186	During	-0.08304051
-5.169216	Duro	-0.0965798
-4.127823	Dutch	-0.1558955
-5.169216	Dutch,	-0.102533
-4.868186	Dutch.	-0.2409165
-5.169216	Duty	-0.1025448
-5.169216	E,	-0.1022358
-4.868186	E-shop	-0.1022358
-5.169216	E.g.	-0.1025213
-5.169216	E60k-E80k	-0.1011778
-5.169216	EBT	-0.1025418
-5.169216	EC,	-0.1025448
-4.214973	ECB	-0.07891677
-4.868186	ECB's	-0.102536
-5.169216	ECB,	-0.1015111
-5.169216	ECFIN	-0.1025389
-5.169216	ECU	-0.1011778
-5.169216	EDIT	-0.1021269
-3.993124	EDIT:	-0.0882198
-5.169216	EDWWWW	-0.08430623
-5.169216	EE	-0.09415148
-5.169216	EET	-0.1025448
-4.692094	EFSF	-0.08304666
-5.169216	EFSF-European	-0.102533
-5.169216	EFSM	-0.102533
-4.567156	ELA	-0.1653984
-5.169216	ELA,	-0.1024183
-5.169216	ELA.	-0.08430623
-5.169216	ELAS	-0.1025448
-5.169216	ELI5?	-0.08430623
-5.169216	EMPORIUM](/r/pitchforkemporium)	-0.09969099
-5.169216	EMU	-0.1020327
-5.169216	ENABLE.	-0.08919609
-5.169216	EPIC!	-0.08430623
-5.169216	ERA	-0.1025448
-5.169216	ERM.)	-0.08430623
-4.868186	ERT	-0.09996627
-3.250138	EU	-0.1557419
-5.169216	EU"	-0.1025154
-5.169216	EU's	-0.1025301
-5.169216	EU(hooray).	-0.1021387
-4.391065	EU,	-0.0982793
-5.169216	EU-is-literally-Hitler	-0.1025448
-4.324118	EU.	-0.1991905
-5.169216	EU/IMF	-0.102536
-4.868186	EU27	-0.1024771
-5.169216	EU?	-0.08430623
-4.391065	EUR	-0.08776807
-4.868186	EUR.	-0.102533
-5.169216	EUR/h	-0.1024595
-5.169216	EUR/month	-0.08430623
-5.169216	EUR/month,	-0.1005488
-5.169216	EUR/week	-0.1024595
-4.868186	EURO.	-0.09913991
-5.169216	EU](http://www.eba.europa.eu/risk-analysis-and-data/eu-wide-stress-testing)?	-0.102536
-4.868186	EVER	-0.1024654
-5.169216	EVERY	-0.1023624
-5.169216	EVERYONE	-0.1025448
-5.169216	EVERYTHING	-0.1025036
-5.169216	EVERYTHING!	-0.08430623
-4.868186	EZ	-0.1014698
-5.169216	EZ).	-0.1022034
-4.692094	Each	-0.1897328
-5.169216	Eagle	-0.1025448
-5.169216	Earth"	-0.1010332
-4.692094	Earth.	-0.1012574
-5.169216	Easier	-0.09415148
-5.169216	Easiest	-0.1022358
-4.692094	East	-0.1855238
-4.692094	Easter	-0.08790196
-4.692094	Eastern	-0.1899064
-5.169216	Eastern,	-0.1024565
-5.169216	Easy	-0.09415148
-5.169216	Eat	-0.09654103
-5.169216	Echoing	-0.09829119
-4.567156	Economics	-0.5724251
-5.169216	Economies	-0.1003389
-5.169216	Economy	-0.1024654
-4.868186	Ecuador	-0.09580971
-5.169216	Ecuador,	-0.0965798
-5.169216	Eden](https://en.wikipedia.org/wiki/Garden_of_Eden).	-0.1025418
-5.169216	Edimbourgo	-0.1025301
-4.023088	Edit:	-0.2207529
-5.169216	Edit:Κοιτα	-0.09844265
-5.169216	Edward	-0.1025448
-5.169216	Effects.	-0.08430623
-5.169216	Eftiaxna	-0.1025418
-5.169216	Eggs	-0.08430623
-5.169216	Egkremoi	-0.09769371
-5.169216	Ego	-0.1025448
-4.692094	Egw	-0.1025271
-4.567156	Einai	-0.1024713
-5.169216	Einstein	-0.08430623
-5.169216	Einsteins	-0.09415148
-4.868186	Either	-0.09650524
-5.169216	Ekmetaleusou	-0.1025418
-5.169216	El	-0.1025448
-5.169216	Elafonisos.	-0.08430623
-5.169216	Elder^(®).	-0.1025448
-5.169216	Eldritch	-0.1006552
-5.169216	Electra	-0.1015317
-5.169216	Electric	-0.1025124
-5.169216	Ellada?	-0.1025418
-5.169216	Elladas	-0.1025448
-5.169216	Elladas.	-0.08430623
-5.169216	Ellhnika,	-0.1025124
-5.169216	Elpizw	-0.10233
-5.169216	Empire),	-0.1025418
-5.169216	Employed	-0.1024624
-5.169216	Employment	-0.09769371
-5.169216	End	-0.09671398
-5.169216	Engine	-0.102536
-5.169216	English	-0.1015406
-5.169216	English.	-0.1022241
-4.868186	English?	-0.2231694
-5.169216	Enjoy	-0.1016732
-5.169216	Enjoy!	-0.1025301
-5.169216	Eno	-0.1024948
-4.868186	Enough	-0.09527162
-4.868186	Ensure	-0.09828822
-5.169216	Enterprise	-0.1025448
-5.169216	Epic	-0.1025418
-4.868186	Episis	-0.241405
-5.169216	Eprepe	-0.10233
-5.169216	Equally,	-0.0965798
-5.169216	Erhard)	-0.1025418
-4.266126	Especially	-0.1292416
-5.169216	Essentially,	-0.09654103
-5.169216	Estimates	-0.09671398
-5.169216	Estonian	-0.1015406
-5.169216	Ethniki.	-0.08430623
-4.692094	Eur	-0.07973906
-4.470246	Eur.	-0.2232903
-5.169216	Eur.,	-0.1025418
-3.413341	Euro	-0.2480575
-5.169216	Euro**	-0.08430623
-4.214973	Euro,	-0.1319996
-5.169216	Euro-Saviours	-0.0965798
-5.169216	Euro-fanatics	-0.1015406
-4.868186	Euro-med	-0.1005547
-4.214973	Euro.	-0.1532446
-4.470246	Euro?	-0.2938788
-5.169216	Eurobonds,	-0.1025095
-4.470246	Eurogroup	-0.09230924
-4.868186	Eurogroup,	-0.1011129
-5.169216	Eurogroup.	-0.1025213
-5.169216	Eurogroup?	-0.1019679
-3.556432	Europe	-0.1116092
-5.169216	Europe's	-0.09769371
-4.470246	Europe,	-0.1419625
-3.993124	Europe.	-0.2634969
-5.169216	Europe:	-0.1025448
-3.436822	European	-0.2530304
-4.324118	Europeans	-0.0811566
-5.169216	Europeans,	-0.09654103
-4.868186	Europeans.	-0.08429089
-5.169216	Europes	-0.09769371
-5.169216	Euros**	-0.1020592
-5.169216	Euros.	-0.1020916
-5.169216	Euros?	-0.1024977
-3.771276	Eurozone	-0.1443467
-4.868186	Eurozone,	-0.08304051
-4.868186	Eurozone.	-0.2231694
-5.169216	Eurozones'	-0.1025418
-3.913943	Even	-0.1715159
-5.169216	Eventually	-0.1021858
-5.169216	Everest,	-0.1025448
-5.169216	Everest?	-0.09914288
-4.692094	Every	-0.1018265
-4.567156	Everybody	-0.1001112
-4.266126	Everyone	-0.1274176
-5.169216	Everything	-0.101629
-5.169216	Everytime	-0.09940369
-5.169216	Everywhere.	-0.08430623
-5.169216	Evil	-0.1025124
-5.169216	Evilstomper	-0.1022682
-4.324118	Ewan	-0.578921
-5.169216	Exactly.	-0.1025066
-5.169216	Example:	-0.08430623
-4.692094	Except	-0.0939235
-5.169216	Exception	-0.09914288
-5.169216	Exclusive	-0.1024006
-5.169216	Exit	-0.08919609
-4.868186	Exoume	-0.1025389
-5.169216	Expand	-0.08919609
-5.169216	Explain	-0.09415148
-5.169216	Explanation](http://www.explainxkcd.com/wiki/index.php?title=386#Explanation)	-0.08430623
-5.169216	Extremely	-0.1025448
-5.169216	Exuse	-0.1020003
-5.169216	Exw	-0.1025418
-5.169216	Eγώ	-0.1025095
-5.169216	Eχω	-0.102536
-5.169216	F	-0.08430623
-5.169216	F.Worth	-0.0965798
-4.470246	FACT	-0.5406152
-5.169216	FACT.	-0.1015111
-5.169216	FACTS	-0.1025448
-4.868186	FB	-0.09838326
-5.169216	FDIC	-0.0965798
-5.169216	FDR	-0.1011778
-5.169216	FILTER	-0.102536
-5.169216	FILTER)	-0.09838623
-5.169216	FINALLY.	-0.08430623
-4.868186	FIRST	-0.09934146
-5.169216	FL	-0.08430623
-5.169216	FL,	-0.1017734
-5.169216	FML	-0.08430623
-5.169216	FOOD	-0.1015406
-4.567156	FOR	-0.1661997
-4.692094	FPS	-0.1023889
-5.169216	FPS.	-0.08430623
-5.169216	FREDDO	-0.1025418
-5.169216	FREE	-0.102536
-4.868186	FRG	-0.241405
-5.169216	FT	-0.1025448
-4.391065	FTFY	-0.736257
-5.169216	FTFY~~	-0.1023742
-5.169216	FTT.	-0.08430623
-5.169216	FU	-0.1025448
-4.868186	FUCK	-0.2280593
-5.169216	FWNAZEIS	-0.08430623
-5.169216	FYGO	-0.1025448
-4.567156	Facebook	-0.1642735
-4.567156	Facebook,	-0.1020651
-5.169216	Facebook](https://www.facebook.com/Lost.and.Found.Cameras)	-0.08430623
-5.169216	Facebook](https://www.facebook.com/pages/I-Found-Your-Camera/506709979359249)	-0.08430623
-5.169216	Facility	-0.1025448
-5.169216	Fact:	-0.1024712
-4.868186	Fage	-0.09759852
-5.169216	Fail?]	-0.08430623
-5.169216	Failure	-0.09671398
-4.868186	Fair	-0.09824069
-4.868186	Falafel	-0.09692559
-4.692094	Fall	-0.09553776
-4.868186	Fall*	-0.102536
-5.169216	Fall___	-0.1025448
-5.169216	Fallout,	-0.102483
-5.169216	Farsi	-0.1025448
-4.692094	Fashioned	-0.3667282
-5.169216	Fast?	-0.08430623
-5.169216	Fatherland!	-0.1022152
-5.169216	Fear	-0.1025448
-5.169216	Fearing	-0.09654103
-4.567156	Federal	-0.1662791
-5.169216	Feel	-0.1024536
-4.868186	Fellow	-0.1025124
-4.692094	Feta	-0.08418658
-5.169216	Feta".	-0.09914288
-5.169216	Feudalism	-0.0965798
-5.169216	Fighting	-0.1023212
-5.169216	Fiji	-0.1021033
-5.169216	Filtered	-0.1024889
-4.692094	Finally	-0.08793847
-4.868186	Finally,	-0.1011158
-4.692094	Finance	-0.1900182
-5.169216	Finance/Economics	-0.1015406
-4.692094	Financial	-0.102533
-4.868186	Finland	-0.09943035
-5.169216	Finland).	-0.1025448
-5.169216	Finland,	-0.1025154
-4.214973	First	-0.1610896
-4.868186	First,	-0.08811184
-5.169216	Firstly,	-0.08919609
-5.169216	Fish	-0.09769371
-5.169216	Five	-0.1023271
-4.868186	Follow	-0.1021681
-5.169216	Following	-0.08919609
-4.868186	Food	-0.09335604
-5.169216	Food/driving	-0.09769371
-3.737852	For	-0.1819253
-5.169216	Force,	-0.1005488
-5.169216	Forced	-0.09415148
-5.169216	Foreign	-0.1025007
-5.169216	Foreman	-0.08430623
-5.169216	Forget	-0.1024065
-5.169216	Fort	-0.1025418
-5.169216	Forum	-0.1025448
-4.692094	Found	-0.1024565
-3.846997	France	-0.1763854
-4.868186	France's	-0.2414021
-5.169216	France,	-0.1020592
-5.169216	France.	-0.1025418
-4.868186	France:	-0.1025389
-5.169216	Francisco!	-0.08430623
-5.169216	Francisco,	-0.1023418
-5.169216	Franco-German	-0.1024801
-5.169216	Frankly,	-0.08919609
-4.692094	Frappe	-0.09657384
-5.169216	Frappe)	-0.09914288
-5.169216	Frappes	-0.1025389
-5.169216	Frappé	-0.1017882
-4.868186	Freddo	-0.09769074
-5.169216	Free	-0.1011778
-4.868186	Freedom	-0.09671099
-5.169216	Freeman	-0.1025418
-4.055273	French	-0.1442239
-4.868186	French,	-0.1025154
-5.169216	Fresh,	-0.1025389
-5.169216	Friday.	-0.08430623
-4.391065	From	-0.1007024
-5.169216	Fry	-0.1024977
-4.266126	Fuck	-0.1318054
-4.868186	Fuck,	-0.1019944
-5.169216	Fucking	-0.1025448
-5.169216	Fucking.	-0.08430623
-4.868186	Full	-0.1024507
-5.169216	Funding	-0.08430623
-4.868186	Funny	-0.1021004
-4.868186	Funny,	-0.1009357
-5.169216	Furthermore	-0.08919609
-4.692094	Furthermore,	-0.1013725
-5.169216	Furthest	-0.102533
-4.868186	Future	-0.09740508
-5.169216	Fuuuuuuuuuuuuuuuuu	-0.08430623
-5.169216	GAP?	-0.08430623
-3.826793	GDP	-0.1607415
-5.169216	GDP)	-0.08430623
-5.169216	GDP),	-0.1023506
-4.868186	GDP,	-0.09644558
-4.391065	GDP.	-0.1012928
-4.868186	GDPs	-0.09223093
-5.169216	GDP~~	-0.1024683
-5.169216	GDR,	-0.1019885
-5.169216	GER	-0.09838623
-5.169216	GET	-0.102536
-5.169216	GIVEN	-0.102536
-5.169216	GMT)	-0.1025418
-5.169216	GND	-0.1024654
-5.169216	GOLD	-0.0965798
-4.868186	GOOD	-0.1020798
-5.169216	GOOD.	-0.08430623
-5.169216	GRE	-0.102536
-5.169216	GREAT	-0.1025183
-5.169216	GROW	-0.1025448
-5.169216	GRexit	-0.09825851
-5.169216	GRexit.	-0.0965798
-4.324118	GS	-0.1017646
-5.169216	GSs	-0.1025271
-5.169216	GTFO	-0.08430623
-5.169216	GTFO,	-0.1019679
-5.169216	GWAR	-0.09415148
-5.169216	Gabe	-0.1025242
-5.169216	Gaben	-0.1017882
-5.169216	Gaillimh	-0.0965798
-4.868186	Galaxy	-0.09769074
-5.169216	Galaxy.	-0.1025448
-5.169216	Gale	-0.1025448
-5.169216	Gallaibh	-0.0965798
-5.169216	Gallaibh.	-0.08430623
-5.169216	Galwegians	-0.09969099
-5.169216	Gamble:	-0.1018294
-5.169216	Gamei	-0.09415148
-5.169216	Gamise	-0.1024889
-5.169216	Garner	-0.1025448
-5.169216	Garner:	-0.1025389
-4.868186	Gate	-0.1025213
-5.169216	Geithner](https://en.wikipedia.org/wiki/Timothy_Geithner)	-0.1025448
-5.169216	Gelasa,	-0.09415148
-4.868186	General	-0.1021799
-4.567156	Generally	-0.09967323
-5.169216	Georgia,	-0.1025448
-3.44494	German	-0.1389635
-4.868186	German)	-0.241405
-4.470246	German,	-0.4321267
-3.965096	Germans	-0.1356482
-4.692094	Germans.	-0.1018383
-3.305893	Germany	-0.2576407
-4.023088	Germany's	-0.1262863
-4.692094	Germany)	-0.1899064
-5.169216	Germany).	-0.1020916
-4.470246	Germany,	-0.09751223
-4.324118	Germany.	-0.1184607
-4.868186	Germany:	-0.1025418
-5.169216	Germany?	-0.08430623
-5.169216	Germany’s	-0.1025066
-4.868186	Gerspan	-0.2365569
-4.567156	Get	-0.09228214
-5.169216	Ghoul.	-0.08430623
-5.169216	Gia	-0.10233
-5.169216	Giannis	-0.1025448
-5.169216	Gin	-0.0965798
-4.567156	Give	-0.1014875
-4.692094	Given	-0.1722882
-4.169216	Glad	-0.6087999
-5.169216	Glass-Steagall	-0.1025448
-4.868186	Glenelg	-0.2231694
-5.169216	Glezos	-0.1025448
-5.169216	Glorious	-0.1023889
-4.266126	Go	-0.09168537
-5.169216	Go.	-0.1025448
-4.692094	God	-0.1016467
-5.169216	God!	-0.1023565
-5.169216	Goddamnit	-0.1025448
-4.868186	Gods	-0.09569319
-4.868186	Godspeed	-0.08430316
-5.169216	Godspeed,	-0.09940369
-5.169216	Godwin's	-0.1025418
-4.868186	Going	-0.09414848
-5.169216	Golddoor	-0.1025271
-4.868186	Golden	-0.1025418
-4.470246	Goldman	-0.102533
-5.169216	Goldman-Sachs-type	-0.09671398
-5.169216	Goldman-Sachs.	-0.08430623
-3.938767	Good	-0.1697585
-5.169216	Good.](https://www.youtube.com/watch?v=eYDkGJmSfy0)	-0.08430623
-5.169216	Goodnight	-0.1024006
-5.169216	Googlare	-0.09415148
-5.169216	Google	-0.1025448
-5.169216	Google.	-0.08430623
-5.169216	Gordon	-0.1025448
-4.567156	Got	-0.09990117
-5.169216	Gov',	-0.1017145
-5.169216	Governance	-0.1023771
-4.692094	Government	-0.1012987
-5.169216	Governments	-0.1003389
-5.169216	Graffiti	-0.1016467
-5.169216	Graffiti,	-0.1025124
-5.169216	Granted	-0.1019767
-5.169216	Granted,	-0.09914288
-5.169216	Grapse	-0.1023624
-5.169216	Gray-Man	-0.08430623
-4.214973	Great	-0.1588168
-5.169216	Great!	-0.08430623
-5.169216	Great,	-0.0965798
-5.169216	Grece	-0.1025066
-2.622673	Greece	-0.3444542
-5.169216	Greece!	-0.1024889
-5.169216	Greece",	-0.1005488
-3.826793	Greece's	-0.1230274
-4.868186	Greece)	-0.1013017
-5.169216	Greece).	-0.08430623
-3.470246	Greece,	-0.170735
-3.421028	Greece.	-0.3933755
-5.169216	Greece."	-0.08430623
-5.169216	Greece...	-0.08430623
-5.169216	Greece/	-0.1025448
-4.868186	Greece:	-0.1025418
-4.214973	Greece?	-0.2789066
-5.169216	Greece]	-0.08430623
-5.169216	Greece](http://cdn.culturemass.com/wp-content/uploads/2013/07/waterworld3.png)	-0.08430623
-5.169216	Greece](http://en.wikipedia.org/wiki/Blasphemy_law#Greece).	-0.08430623
-4.692094	Greece’s	-0.1897387
-2.938767	Greek	-0.2132649
-5.169216	Greek',	-0.1011158
-5.169216	Greek)	-0.1019679
-4.692094	Greek,	-0.186198
-5.169216	Greek-American,	-0.1011158
-4.567156	Greek.	-0.1446349
-5.169216	Greek/Texan	-0.102486
-5.169216	Greek]	-0.0965798
-5.169216	Greek](https://vimeo.com/124932760)	-0.08430623
-5.169216	Greeked(butt	-0.1025448
-5.169216	Greekoland.	-0.102536
-3.234717	Greeks	-0.2106007
-5.169216	Greeks!	-0.08430623
-4.692094	Greeks"	-0.1712052
-4.868186	Greeks".	-0.2231694
-5.169216	Greeks'	-0.1024948
-4.692094	Greeks,	-0.09164315
-4.470246	Greeks.	-0.2232934
-5.169216	Greeks."	-0.1025448
-5.169216	Greeks](http://i.imgur.com/oE6d44S.jpg)!	-0.08430623
-5.169216	Green	-0.1025418
-5.169216	Gremany	-0.09769371
-4.567156	Grexit	-0.1012161
-4.266126	Grexit,	-0.1565845
-4.868186	Grexit.	-0.08385812
-5.169216	Greymon	-0.1025213
-5.169216	Grieche	-0.1025448
-5.169216	Grilled	-0.1025448
-5.169216	Grow	-0.1024948
-5.169216	Grown	-0.1021446
-5.169216	Gteek	-0.1025418
-5.169216	Guards!	-0.1025448
-4.470246	Guess	-0.1463653
-5.169216	Guest	-0.1025301
-5.169216	Guise	-0.09671398
-5.169216	Guy	-0.1022976
-4.692094	Gyros	-0.09449322
-4.470246	H	-0.1025036
-5.169216	HA!	-0.1025271
-5.169216	HAVE	-0.1023712
-5.169216	HD	-0.1025448
-5.169216	HEAT.	-0.08430623
-4.868186	HISTORIC.	-0.2413992
-5.169216	HORDES	-0.09671398
-5.169216	HOWEVER,	-0.1023212
-5.169216	HSBC	-0.1024889
-5.169216	HUGE	-0.102124
-5.169216	Ha	-0.1025007
-4.868186	Ha!	-0.08396251
-4.567156	Ha,	-0.09980942
-5.169216	Hah!	-0.1021387
-4.868186	Haha	-0.2371544
-5.169216	Haha.	-0.1025448
-5.169216	Hahaha	-0.1025271
-5.169216	Hahaha,	-0.1025418
-5.169216	Hahahahaha.	-0.1025389
-5.169216	Haircuts	-0.1025418
-5.169216	Haitii	-0.1025448
-4.868186	Hajdin	-0.1025418
-5.169216	Halandri	-0.08430623
-4.692094	Half	-0.09669609
-5.169216	Half-Life	-0.1025448
-5.169216	Half-life	-0.1024301
-5.169216	Hamilton	-0.1022358
-5.169216	Hang	-0.1010332
-4.470246	Happy	-0.2417016
-4.692094	Hard	-0.1816127
-5.169216	Has	-0.08919609
-4.266126	Have	-0.2087995
-5.169216	Have.	-0.1025448
-4.692094	Haven't	-0.185711
-4.324118	Having	-0.0955826
-5.169216	Hawaii.	-0.1025448
-3.677854	He	-0.31269
-5.169216	He'll	-0.1008176
-4.214973	He's	-0.1168964
-5.169216	He?	-0.08430623
-5.169216	Health	-0.1024771
-5.169216	Hear	-0.1021711
-5.169216	Hear,	-0.1025418
-5.169216	Heh	-0.08430623
-5.169216	Heh,	-0.1025271
-5.169216	Heh.	-0.102533
-5.169216	Hehe,	-0.1024712
-5.169216	Hell,	-0.1021652
-5.169216	Hellas	-0.08430623
-5.169216	Hellenic	-0.1025448
-4.868186	Hello	-0.1024006
-5.169216	Help	-0.1023153
-5.169216	Helping	-0.1025183
-5.169216	Hence	-0.1020003
-5.169216	Hephaestus	-0.101629
-4.868186	Her	-0.1024448
-5.169216	Herald	-0.1025448
-5.169216	Herculean	-0.1025448
-4.868186	Here	-0.2371217
-4.567156	Here's	-0.1595713
-5.169216	Here,	-0.09914288
-5.169216	Hey	-0.08430623
-4.868186	Hey,	-0.102483
-5.169216	Hey.	-0.1020916
-5.169216	Hi	-0.102483
-5.169216	Hi!!	-0.08430623
-5.169216	Hi,	-0.1020003
-4.692094	High	-0.1897946
-5.169216	Highway	-0.09415148
-5.169216	Hijacking	-0.08919609
-5.169216	Hilarious.	-0.08430623
-5.169216	Hillary	-0.1009653
-5.169216	Himler's	-0.1025448
-5.169216	Hint:	-0.1024565
-5.169216	Hire	-0.1019885
-4.470246	His	-0.1023506
-5.169216	Historically	-0.1008147
-5.169216	Hitler	-0.08430623
-4.692094	Hitler's	-0.1900211
-4.868186	Hm,	-0.09653804
-5.169216	Hmm	-0.09914288
-5.169216	Hmm,	-0.09914288
-5.169216	Hmmm	-0.09914288
-5.169216	Hodor,	-0.1024742
-5.169216	Hole.	-0.1025418
-5.169216	Holland	-0.1017145
-5.169216	Holland.	-0.09914288
-5.169216	Hollywood	-0.1025448
-4.692094	Holy	-0.1024624
-5.169216	Homo	-0.1025448
-5.169216	Honeslty,	-0.08919609
-5.169216	Honest	-0.1025448
-4.868186	Honestly	-0.1021622
-4.868186	Honestly,	-0.09656489
-5.169216	Honesty	-0.1011247
-4.567156	Hope	-0.2807844
-4.868186	Hopefully	-0.1010184
-5.169216	Horribly	-0.1025448
-5.169216	Horse	-0.1025448
-4.868186	Hot	-0.1024389
-5.169216	Hotel	-0.1025448
-5.169216	House!	-0.08430623
-5.169216	Houses	-0.1024595
-5.169216	Houston	-0.1014846
-3.826793	How	-0.2245945
-4.868186	How's	-0.2371544
-5.169216	How?	-0.09914288
-4.090034	However	-0.15564
-3.890462	However,	-0.3288873
-5.169216	Htan	-0.1025448
-5.169216	Huge	-0.102483
-5.169216	Huh,	-0.1025418
-5.169216	Huh.	-0.09914288
-4.868186	Humans	-0.2392021
-5.169216	Humble????	-0.08430623
-5.169216	Hungarians	-0.1018825
-5.169216	Hungarians.	-0.1024918
-4.567156	Hungary	-0.2351506
-5.169216	Hungary,	-0.1025448
-5.169216	Hungary.	-0.1021828
-5.169216	Hunt.	-0.1024977
-5.169216	Hunter/Fallout	-0.1025418
-5.169216	Hussein	-0.0965798
-5.169216	Hρθαν!	-0.1025448
-2.107387	I	-0.6832834
-3.868186	I'd	-0.162546
-3.890462	I'll	-0.1584963
-3.119998	I'm	-0.3563925
-3.650702	I've	-0.3845438
-5.169216	I,	-0.1025448
-4.868186	I.	-0.1022005
-5.169216	I.M.F	-0.1024095
-4.692094	I.M.F.	-0.08276044
-5.169216	I?	-0.08430623
-5.169216	IANAGD,	-0.1020032
-5.169216	ICCPR	-0.1023182
-5.169216	ICED	-0.1025448
-5.169216	IE	-0.1024477
-5.169216	IF	-0.1024889
-5.169216	IGetThatReference.jpeg	-0.08430623
-4.868186	II	-0.241405
-5.169216	II.	-0.1025036
-3.846997	IMF	-0.1743051
-4.868186	IMF's	-0.2413903
-5.169216	IMO).	-0.08430623
-5.169216	IMO.	-0.08430623
-5.169216	IMPOSE	-0.08919609
-4.868186	IN	-0.1025271
-5.169216	INCREDIBLY	-0.1025448
-5.169216	ING	-0.09825851
-5.169216	INSANE.	-0.1023271
-5.169216	IOUs	-0.1024536
-5.169216	IPHONE!	-0.08430623
-5.169216	IQ	-0.09671398
-4.324118	IRS	-0.121468
-5.169216	IRS.	-0.08430623
-4.567156	IS	-0.1009535
-5.169216	ISO	-0.1025448
-4.868186	IT	-0.102483
-5.169216	IT?	-0.08430623
-5.169216	IT?*	-0.08430623
-5.169216	ITSELF	-0.101688
-5.169216	IV	-0.1025213
-4.868186	IVA	-0.1016349
-3.965096	Iceland	-0.1833211
-5.169216	Iceland's	-0.1024212
-4.692094	Iceland,	-0.1020975
-5.169216	Iceland.	-0.1013843
-5.169216	Iceland?	-0.1013843
-5.169216	Icelanders	-0.1003389
-5.169216	Icelaners	-0.1003389
-2.978884	If	-0.6494477
-5.169216	If,	-0.1025183
