
\data\
ngram 1=13812
ngram 2=48983
ngram 3=4337

\1-grams:
-4.139464	!	-0.2214994
-4.072518	!!	-0.323951
-4.917616	!!!	-0.04576056
-4.917616	!=	-0.09242735
-4.616586	"	-0.0457547
-4.917616	""P.	-0.09244311
-4.917616	"1=10/10"	-0.04576056
-4.917616	"6/10	-0.09211746
-4.917616	"Ako	-0.0924641
-4.917616	"And	-0.09245361
-4.917616	"Arroz	-0.08413675
-4.917616	"Big	-0.09239585
-4.917616	"Browncoat."	-0.0827162
-4.616586	"But	-0.09245884
-4.917616	"DDLoveXX"	-0.0897254
-4.917616	"Da	-0.0924641
-4.917616	"Dad?	-0.0924641
-4.917616	"Deep"	-0.09232758
-4.917616	"Disgusting"	-0.09121276
-4.917616	"Disturbing"?	-0.04576056
-4.917616	"Don't	-0.09245361
-4.917616	"Food."	-0.09211746
-4.917616	"Foodstamps	-0.0924641
-4.917616	"Fruit:	-0.0924641
-4.917616	"Give	-0.0924641
-4.917616	"Gross	-0.09191249
-4.917616	"He	-0.09243786
-4.917616	"Hey,	-0.09100737
-4.616586	"How	-0.08213591
-4.917616	"Howtobasic",	-0.09060683
-3.963373	"I	-0.1307646
-4.917616	"I'll	-0.09050664
-4.917616	"If	-0.08830184
-4.616586	"It's	-0.09079131
-4.917616	"Joey,	-0.08927608
-4.917616	"Lik	-0.09245886
-4.917616	"Marijuana".	-0.04576056
-4.917616	"Maxmofoe".	-0.04576056
-4.917616	"Miami	-0.0924641
-4.917616	"Milky	-0.09242735
-4.917616	"Mooom,	-0.09219101
-4.917616	"My	-0.0924326
-4.917616	"No,	-0.0924641
-4.917616	"Now	-0.09195454
-4.917616	"OK/download/install"	-0.0924641
-4.616586	"OP	-0.3267033
-4.917616	"Oh,	-0.09028508
-4.917616	"Our	-0.0924641
-4.917616	"Over	-0.0924641
-4.616586	"P.	-0.09243784
-4.917616	"Pasta"	-0.09244835
-4.917616	"Pilipino"	-0.08720851
-4.917616	"Rabbit	-0.09245886
-4.917616	"Reaper."	-0.0924641
-4.917616	"Red	-0.0924641
-4.917616	"Rice	-0.0924641
-4.917616	"Ris	-0.0924641
-4.917616	"Risalamande"	-0.0924641
-4.917616	"Thanks	-0.09229082
-4.218646	"The	-0.09100211
-4.616586	"This	-0.33167
-4.917616	"Ulam"	-0.0924641
-4.917616	"Vulcanologists,"	-0.09042752
-4.616586	"We	-0.09187567
-4.917616	"We're	-0.09214373
-4.616586	"What	-0.09131804
-4.917616	"Where	-0.09220677
-4.917616	"Why	-0.09241685
-4.917616	"Will	-0.08830184
-4.917616	"YOU	-0.0924641
-4.917616	"Yes	-0.0924641
-4.917616	"You	-0.09231182
-4.917616	"Younger	-0.08573401
-4.917616	"a"	-0.09153909
-4.917616	"adult"	-0.09221203
-4.917616	"and	-0.0924641
-4.616586	"arroz	-0.3318749
-4.917616	"ate	-0.09232758
-4.917616	"atomic	-0.09242735
-4.917616	"ayy	-0.0924641
-4.917616	"big	-0.0924641
-4.917616	"breakfast	-0.0924641
-4.917616	"bro".	-0.0827162
-4.917616	"built	-0.0924641
-4.917616	"bun"	-0.08720851
-4.917616	"cereal"	-0.08573401
-4.917616	"cheesy	-0.0923801
-4.917616	"dick	-0.09241685
-4.917616	"distusting"	-0.04576056
-4.917616	"eww...	-0.09219101
-4.917616	"experiments"!	-0.04576056
-4.917616	"faahn	-0.0924641
-4.917616	"food"	-0.09245886
-4.917616	"for	-0.0924641
-4.917616	"funeral	-0.0924641
-4.917616	"fussion	-0.0924641
-4.917616	"going	-0.0924641
-4.917616	"gotta	-0.0915233
-4.917616	"guy	-0.09220677
-4.917616	"gym	-0.0924641
-4.917616	"hey	-0.09149174
-4.218646	"home"	-1.092491
-4.917616	"hot	-0.09238534
-4.917616	"hot"	-0.09243786
-4.917616	"it's	-0.0924641
-4.917616	"just	-0.09218051
-4.917616	"knows	-0.09207542
-4.917616	"late	-0.0924641
-4.917616	"legendary"	-0.09228031
-4.917616	"mac	-0.08573401
-4.917616	"meta"	-0.08885276
-4.917616	"mexican	-0.09242735
-4.917616	"my"	-0.08573401
-4.917616	"nasty	-0.0924641
-4.917616	"no"	-0.04576056
-4.917616	"over"	-0.09198608
-4.917616	"picked	-0.09179156
-4.917616	"pics	-0.09121276
-4.917616	"plain."	-0.04576056
-4.917616	"pussy"	-0.09241685
-4.917616	"ranch	-0.09242735
-4.917616	"red	-0.09242735
-4.315556	"rice	-0.327314
-4.917616	"riiiiigggghhhht"	-0.0924641
-4.917616	"risalamande".	-0.04576056
-4.917616	"samsung	-0.0924641
-4.917616	"satay"	-0.09223304
-4.917616	"school"	-0.0924641
-4.917616	"sir",	-0.0923801
-4.917616	"sir".	-0.09244835
-4.917616	"smores"	-0.09244835
-4.917616	"something	-0.08782981
-4.917616	"spaghetti	-0.09222779
-4.917616	"sushi"	-0.09182837
-4.917616	"taste"	-0.08927608
-4.917616	"tasty".	-0.04576056
-4.917616	"test	-0.09213322
-4.917616	"thank	-0.0924641
-4.917616	"thinks	-0.0924011
-4.616586	"this	-0.08647986
-4.917616	"top	-0.09241685
-4.917616	"wat."	-0.0924641
-4.917616	"wedge	-0.0924641
-4.917616	"whatever	-0.08228107
-4.917616	"white	-0.0924641
-4.616586	"with	-0.09242209
-4.917616	"would	-0.08715005
-4.917616	"wut	-0.0924326
-4.917616	"x	-0.08782981
-4.917616	"yes,	-0.09149174
-4.616586	"you'll	-0.09197555
-4.917616	"your"	-0.09100737
-4.917616	"yukky,	-0.09140754
-4.218646	#1	-0.1688378
-4.917616	#1.	-0.04576056
-4.616586	#3	-0.08404575
-4.917616	#3?"	-0.04576056
-4.917616	#5	-0.0897254
-4.917616	#Hopefully	-0.08950873
-4.917616	#ThugLife	-0.04576056
-4.917616	$1	-0.09245886
-4.917616	$1.	-0.0920071
-4.917616	$10	-0.08948229
-4.917616	$100000000	-0.0924641
-4.917616	$100000000?	-0.0924641
-4.917616	$3-4	-0.0924641
-4.917616	$500	-0.08885276
-3.917616	&	-0.07408296
-4.917616	'KAY?	-0.04576056
-4.315556	'Miami	-0.4148577
-4.917616	'Rice-laced	-0.09244835
-4.917616	'Roid-laced	-0.09245361
-4.917616	'Sup	-0.09073336
-4.917616	'aspic'.	-0.04576056
-4.917616	'bout	-0.08715005
-4.917616	'cause	-0.04576056
-4.917616	'classic	-0.09242211
-4.917616	'cocoa	-0.09245886
-4.917616	'cooking	-0.09245886
-4.616586	'crunch'	-0.08421165
-4.917616	'curd	-0.09245886
-4.917616	'disgusting'	-0.09242211
-4.917616	'distusting'	-0.04576056
-4.917616	'distusting'.	-0.04576056
-4.917616	'food'	-0.0897254
-4.917616	'imagine	-0.09245886
-4.616586	'lol	-0.09027451
-4.917616	'merica!	-0.04576056
-4.917616	'meta'	-0.08720851
-4.917616	'rice	-0.0924641
-4.917616	'satirical'/ironic	-0.09221203
-4.917616	'spinach	-0.09245886
-4.917616	'sticky'	-0.08793593
-4.917616	'tasty'	-0.09107585
-4.917616	'watery'	-0.09121276
-3.917616	(	-0.3543116
-4.917616	("I	-0.09213848
-4.917616	(1/4	-0.08707032
-4.917616	(17	-0.09107585
-4.917616	(180	-0.0924641
-4.917616	(1898-WW2).	-0.04576056
-4.616586	(2	-0.3319537
-4.917616	(5	-0.09229082
-3.687167	(:	-0.9699449
-4.616586	(:)	-0.2852554
-4.917616	(><>)	-0.09107585
-4.917616	(A	-0.09245886
-4.917616	(Also	-0.090902
-4.917616	(Buttermilk)	-0.04576056
-4.917616	(By	-0.08228107
-4.917616	(C'mon,	-0.09238534
-4.917616	(Cuban	-0.09245886
-4.917616	(Delicious)	-0.04576056
-4.917616	(Don't	-0.0924011
-4.616586	(ENG	-0.3319537
-4.616586	(Eng	-0.3319537
-4.917616	(Filipinos)	-0.04576056
-4.917616	(Gag)	-0.04576056
-3.876223	(I	-0.2224023
-4.917616	(I'd	-0.09242211
-4.315556	(I'm	-0.09124963
-4.917616	(I've	-0.0920071
-4.616586	(If	-0.08657034
-4.616586	(It's	-0.08986801
-4.917616	(Japanese)	-0.09234859
-4.917616	(Just	-0.09073336
-4.917616	(Kroger	-0.0924641
-4.917616	(Mafé	-0.0924641
-4.917616	(Mash	-0.08793593
-4.917616	(Milo),	-0.09244835
-4.917616	(Mirror.)[https://www.youtube.com/watch?v=zYKupOsaJmk]	-0.0924641
-4.315556	(Not	-0.1958919
-4.616586	(Part	-0.09218049
-4.917616	(Plantains	-0.09100737
-4.917616	(Poor	-0.09241685
-4.917616	(Rice	-0.09227506
-4.917616	(Satay	-0.09226456
-4.917616	(To	-0.09027452
-4.917616	(Vietnamese)	-0.09100737
-4.917616	(Vietnamese/Thai/SE	-0.0924641
-4.917616	(What?)	-0.04576056
-4.917616	(World	-0.08707032
-4.917616	(Wow,	-0.09140754
-4.616586	(Yes,	-0.07229371
-4.917616	(Z).	-0.09179682
-4.917616	(adding	-0.08413675
-4.917616	(again,	-0.09150752
-4.917616	(alongside	-0.08228107
-4.917616	(already	-0.0924641
-4.917616	(although	-0.09221728
-4.917616	(am	-0.0827162
-4.139464	(and	-0.08951929
-4.917616	(and,	-0.09213848
-4.917616	(another	-0.09245886
-4.917616	(because	-0.08707032
-4.917616	(boiling)	-0.09223304
-4.917616	(bout	-0.08413675
-4.917616	(bring	-0.0897254
-4.917616	(buillon	-0.08720851
-4.917616	(but	-0.09140754
-4.917616	(but,	-0.09213322
-4.917616	(button	-0.0897254
-4.917616	(chest,	-0.09244835
-4.917616	(close	-0.09233283
-4.917616	(cook	-0.09107585
-4.616586	(cooked	-0.08666612
-4.917616	(cooked),	-0.0923906
-4.917616	(damn)	-0.04576056
-4.917616	(dry)	-0.0924641
-4.917616	(duh),	-0.0924641
-4.917616	(e.g.	-0.0924641
-4.917616	(eat	-0.0915917
-4.917616	(especially	-0.08885276
-4.917616	(essentially)	-0.04576056
-4.917616	(even	-0.09231182
-4.917616	(filipino)	-0.0924641
-4.917616	(frequent)	-0.0827162
-4.616586	(from	-0.09227505
-4.917616	(fry	-0.09229082
-4.917616	(garlic,	-0.091923
-4.917616	(have	-0.08715005
-4.917616	(honestly,	-0.09073336
-4.917616	(how	-0.08228107
-4.917616	(however	-0.09140754
-4.917616	(http://i.imgur.com/UTo7S.gif)	-0.04576056
-4.917616	(https://www.reddit.com/r/GakiNoTsukai/)	-0.04576056
-4.917616	(https://www.vegemite.com.au/)	-0.04576056
-4.917616	(https://www.youtube.com/watch?v=PHAlq6i5pso).	-0.09158118
-4.315556	(if	-0.07726446
-4.616586	(in	-0.08730945
-4.917616	(is	-0.08927608
-4.440495	(it	-0.09016898
-4.440495	(it's	-0.08301679
-4.917616	(juice),	-0.08573401
-4.616586	(just	-0.09210693
-4.917616	(ketchup,	-0.09245361
-4.917616	(kraft	-0.0924326
-4.917616	(like	-0.0924641
-4.917616	(look	-0.08948229
-4.917616	(lots	-0.08573401
-4.917616	(mainly	-0.0924641
-4.917616	(marinara,	-0.0924641
-4.917616	(mash	-0.08830184
-4.917616	(maybe	-0.09230658
-4.917616	(might	-0.0907966
-4.917616	(my	-0.09241685
-4.616586	(no	-0.09236433
-4.440495	(not	-0.09198608
-4.616586	(on	-0.08203912
-4.616586	(one	-0.08929193
-4.917616	(only	-0.0924641
-4.616586	(optional	-0.3316123
-4.917616	(optional)	-0.091923
-4.014526	(or	-0.07889796
-4.917616	(or,	-0.0924011
-4.917616	(pancakes?	-0.09245886
-4.917616	(plain)	-0.08413675
-4.917616	(please	-0.09184414
-4.616586	(preferably	-0.09212795
-4.917616	(puff	-0.09245886
-4.917616	(que	-0.09245886
-4.917616	(raw),	-0.09228031
-4.917616	(real)	-0.0923801
-4.616586	(really	-0.09156013
-4.917616	(rice)	-0.08618701
-4.917616	(same	-0.0924641
-4.917616	(sauce	-0.08573401
-4.917616	(semi-drinks)	-0.08782981
-4.917616	(separately)	-0.04576056
-4.917616	(shredded)	-0.09205966
-4.917616	(simple	-0.08720851
-4.917616	(specifically	-0.09229607
-4.917616	(spelling?)	-0.09221203
-4.917616	(spooky	-0.09191249
-4.917616	(sunny	-0.0924641
-4.917616	(supervalu?)	-0.09245886
-4.917616	(swede)	-0.09186517
-4.616586	(that	-0.08922846
-4.218646	(the	-0.09219102
-4.917616	(this	-0.09219101
-4.616586	(though	-0.08609643
-4.917616	(to	-0.0913128
-4.917616	(try	-0.0924641
-4.917616	(typically	-0.09245886
-4.917616	(un)officially	-0.08228107
-4.917616	(unseasoned)	-0.08720851
-4.917616	(using	-0.09245886
-4.917616	(very	-0.0924641
-4.917616	(viand).	-0.09179682
-4.616586	(which	-0.08195307
-4.917616	(white):	-0.09232758
-4.917616	(who	-0.0924641
-4.218646	(with	-0.0923486
-4.917616	(within	-0.09245361
-4.917616	(would	-0.09237485
-4.917616	(yep).	-0.08830184
-4.917616	(yoghurt).	-0.04576056
-4.616586	(you	-0.09121275
-4.440495	(͡o	-0.6185822
-4.917616	(⊙ω⊙)	-0.04576056
-4.218646	)	-0.2761923
-4.917616	).	-0.04576056
-4.315556	):	-0.3706124
-4.917616	);	-0.04576056
-4.917616	)After	-0.09244311
-4.315556	*	-0.04412052
-4.917616	*"Fuck	-0.09233809
-4.917616	*"What	-0.09229607
-4.917616	*******	-0.04576056
-4.917616	***BROTHER!***	-0.04576056
-4.917616	***Ew.***	-0.04576056
-4.917616	***SICK	-0.09244311
-4.917616	**4/20/2020**	-0.08830184
-4.917616	**===	-0.09245886
-4.917616	**Chocolate**	-0.04576056
-4.917616	**FUTURE**	-0.08618701
-4.917616	**HE	-0.0924641
-4.917616	**LOVE	-0.09244311
-4.917616	**THE**	-0.0924641
-4.917616	**This**	-0.0924641
-4.917616	**[CAN	-0.09245361
-4.917616	**ham	-0.08573401
-4.917616	**noodles**	-0.0897254
-4.917616	**read	-0.08830184
-4.917616	**sauce**	-0.08720851
-4.917616	**shudder**	-0.04576056
-4.917616	**skips	-0.0924641
-4.917616	**what	-0.08228107
-4.917616	*Aspic*.	-0.09235384
-4.917616	*But	-0.09167586
-4.917616	*CANNIBAL!*	-0.04576056
-4.917616	*Continues	-0.09210169
-4.917616	*D'awww*	-0.04576056
-4.917616	*EYE*?	-0.04576056
-4.917616	*GOD	-0.0924641
-4.917616	*How	-0.08618701
-4.917616	*I	-0.09245361
-4.917616	*I*	-0.09027452
-4.917616	*Insert	-0.0924641
-4.917616	*It	-0.09243786
-4.917616	*Looks	-0.09179156
-4.917616	*MURI*!	-0.04576056
-4.917616	*Natural*	-0.09231182
-4.917616	*OINK	-0.0924641
-4.917616	*ONE	-0.09244311
-4.440495	*One	-0.6132305
-4.917616	*Poses	-0.08618701
-4.917616	*Proceeds	-0.08618701
-4.917616	*Real14YearOldGirlsWePromise.com*.	-0.09233809
-4.917616	*Shrugs*	-0.04576056
-4.917616	*Some*	-0.09192826
-4.917616	*The	-0.0924641
-4.616586	*There	-0.331218
-4.917616	*Tip*	-0.04576056
-4.917616	*Towards	-0.0924641
-4.917616	*Turns	-0.08618701
-4.917616	*WHOOP	-0.0924641
-4.917616	*Watership	-0.0924641
-4.917616	*We	-0.0922488
-4.917616	*Whispers*	-0.09245361
-4.917616	*With	-0.08413675
-4.917616	*actually*	-0.09245886
-4.917616	*advanced*	-0.0924641
-4.917616	*again*.	-0.09136017
-4.616586	*all*	-0.08197996
-4.917616	*already	-0.09233809
-4.917616	*baked	-0.08830184
-4.917616	*big*	-0.0924641
-4.917616	*bit*	-0.08707032
-4.917616	*black*,	-0.09073336
-4.917616	*brazzers	-0.04576056
-4.616586	*breakfast*.	-0.2852554
-4.917616	*breakfast.*	-0.04576056
-4.917616	*brilliant*	-0.09242211
-4.917616	*cannot*	-0.09245886
-4.917616	*chair*	-0.08618701
-4.917616	*concept*	-0.0924641
-4.917616	*continued	-0.09210169
-4.917616	*created	-0.08413675
-4.917616	*crispy	-0.04576056
-4.917616	*crowd	-0.0924641
-4.917616	*crunch	-0.0924641
-4.917616	*dare*	-0.09183363
-4.917616	*delicious*.	-0.04576056
-4.917616	*did*	-0.09241685
-4.917616	*dies	-0.08707032
-4.917616	*dies*	-0.04576056
-4.917616	*dis*courteous?	-0.09179682
-4.917616	*disgusting	-0.04576056
-4.917616	*disgusting*	-0.09143911
-4.917616	*does*	-0.09245361
-4.616586	*don't*	-0.08948228
-4.917616	*duh*.	-0.04576056
-4.917616	*dun	-0.0924116
-4.917616	*ever*	-0.04576056
-4.917616	*everything*.	-0.04576056
-4.917616	*faaaat*	-0.04576056
-4.917616	*favorite/best*	-0.0924641
-4.917616	*first*	-0.09204914
-4.917616	*from	-0.08228107
-4.917616	*gasp*	-0.04576056
-4.917616	*give	-0.0924641
-4.917616	*goes	-0.08618701
-4.917616	*guarantee*	-0.08715005
-4.917616	*hard*	-0.09245361
-4.917616	*horrendously*	-0.09224354
-4.917616	*hugs*	-0.04576056
-4.917616	*hurl*	-0.04576056
-4.917616	*hurph*	-0.04576056
-4.218646	*is*	-0.08312945
-4.917616	*listens	-0.08618701
-4.917616	*long*	-0.09224354
-4.917616	*mindblown*	-0.04576056
-4.917616	*most	-0.0924641
-4.917616	*never*	-0.09027452
-4.917616	*of	-0.09127595
-4.917616	*on*	-0.09234334
-4.917616	*one	-0.09185466
-4.917616	*other*	-0.0924641
-4.917616	*pepper*.	-0.04576056
-4.917616	*plays	-0.0924641
-4.917616	*potato*	-0.0915233
-4.917616	*presuming*	-0.08950873
-4.917616	*pukes*	-0.09235384
-4.917616	*puts	-0.09233283
-4.917616	*really*	-0.09208593
-4.917616	*rice	-0.09201761
-4.917616	*rice*	-0.04576056
-4.917616	*ruining*	-0.08830184
-4.917616	*scratch	-0.0924641
-4.917616	*should	-0.09050664
-4.917616	*shudder*	-0.04576056
-4.917616	*sigh*...broken	-0.09245886
-4.917616	*sistah	-0.09240635
-4.917616	*slow	-0.0924641
-4.917616	*sniffle*	-0.0924641
-4.917616	*so	-0.09245886
-4.917616	*so*	-0.09245886
-4.917616	*something*	-0.0897254
-4.917616	*sometimes*	-0.09226981
-4.917616	*stabbed	-0.09202813
-4.917616	*swoon*	-0.04576056
-4.917616	*tasty*	-0.09191249
-4.917616	*that's*	-0.09179156
-4.616586	*that*	-0.09028506
-4.917616	*they*,	-0.0827162
-4.917616	*thing*	-0.09121276
-4.917616	*this*	-0.08720851
-4.917616	*thows	-0.0924641
-4.917616	*together*	-0.04576056
-4.917616	*tusts	-0.04576056
-4.917616	*want*	-0.0913128
-4.917616	*whether	-0.04576056
-4.917616	*white*	-0.09198608
-4.917616	*you're*	-0.09244311
-4.917616	*you*	-0.09245886
-3.254858	+	-0.2827619
-4.917616	+ng	-0.0924641
-4.917616	+rice?	-0.0827162
-4.440495	,	-0.0822327
-4.917616	,2008?	-0.04576056
-3.091541	-	-0.07372711
-4.218646	--	-0.3237321
-4.917616	-10/10	-0.0924641
-4.917616	-2/10	-0.04576056
-4.917616	-3/10	-0.04576056
-4.917616	-45	-0.04576056
-4.917616	->	-0.09231707
-4.917616	-Beans	-0.04576056
-4.917616	-DO_U_EVN_SPAGHETTI	-0.04576056
-4.917616	-God	-0.04576056
-4.917616	-IGN	-0.04576056
-4.917616	-R	-0.04576056
-4.917616	-Rice	-0.04576056
-4.917616	-Utah	-0.09243786
-3.963373	.	-0.1494023
-4.917616	."	-0.04576056
-4.616586	.-.	-0.04523406
-4.440495	..	-0.08980993
-3.838434	...	-0.1744765
-4.440495	....	-0.09200711
-4.917616	.....on	-0.0924641
-4.917616	....Anchovies,	-0.0924641
-4.917616	....Carrot	-0.09243786
-4.917616	....OP	-0.09244311
-4.917616	....how	-0.0917495
-4.917616	...He	-0.0924116
-4.917616	...Wat.	-0.04576056
-4.917616	...You	-0.0924641
-4.917616	...and	-0.09245361
-4.917616	...not	-0.08927608
-4.917616	...out	-0.08707032
-4.917616	...senpai	-0.04576056
-4.917616	...um,	-0.09233283
-4.917616	...what	-0.08228107
-4.917616	...which	-0.09042752
-4.917616	...you	-0.09245886
-4.917616	...your	-0.0924326
-3.963373	/	-0.1432573
-4.917616	/#brownricematters	-0.04576056
-4.616586	/10	-0.04059105
-4.917616	/U/OPTICCOSTMEMYACCOUNT***	-0.04576056
-4.616586	/butthurt	-0.3319537
-4.917616	/r/AskReddit	-0.09245886
-4.917616	/r/ButWhy	-0.04576056
-4.917616	/r/CoDCompetitive	-0.0924641
-4.917616	/r/FOOF	-0.04576056
-4.917616	/r/FoodOnOtherFood	-0.04576056
-4.917616	/r/FoodPorn.	-0.04576056
-4.917616	/r/Montisa2008	-0.09194403
-4.917616	/r/NoContext	-0.04576056
-4.917616	/r/ReviewsOfAnything	-0.08720851
-4.917616	/r/WeirdFoodsOnRice	-0.0924641
-4.616586	/r/askreddit	-0.09195453
-4.917616	/r/askreddit.	-0.0924641
-4.917616	/r/ateitonrice	-0.04576056
-4.917616	/r/codcompetitive	-0.09107585
-4.917616	/r/codcompetitive.	-0.09245361
-4.917616	/r/dadjokes	-0.04576056
-4.917616	/r/fitnesscirclejerk	-0.04576056
-4.917616	/r/funny	-0.09127595
-4.917616	/r/funny.	-0.09158118
-4.917616	/r/gakinotsukai	-0.08948229
-4.917616	/r/keto	-0.0924641
-4.917616	/r/leagueoflegends	-0.08927608
-4.917616	/r/letstryit	-0.0924641
-4.917616	/r/montageparodies	-0.08573401
-4.917616	/r/over_rice	-0.09245361
-4.440495	/r/overrice	-0.1896619
-4.917616	/r/porpoisesgonewild	-0.04576056
-4.917616	/r/pressfarttocontinue	-0.04576056
-4.616586	/r/redditgetsdrawn	-0.0918599
-4.917616	/r/ricemasterrace	-0.04576056
-4.917616	/r/servewithrice	-0.04576056
-4.315556	/r/shittyfoodporn	-0.1476227
-4.917616	/r/suicidewatch	-0.09230658
-4.616586	/r/teenagers	-0.09221201
-4.917616	/r/teenparents	-0.04576056
-4.917616	/r/thanksforthesuggestion	-0.04576056
-4.616586	/r/thankyouforyoursuggestion	-0.2852554
-4.616586	/r/theydidthemath	-0.2852554
-4.917616	/r/theydidthemonstermath	-0.04576056
-4.917616	/r/thisoverthat	-0.09107585
-4.917616	/r/tryitwithrice	-0.04576056
-4.014526	/r/withrice	-0.1592402
-4.917616	/r/withrice,	-0.0907966
-4.616586	/s	-0.2852554
-4.917616	/u/CanadianDragon434,	-0.091618
-4.315556	/u/DO_U_EVN_SPAGHETTI	-0.03978571
-4.616586	/u/DO_U_EVN_SPAGHETTI,	-0.07968808
-4.917616	/u/Eliwood_of_Pherae.	-0.04576056
-4.917616	/u/Frostiken	-0.08720851
-4.917616	/u/Montisa2008	-0.04576056
-4.917616	/u/PM_ME_THUMBS	-0.08720851
-4.917616	/u/SomeonesBirthday	-0.09127595
-4.917616	/u/blisssster	-0.08720851
-4.917616	/u/dickcockboner...	-0.04576056
-4.917616	/u/eliwood_of_pherae	-0.08720851
-4.917616	/u/radpandaparty	-0.04576056
-4.616586	/u/trollabot	-0.09245884
-4.917616	/u/unidan	-0.04576056
-4.917616	/withrice	-0.09213322
-4.917616	0	-0.0924641
-4.917616	0.0	-0.04576056
-4.917616	0.5	-0.09245361
-4.917616	0.5/10	-0.04576056
-3.741524	0/10	-0.4279048
-4.917616	0/10,	-0.09107585
-3.575193	1	-0.1341657
-4.917616	1,000,000	-0.09192826
-4.917616	1,000,000/10	-0.04576056
-4.917616	1,400	-0.09245361
-4.917616	1-1.5h	-0.09244311
-4.917616	1-2	-0.09224354
-4.139464	1.	-0.111268
-4.440495	1.5	-0.2366673
-4.917616	1.75-2	-0.09244311
-3.876223	1/10	-0.24913
-4.616586	1/10.	-0.2852554
-4.616586	1/10?	-0.0457547
-4.218646	1/2	-0.3296632
-4.616586	1/4	-0.09236433
-4.616586	1/8	-0.07863245
-4.917616	1/r	-0.04576056
-3.917616	10	-0.08798368
-4.616586	10%	-0.08644792
-4.917616	10,000	-0.0924641
-4.440495	10.	-0.1899777
-2.834831	10/10	-0.8424917
-4.917616	10/10!	-0.04576056
-4.917616	10/10"	-0.09244835
-4.440495	10/10,	-0.07696532
-4.139464	10/10.	-0.2226437
-4.917616	10/10...)	-0.04576056
-4.917616	10/10?	-0.04576056
-4.917616	10/10?!?!	-0.04576056
-4.917616	10/3628800	-0.09223304
-4.218646	100%	-0.2252644
-4.917616	1000.	-0.09233283
-4.917616	10000	-0.09243786
-4.917616	100000+	-0.0924641
-4.917616	1000000/10	-0.04576056
-4.917616	1004.	-0.09123909
-4.917616	100?	-0.0924641
-4.315556	100k	-0.08843434
-4.917616	100x	-0.0924641
-4.917616	101	-0.04576056
-4.917616	104	-0.09244835
-4.917616	1064	-0.09245886
-4.917616	1080p	-0.09245886
-4.917616	10:20	-0.09213848
-4.917616	10th,	-0.08573401
-4.315556	11	-0.09202287
-4.917616	11-13	-0.09218051
-4.917616	11.	-0.04576056
-3.838434	11/10	-0.8205489
-4.917616	11/10,	-0.09179156
-4.917616	11/10.	-0.04576056
-4.917616	11/10?	-0.04576056
-4.917616	11:21	-0.08573401
-4.917616	11th	-0.09245361
-4.616586	12	-0.3317751
-4.917616	12%	-0.09060683
-4.917616	12,	-0.0827162
-4.917616	12.	-0.04576056
-4.218646	12/10	-0.2765751
-4.917616	1240	-0.09245886
-4.917616	125k	-0.09242735
-4.440495	13	-0.09222779
-4.917616	1337	-0.09242211
-3.054293	14	-0.4391863
-4.616586	14!	-0.09178104
-4.917616	14!!	-0.04576056
-3.741524	14,	-0.1665435
-3.771488	14.	-0.1356132
-4.917616	14..	-0.0924641
-4.917616	14...	-0.04576056
-4.315556	14?	-0.1381737
-4.917616	14?!?	-0.04576056
-4.917616	14K/10	-0.04576056
-3.963373	15	-0.1267125
-4.917616	15!	-0.09244835
-4.917616	15%	-0.0897254
-4.917616	15,000th	-0.0924011
-4.616586	15.	-0.08145794
-4.917616	15/16	-0.0897254
-4.917616	157,	-0.08573401
-4.917616	15lbs	-0.09153909
-4.917616	16	-0.04576056
-4.917616	160k	-0.09210695
-4.917616	160k!	-0.04576056
-4.315556	17	-0.1944509
-4.917616	17,	-0.09107585
-4.917616	17-24	-0.04576056
-4.917616	17-24!	-0.04576056
-4.917616	18-31.	-0.09226456
-4.616586	18/26	-0.04557927
-4.917616	1800s,	-0.08228107
-4.917616	181/130	-0.04576056
-4.917616	18th	-0.0924641
-4.917616	19,	-0.08573401
-4.917616	190,000	-0.04576056
-4.917616	1988	-0.04576056
-4.917616	1992	-0.08927608
-4.616586	19th	-0.3319537
-4.917616	1=100%=10/10	-0.04576056
-4.917616	1](http://www.youtube.com/watch?v=PHAlq6i5pso)	-0.09245886
-4.917616	1lyke	-0.09230658
-4.440495	1st	-0.08385302
-4.917616	1v1	-0.0913128
-3.399102	2	-0.1095794
-4.616586	2):	-0.09245884
-4.616586	2,000	-0.09245359
-4.917616	2-3	-0.0923906
-4.315556	2.	-0.09238535
-3.687167	2/10	-0.7881836
-4.917616	2/10,	-0.09060683
-4.917616	2/10.	-0.09143911
-4.218646	20	-0.04557345
-4.917616	20+	-0.09236959
-4.917616	20,	-0.09060683
-4.917616	20-25	-0.0923906
-4.917616	20/10	-0.04576056
-4.315556	2000	-0.04571379
-4.917616	2005.	-0.04576056
-4.917616	2007...	-0.0924326
-4.917616	2014	-0.04576056
-4.917616	2014"	-0.04576056
-4.917616	2015	-0.09186517
-4.917616	2015!!!	-0.04576056
-4.917616	21st	-0.0924641
-4.917616	22/10	-0.04576056
-4.440495	24	-0.09242736
-4.917616	24hr	-0.0924641
-4.917616	25	-0.09236434
-4.917616	25,	-0.0827162
-4.917616	25k	-0.0924641
-4.917616	26	-0.0924641
-4.917616	26.	-0.04576056
-4.917616	27k	-0.0924641
-4.917616	2:1	-0.09245886
-4.917616	2](http://www.youtube.com/watch?v=5zHxWQs-9nY)	-0.04576056
-4.917616	2day??	-0.0924641
-4.315556	2nd	-0.09110218
-4.917616	2rice	-0.08715005
-4.917616	2wd	-0.0924641
-3.638862	3	-0.09218194
-4.917616	3,	-0.09239585
-4.616586	3-5	-0.09233807
-4.917616	3-day	-0.09204389
-4.218646	3.	-0.04549741
-3.741524	3/10	-1.21599
-4.616586	3/10,	-0.08967783
-4.440495	30	-0.089403
-4.917616	30-50.	-0.090902
-4.917616	30.2.1?	-0.04576056
-4.917616	3000	-0.09245361
-4.917616	30:	-0.09236434
-4.917616	35	-0.0924641
-4.917616	350	-0.09244835
-4.917616	360	-0.0924641
-4.917616	3628800	-0.09226456
-4.917616	3?	-0.04576056
-4.917616	3X	-0.09245886
-4.917616	3\.	-0.09245361
-4.917616	3k	-0.09228557
-4.616586	3rd	-0.09209643
-3.519676	4	-0.1827112
-4.917616	4-6	-0.04576056
-4.440495	4.	-0.09164958
-3.963373	4/10	-0.2378334
-4.917616	4/10,	-0.09150752
-4.917616	4/Japan	-0.08948229
-4.917616	40	-0.09218051
-4.917616	40%	-0.08573401
-4.917616	400	-0.0923906
-4.917616	411	-0.09224354
-4.139464	42	-0.2790715
-4.917616	420	-0.09225405
-4.917616	43	-0.09229082
-4.616586	45	-0.09221201
-4.616586	48	-0.0922803
-4.917616	4:20	-0.04576056
-4.917616	4yds	-0.0924326
-4.917616	4yo	-0.0907966
-3.519676	5	-0.2020409
-4.917616	5-10	-0.09244311
-4.917616	5-6	-0.09244311
-4.917616	5-6/10.	-0.04576056
-4.014526	5.	-0.1776431
-3.963373	5/10	-0.3396307
-4.917616	5/10,	-0.09199659
-4.917616	5/25/15.	-0.09233283
-4.616586	50	-0.08966726
-4.917616	50%	-0.09242211
-4.917616	50's.	-0.0924641
-4.616586	50/50	-0.0922803
-4.917616	5000th	-0.0924641
-4.917616	50k	-0.09210695
-4.917616	50s	-0.09240635
-4.917616	51k	-0.0924641
-4.917616	59	-0.09245886
-4.917616	5:00	-0.09244835
-4.917616	5:3	-0.09245361
-4.917616	5ever	-0.04576056
-4.917616	5k	-0.09228557
-4.917616	5k.	-0.04576056
-4.917616	5th	-0.09245361
-3.838434	6	-0.03536529
-4.440495	6.	-0.09194404
-4.917616	6...	-0.09228557
-4.917616	6.75/10	-0.04576056
-3.803672	6/10	-0.6776261
-4.917616	6/10.	-0.04576056
-4.616586	60	-0.08701715
-4.917616	60%	-0.08793593
-4.616586	600	-0.08549397
-4.917616	6000!	-0.04576056
-4.917616	60k	-0.0907966
-4.917616	64,	-0.0827162
-4.917616	6am,	-0.08885276
-4.917616	6am.	-0.090902
-3.771488	7	-0.1472737
-4.917616	7-'s	-0.0924641
-4.917616	7-8	-0.09229082
-4.616586	7.	-0.09245884
-4.917616	7.5/10	-0.09211746
-4.440495	7.8/10	-0.1899427
-3.687167	7/10	-0.9739617
-4.917616	7/10-	-0.09199659
-4.917616	7/10.	-0.04576056
-4.917616	7/10?	-0.0924641
-4.917616	70%	-0.09244835
-4.917616	70's.	-0.04576056
-4.917616	70's;	-0.09073336
-4.917616	7000	-0.09245361
-4.917616	7000th	-0.09210695
-4.917616	711	-0.09213322
-4.917616	7500	-0.09245886
-4.917616	7500.	-0.04576056
-4.917616	7am,	-0.08885276
-3.771488	8	-0.1595604
-4.917616	8.	-0.0924641
-4.917616	8.5/10	-0.04576056
-3.486252	8/10	-1.169882
-4.917616	8/10.	-0.09245886
-4.917616	8/10?	-0.0922593
-4.917616	8/14	-0.08782981
-4.440495	8/8	-0.04573718
-4.917616	80%	-0.09245886
-4.917616	80k	-0.09228557
-4.917616	8675309	-0.04576056
-4.917616	8th	-0.09245361
-4.139464	9	-0.0920649
-4.917616	9.	-0.0924641
-3.412466	9/10	-0.6887983
-4.616586	9/10,	-0.09050662
-4.440495	9/10.	-0.04522238
-4.616586	9/10?	-0.09001059
-4.917616	90/130	-0.04576056
-4.917616	9001/10	-0.04576056
-4.917616	90s.	-0.09136017
-4.917616	91/130	-0.04576056
-4.917616	911!	-0.04576056
-4.917616	911.	-0.04576056
-4.917616	911?	-0.04576056
-4.917616	95	-0.09244311
-4.917616	95%	-0.0924641
-4.917616	988888888	-0.09239585
-4.917616	99%	-0.09214373
-4.917616	998	-0.04576056
-4.917616	999	-0.04576056
-4.917616	9998889888899	-0.0924641
-4.917616	9?!	-0.0827162
-4.917616	9th,	-0.0924641
-4.218646	:	-0.1719025
-4.616586	:')	-0.2852554
-3.426254	:(	-1.059972
-3.284147	:)	-1.194417
-4.917616	:),	-0.09218576
-4.917616	:):	-0.0924641
-4.315556	:-)	-0.3706065
-4.917616	:-/	-0.0827162
-4.440495	:/	-0.1894805
-4.917616	:3	-0.04576056
-4.917616	:<	-0.04576056
-4.917616	:>	-0.04576056
-3.838434	:D	-1.067235
-4.917616	:D,	-0.08573401
-4.218646	:P	-1.092491
-4.616586	;	-0.09243784
-3.876223	;)	-1.087089
-4.917616	;-;.	-0.04576056
-4.917616	;;	-0.04576056
-4.917616	;A;	-0.04576056
-4.917616	<-	-0.09217525
-4.917616	</rant>	-0.04576056
-0.9915307	</s>
-4.014526	<3	-0.9075337
-4.917616	<3<3<3	-0.04576056
-4.917616	<:	-0.04576056
-4.917616	<:I	-0.04576056
-4.917616	<X+(rice	-0.0924641
-99	<s>	-0.3255905
-3.426254	=	-0.07985227
-4.917616	=/	-0.04576056
-4.917616	=/)	-0.04576056
-4.917616	=/=	-0.09226456
-4.917616	===**	-0.04576056
-4.917616	=rice	-0.09226456
-3.399102	>	-0.05737992
-4.917616	>.>	-0.09157592
-4.917616	>:)	-0.04576056
-4.917616	>:3	-0.04576056
-4.917616	><>><>><>	-0.04576056
-4.917616	>ARE	-0.09235384
-4.917616	>Bacon	-0.08573401
-4.917616	>Can't	-0.09150752
-4.917616	>Cheese	-0.08573401
-4.917616	>Distusting	-0.04576056
-4.917616	>Do	-0.08830184
-4.917616	>I	-0.09152857
-4.917616	>Its	-0.09244311
-4.917616	>Mom's	-0.08793593
-4.917616	>Our	-0.09245886
-4.917616	>Parmesan	-0.09205966
-4.917616	>Plain	-0.08793593
-4.917616	>Probably	-0.09230658
-4.917616	>Rainbow	-0.09245361
-4.917616	>and	-0.08720851
-4.917616	>beginning	-0.04576056
-4.917616	>broken	-0.09245886
-4.917616	>chewed	-0.08573401
-4.917616	>con	-0.04576056
-4.917616	>definitely	-0.08228107
-4.917616	>food	-0.04576056
-4.917616	>leche	-0.04576056
-4.917616	>looooong	-0.04576056
-4.917616	>mom	-0.04576056
-4.917616	>never	-0.0924641
-4.917616	>not	-0.09245361
-4.917616	>responding	-0.08618701
-4.917616	>sigh	-0.04576056
-4.917616	>so	-0.09189672
-4.616586	>tasty	-0.0451404
-4.917616	>volcanologists	-0.04576056
-4.917616	>wat	-0.04576056
-4.917616	>whooshed	-0.04576056
-4.917616	>~~Jesus	-0.0924641
-3.638862	?	-0.6137635
-4.917616	?!	-0.04576056
-4.440495	??	-0.5719207
-4.917616	???	-0.04576056
-4.917616	@edit:	-0.09100737
-3.031125	A	-0.1462943
-4.616586	A+	-0.2852554
-4.917616	A+++++	-0.09107585
-4.917616	A+?	-0.08715005
-4.917616	A-1	-0.09245886
-4.616586	A1	-0.09241684
-4.917616	A:	-0.09189672
-4.917616	AAAAH	-0.09245361
-4.917616	AAGH,	-0.09245361
-4.917616	ABOUT	-0.0924641
-4.917616	ABOUT?!	-0.04576056
-4.917616	ABSOLUTELY...	-0.04576056
-4.917616	AD	-0.09245886
-4.917616	ADOPTED	-0.04576056
-4.917616	AGAIN!!	-0.04576056
-4.917616	AGAIN...	-0.0924641
-4.917616	AHA	-0.04576056
-4.917616	AIM	-0.09121276
-4.917616	AIM,	-0.09245886
-4.917616	AIN'T	-0.09245361
-4.917616	AKA	-0.09245886
-4.315556	ALL	-0.09244312
-4.917616	ALLOWS	-0.0924641
-4.917616	ALREADY	-0.0924641
-4.440495	AM	-0.09245361
-4.440495	AMA	-0.08661825
-4.440495	AMA.	-0.1899602
-4.917616	AMA.....	-0.04576056
-4.917616	AMAZING	-0.04576056
-4.917616	AMAZING!	-0.09245886
-4.917616	AMAZING.	-0.04576056
-4.917616	AN	-0.0924641
-4.917616	ANAAAAAAND	-0.09219101
-4.014526	AND	-0.0921805
-4.440495	ANY	-0.2366778
-4.917616	AR	-0.0924326
-4.014526	ARE	-0.09070172
-4.616586	AS	-0.09244834
-4.616586	ASAP.	-0.2852554
-4.917616	ASS*	-0.091923
-4.917616	ASSWARDS	-0.0924641
-4.616586	AT	-0.09233807
-4.917616	AW	-0.08720851
-4.917616	AWOBALIBAWIBWIBWOB	-0.04576056
-4.917616	Abnormal	-0.0924641
-4.917616	About	-0.08413675
-4.616586	Absolutely	-0.09224878
-4.616586	Absolute…:	-0.09245359
-4.917616	According	-0.08618701
-4.917616	Activia	-0.0923906
-3.713496	Actually	-0.1441378
-4.218646	Actually,	-0.07638274
-3.741524	Add	-0.1628418
-4.917616	Adding	-0.0924641
-4.917616	Address	-0.09073336
-4.139464	After	-0.08213054
-4.917616	Again,	-0.09149174
-4.440495	Age	-0.2313423
-4.616586	Agreed	-0.04270392
-4.440495	Ah	-0.09199134
-4.315556	Ah,	-0.1944615
-4.917616	Ahh	-0.09212796
-4.917616	Ahh,	-0.0924641
-4.917616	Ain't	-0.09184414
-4.917616	Airhead	-0.0924641
-4.917616	Aladeen.	-0.04576056
-4.917616	Alaska?	-0.04576056
-4.917616	Albertsons	-0.0924641
-4.917616	Alert"	-0.04576056
-4.917616	Alert.	-0.04576056
-4.917616	Alfredo	-0.09204914
-3.687167	All	-0.2129622
-4.917616	Almond	-0.09218576
-4.616586	Almost	-0.08903271
-4.917616	Already	-0.09194403
-4.917616	Alright	-0.08927608
-4.917616	Alright,	-0.09219101
-3.662343	Also	-0.06794369
-3.638862	Also,	-0.09618324
-4.917616	Also...this	-0.09187043
-4.616586	Also:	-0.09171267
-4.440495	Although	-0.0793311
-4.616586	Altoids	-0.09161273
-4.616586	Always	-0.09178104
-3.803672	Am	-0.2629212
-4.917616	Amazing	-0.09242211
-4.917616	Amber,	-0.09231182
-4.917616	Amen!	-0.04576056
-4.917616	America	-0.09186517
-4.917616	America,	-0.09236959
-4.616586	America.	-0.09218049
-3.771488	American	-0.08731477
-4.917616	American's	-0.0924641
-4.440495	American,	-0.09062792
-4.917616	American.	-0.04576056
-4.917616	Americanized	-0.09245361
-4.616586	Americans	-0.08559
-4.917616	Americas	-0.08618701
-4.917616	Amiright	-0.0924641
-4.917616	Amish	-0.09244835
-4.917616	Among	-0.08228107
-4.440495	An	-0.09244836
-4.917616	Anchovies.	-0.04576056
-2.92639	And	-0.1698104
-4.315556	And,	-0.09182312
-4.917616	Andouille	-0.09239585
-4.917616	Angkor	-0.0924641
-4.917616	Animal	-0.0924641
-4.917616	Annnnnd....	-0.0924641
-4.917616	Another	-0.09236959
-4.917616	Antimatter?	-0.04576056
-3.803672	Any	-0.1163315
-4.616586	Anyone	-0.09187042
-3.963373	Anything	-0.07995759
-4.917616	Anything,	-0.08793593
-4.616586	Anytime,	-0.09245884
-4.218646	Anyway,	-0.08932897
-4.917616	Aoesph	-0.08707032
-4.139464	Apparently	-0.1396699
-3.917616	Apple	-0.1476107
-4.440495	Apples	-0.08563269
-4.616586	Applesauce	-0.2852554
-4.917616	Applesauce.	-0.04576056
-4.917616	Apps	-0.09237485
-4.917616	Aprus	-0.04576056
-4.917616	Arabic	-0.09234859
-4.917616	Arancini	-0.08720851
-4.917616	Archive	-0.09245886
-3.315556	Are	-0.7220131
-4.440495	Aren't	-0.09192827
-4.917616	Armor	-0.0924641
-4.917616	Around	-0.08413675
-4.616586	Arrahende!!	-0.3319537
-4.917616	Arrogant	-0.0924641
-4.315556	Arroz	-0.4147894
-4.917616	Arsenic.	-0.04576056
-4.917616	Artificial	-0.0924641
-4.917616	Artificially	-0.09186517
-3.386137	As	-0.4093309
-4.917616	Ashes	-0.09150752
-4.917616	Asia)	-0.04576056
-4.917616	Asia,	-0.09245361
-4.917616	Asia.)	-0.04576056
-3.519676	Asian	-0.0997376
-4.917616	Asian's	-0.0923906
-4.616586	Asian,	-0.08571799
-4.072518	Asian.	-0.2825456
-4.616586	Asian..	-0.04535111
-4.917616	Asian...if	-0.08927608
-4.616586	Asian?	-0.04556172
-4.440495	Asians	-0.2348152
-4.315556	Ask	-0.3200687
-4.072518	AskReddit	-0.5411614
-4.917616	AskReddit's	-0.09245361
-4.917616	AskReddit,	-0.09060683
-4.917616	AskReddit.	-0.090902
-4.917616	Askreddit	-0.08707032
-4.917616	Askreddit/Top.	-0.04576056
-4.917616	Asparagus	-0.04576056
-4.917616	Ass	-0.04576056
-4.917616	Ass.	-0.04576056
-4.616586	Assuming	-0.09181258
-3.741524	At	-0.2559567
-4.616586	Ate	-0.07988809
-4.917616	Atheist,	-0.09220677
-4.917616	Atlanta	-0.0924641
-4.917616	Atlantic	-0.0924641
-4.917616	Aunt	-0.0924641
-4.616586	Australia	-0.03989829
-4.616586	Australia,	-0.09245359
-4.917616	Australia?	-0.0924326
-4.917616	Australian	-0.0924641
-4.917616	Australians	-0.09210169
-4.917616	Austrian	-0.0924641
-4.917616	Available	-0.08885276
-4.917616	Avalo	-0.04576056
-4.616586	Avocado	-0.09087037
-4.917616	Avocados.	-0.09230658
-4.917616	Avocados...	-0.04576056
-4.917616	Aw	-0.09234859
-4.315556	Awesome	-0.1929523
-4.917616	Awesome!	-0.09221728
-4.917616	Awesome,	-0.08950873
-4.616586	Aww	-0.09060154
-4.616586	Aww,	-0.08237241
-4.917616	Ayo	-0.0924641
-4.917616	Ayo...	-0.0827162
-4.917616	Ayy	-0.09240635
-4.616586	Ayyy	-0.3319012
-4.616586	Ayyyyyy	-0.2852554
-4.616586	B	-0.09102315
-4.917616	B-baka!	-0.04576056
-4.917616	B.S.,	-0.09184414
-4.917616	B:	-0.0827162
-4.616586	BACK	-0.0457547
-4.917616	BAM,	-0.09220677
-4.917616	BAR	-0.0924641
-4.072518	BBQ	-0.2472576
-4.917616	BBQ.	-0.09203338
-4.917616	BBS.	-0.04576056
-4.917616	BEANS~	-0.04576056
-4.917616	BEEN	-0.0924641
-4.917616	BEER	-0.04576056
-4.917616	BELIEVE*	-0.04576056
-4.917616	BEST	-0.09180208
-4.917616	BETTER?	-0.04576056
-4.616586	BILLY	-0.08270545
-4.917616	BLEGH	-0.04576056
-4.917616	BLOOD	-0.0924641
-4.917616	BOIL	-0.08228107
-4.917616	BOMB.	-0.04576056
-4.917616	BOOM	-0.0924641
-4.917616	BOY	-0.09245361
-4.917616	BRB,	-0.09229607
-4.917616	BRETHREN,	-0.09245886
-4.917616	BRO?!	-0.04576056
-4.917616	BROCK	-0.0924641
-4.616586	BS.	-0.03488597
-4.917616	BSing	-0.09233283
-4.917616	BTW	-0.0827162
-4.917616	BUBBLEGUM!!!!!	-0.04576056
-4.218646	BUT	-0.09221204
-4.917616	BUT...	-0.09220152
-4.917616	BUTLER?	-0.04576056
-4.917616	BUTTCRACK	-0.09245886
-4.917616	BUYING	-0.0924641
-4.616586	BY	-0.09233807
-4.616586	Babies	-0.2852554
-4.917616	Babies.	-0.04576056
-4.218646	Baby	-0.125508
-4.917616	Baby's	-0.09245361
-4.917616	Baby.	-0.04576056
-4.440495	Back	-0.2330822
-3.917616	Bacon	-0.252168
-4.917616	Bacon's	-0.09240635
-4.917616	Bacon,	-0.09239585
-4.917616	Bacon.	-0.04576056
-4.917616	Bacon:	-0.09183363
-4.917616	Baconator.	-0.09214373
-4.917616	Bad	-0.04576056
-4.917616	Bad:	-0.0922593
-4.917616	Bagels	-0.04576056
-4.917616	Bagels?	-0.09227506
-4.917616	Bagoong	-0.08720851
-4.917616	Bahahahaha	-0.04576056
-4.917616	Bake	-0.08413675
-4.072518	Baked	-0.09220152
-4.917616	Bakers	-0.09243786
-4.917616	Baklava	-0.04576056
-4.917616	Balut	-0.04576056
-4.917616	Bam	-0.09080187
-4.917616	Bambu,	-0.08927608
-4.014526	Banana	-0.08123918
-4.917616	Banana.	-0.04576056
-4.917616	Banana:	-0.09230132
-3.963373	Bananas	-0.3311514
-4.917616	Bananas)	-0.04576056
-4.917616	Bananas.	-0.04576056
-4.917616	Bannana	-0.08573401
-4.917616	Banned	-0.08948229
-4.917616	Bar	-0.04576056
-4.917616	Barbecue	-0.09204914
-4.917616	Bark.	-0.04576056
-4.315556	Based	-0.08962501
-4.917616	Basically	-0.09235384
-4.917616	Basically,	-0.0917863
-4.917616	Basmati	-0.09198608
-4.917616	Bastard	-0.0924326
-4.917616	Batsu	-0.0924641
-4.917616	Battered	-0.0924641
-4.917616	Baxter!	-0.090902
-4.917616	Bbq	-0.09204914
-4.014526	Be	-0.1387917
-4.218646	Beans	-0.426436
-4.917616	Bears	-0.04576056
-4.917616	Beat	-0.0913128
-4.917616	Beats	-0.08228107
-3.713496	Because	-0.1458234
-4.917616	Beef	-0.09245886
-4.917616	Been	-0.09235384
-4.616586	Beenie	-0.3319537
-4.917616	Beer	-0.09143911
-4.072518	Beer.	-0.5008349
-4.917616	Beets	-0.08573401
-4.917616	Before	-0.08715005
-4.616586	Believe	-0.3318959
-4.917616	Bell	-0.09243786
-4.917616	Bell,	-0.09185466
-4.917616	Bellies,	-0.09043279
-4.917616	Belly	-0.09244835
-4.917616	Belly,	-0.09060683
-4.616586	Ben	-0.08568066
-4.616586	Ben.	-0.04554418
-4.616586	Bertie	-0.09245884
-4.917616	Berttie	-0.0924641
-3.741524	Best	-0.2192652
-4.917616	Best:	-0.0924641
-4.616586	Better	-0.09127066
-4.917616	Beyond	-0.08228107
-4.315556	Big	-0.1958552
-4.917616	Biko	-0.08948229
-4.917616	Billy.	-0.04576056
-4.440495	Birthday	-0.09220152
-4.917616	Biscuits	-0.08573401
-4.917616	Bit	-0.09229082
-4.917616	Bit-	-0.04576056
-4.616586	Bitch	-0.08713941
-4.917616	Bitches!	-0.04576056
-4.917616	Bites"	-0.09202813
-3.963373	Black	-0.1352785
-4.917616	Blah	-0.0924641
-4.917616	Blasphemy.	-0.09244835
-4.917616	Bleach.	-0.04576056
-4.917616	Bleh...	-0.04576056
-4.917616	Bless	-0.0923801
-4.917616	Blew	-0.0924641
-4.917616	Blizzard	-0.04576056
-4.917616	Blood	-0.09222779
-4.440495	Blue	-0.2362839
-4.616586	Blueberries	-0.09143384
-4.917616	Blueberry	-0.0924011
-4.440495	Bob	-0.6186138
-4.917616	Bob's	-0.0924641
-4.616586	Boil	-0.09240109
-4.315556	Boiled	-0.09118644
-4.917616	Bok	-0.0924641
-4.917616	Bologne	-0.04576056
-4.917616	Bolonese.	-0.04576056
-4.917616	Bomb	-0.09143911
-4.917616	Bomb:	-0.09183363
-4.917616	Boneless	-0.09237485
-4.917616	Bonus	-0.09199134
-4.616586	Boo	-0.04436104
-4.917616	Boo-urns?	-0.04576056
-4.917616	Boogers.	-0.04576056
-2.900583	Boom	-2.019822
-4.917616	Boom,	-0.09224354
-4.917616	Boom.	-0.09196506
-4.917616	Booty	-0.0924011
-4.917616	Born	-0.08573401
-4.917616	Bosporus?	-0.04576056
-4.917616	Bostonians.	-0.04576056
-4.917616	Both...?	-0.04576056
-4.917616	Both?	-0.04576056
-4.917616	Bots	-0.04576056
-4.917616	Botts,	-0.0827162
-4.917616	Boudin	-0.0924641
-4.917616	Bourbon.	-0.04576056
-4.917616	Bowl	-0.0924641
-4.917616	Boy	-0.04576056
-4.917616	Boy"	-0.04576056
-4.616586	Boyardee	-0.09231706
-4.917616	Boyfriend's	-0.0924641
-4.917616	Boysenberry	-0.09245886
-4.917616	Brazil's	-0.0924641
-4.917616	Brazilian	-0.08573401
-4.616586	Bread	-0.2852554
-4.917616	Breaking	-0.0924641
-4.440495	Bring	-0.2267522
-4.917616	British	-0.0924641
-4.917616	Brits	-0.08573401
-4.917616	Bro?	-0.0924641
-4.917616	Broccoli	-0.04576056
-4.917616	Broke	-0.09127595
-4.917616	Bronx.	-0.04576056
-4.917616	Bros	-0.0924641
-4.917616	Bros:	-0.09179682
-4.139464	Brown	-0.2307465
-4.917616	Brown?	-0.04576056
-4.917616	Brown](https://www.youtube.com/watch?v=-TxHInkyNpg)	-0.04576056
-4.917616	Brownie	-0.09143911
-4.917616	Brownies	-0.04576056
-4.917616	Brownies.	-0.04576056
-4.917616	Brownies....	-0.0827162
-4.616586	Brownies?	-0.2852554
-4.440495	Browsing	-0.08922848
-4.917616	Brroooooooh!	-0.04576056
-4.917616	Bruh	-0.08715005
-4.440495	Btw	-0.0863947
-4.139464	Bubble	-0.3867966
-4.917616	Bucket	-0.0924326
-4.917616	Buddy	-0.0827162
-4.917616	Buffalo	-0.09245886
-4.917616	Bull	-0.09229607
-4.917616	Bull-shit	-0.04576056
-4.616586	Burger	-0.08694803
-4.917616	Burger,	-0.09245361
-4.917616	Burgers!	-0.0924641
-4.917616	Burn	-0.08228107
-4.917616	Burning	-0.08720851
-4.917616	Burnt	-0.09111271
-4.917616	Burritos	-0.09236434
-4.917616	Busch	-0.09245886
-3.009131	But	-0.19657
-4.315556	But,	-0.08136102
-4.917616	But...	-0.09060683
-4.917616	Butler	-0.04576056
-3.963373	Butter	-0.3427807
-4.917616	Butter!	-0.04576056
-4.139464	Butter.	-0.3943305
-4.917616	Butterscotch	-0.09226456
-4.616586	Buttery	-0.09241684
-4.440495	Buy	-0.2277449
-4.917616	Buying	-0.08413675
-4.139464	By	-0.2615027
-4.616586	C	-0.08719787
-4.917616	C'mon	-0.0924641
-4.917616	C)	-0.08573401
-4.917616	C:	-0.04576056
-4.917616	CAKE	-0.09107585
-4.616586	CALE	-0.3319064
-4.917616	CAME	-0.0924641
-4.616586	CAN'T	-0.09243784
-4.616586	CARROT	-0.3319537
-4.917616	CHEAP	-0.0827162
-4.917616	CHEESY	-0.0924641
-4.917616	CHICKEN	-0.0924641
-4.440495	CHOCOLATE	-0.08270547
-4.917616	CHOCOLATE**	-0.04576056
-4.917616	CHRIST	-0.09244311
-4.917616	CLASSES	-0.0924641
-4.917616	COCA	-0.0924641
-4.917616	COD	-0.08573401
-4.917616	COLA?!	-0.04576056
-4.917616	COMMENTS	-0.0924641
-4.917616	CONFUSED	-0.04576056
-4.917616	COOKING	-0.0924641
-4.917616	COOMENTIN	-0.04576056
-4.917616	COULD	-0.09027452
-4.917616	COUNCIL	-0.09242735
-4.917616	CRAZY	-0.09245361
-4.917616	Cabbage.	-0.04576056
-4.917616	Cajun	-0.0924641
-4.917616	Cajuny.	-0.04576056
-4.139464	Cake	-0.2248496
-4.440495	Cake.	-0.1899894
-4.917616	Cake...	-0.04576056
-4.917616	Cake:	-0.0924641
-4.917616	Cake](http://www.travelfish.org/blogs/singapore/wp-content/uploads/2011/02/carrotcake_1-Large.jpg)	-0.08720851
-4.917616	California	-0.08573401
-4.440495	California.	-0.1886251
-4.917616	Californian	-0.09242735
-4.616586	Call	-0.08829653
-4.917616	Called	-0.0924641
-4.917616	Calling	-0.09245886
-4.917616	Calm	-0.09233283
-4.440495	Calories	-0.1829938
-4.917616	Cambodian	-0.09231707
-4.218646	Came	-0.3220241
-4.917616	Camera	-0.0924641
-4.917616	Camera.	-0.04576056
-4.917616	Cameroonian	-0.09242735
-4.917616	Campbell's	-0.09245886
-3.304832	Can	-0.5232597
-3.917616	Can't	-0.238795
-4.616586	Can't,	-0.08870979
-4.917616	Can't.	-0.0924641
-4.917616	Canada	-0.04576056
-4.917616	Canadian,	-0.08950873
-4.616586	Candies	-0.3319537
-4.917616	Candle	-0.0924641
-4.917616	Candlejack	-0.08885276
-4.917616	Candlejack?	-0.0827162
-4.315556	Candy	-0.3705714
-4.616586	Candy.	-0.2852554
-4.218646	Canned	-0.09229608
-4.917616	Cannot	-0.09231182
-4.917616	Cant	-0.0924011
-4.917616	Canteloupe	-0.04576056
-4.917616	Capn	-0.0924116
-4.218646	Captain	-0.08612309
-4.616586	Caramel	-0.04550908
-4.616586	Caramel!	-0.2852554
-4.616586	Carbonara	-0.09227505
-4.917616	Carbs,	-0.09244835
-4.917616	Cardamom	-0.04576056
-4.917616	Carefully	-0.09245886
-4.917616	Carmel	-0.09245886
-4.917616	Carmel.	-0.04576056
-4.917616	Carne,	-0.09186517
-3.963373	Carolina	-0.3656652
-4.072518	Carrot	-0.3303701
-4.917616	Carrots	-0.04576056
-4.917616	Carry	-0.09243786
-4.917616	Cashew	-0.0924641
-4.917616	Cashews	-0.04576056
-4.917616	Cashews.	-0.09245361
-4.917616	Casserole.	-0.09212271
-4.917616	Casu	-0.0924641
-4.440495	Cat	-0.04499403
-4.917616	Cat-soup?	-0.09230658
-4.917616	Catchup	-0.04576056
-4.917616	Catfish	-0.09143911
-4.917616	Catfish:	-0.09232758
-4.616586	Catholic	-0.09042223
-4.917616	Catholicism,	-0.09195454
-4.616586	Cats	-0.04413224
-4.917616	Catsup	-0.09230658
-4.440495	Cause	-0.07104348
-4.917616	Caviar.	-0.09179682
-4.917616	Celery	-0.0924326
-4.917616	Cena	-0.04576056
-4.917616	Cena,	-0.09244835
-4.917616	Central	-0.0924641
-4.917616	Century	-0.09244835
-3.838434	Cereal	-0.3520895
-4.616586	Cereal.	-0.2852554
-4.917616	Cereal?	-0.04576056
-4.616586	Cereals.	-0.04571377
-4.440495	Chair	-0.6139899
-4.917616	Chair:	-0.09073336
-4.218646	Champorado	-0.1186162
-4.917616	Champorado,	-0.0827162
-4.917616	Changes	-0.08228107
-4.917616	Channel!!	-0.04576056
-4.917616	Channel,	-0.09121276
-4.917616	Chapstick.	-0.0827162
-4.917616	Charleston	-0.0924641
-4.440495	Charms	-0.5719207
-4.917616	Charms/Cocoa	-0.09245361
-4.917616	Cheapest,	-0.0924641
-4.917616	Cheating!	-0.08830184
-4.139464	Check	-0.1408638
-4.917616	Checking	-0.09231182
-4.917616	Cheeky	-0.0924641
-4.616586	Cheerios	-0.04436104
-4.917616	Cheerios!	-0.04576056
-4.917616	Cheerios.	-0.04576056
-3.713496	Cheese	-0.2059508
-4.917616	Cheese!	-0.04576056
-4.917616	Cheese,	-0.09245886
-4.917616	Cheese.	-0.09158118
-4.917616	Cheese?	-0.04576056
-4.917616	Cheeseburger	-0.04576056
-4.917616	Cheeseburgers.	-0.04576056
-4.315556	Cheesecake	-0.3701268
-4.616586	Cheesecake.	-0.2852554
-4.139464	Cheetos	-0.1769513
-4.616586	Cheetos.	-0.2852554
-4.917616	Cheez-its	-0.04576056
-4.616586	Chef	-0.3319537
-4.315556	Cherry	-0.1958026
-4.917616	Cheryl.	-0.04576056
-4.917616	Chew	-0.04576056
-4.139464	Chewing	-0.7093967
-4.917616	Chewy,	-0.0915654
-4.315556	Chicken	-0.0382062
-4.616586	Chicken.	-0.2852554
-4.917616	Childhood	-0.09245361
-4.917616	Children	-0.04576056
-4.014526	Chili	-0.3598995
-4.917616	Chilli!	-0.04576056
-4.917616	China).	-0.04576056
-3.963373	Chinese	-0.08407254
-4.917616	Chips	-0.04576056
-4.917616	Chitlins	-0.04576056
-4.917616	Chocholate	-0.04576056
-4.917616	Choco	-0.09245886
-3.139465	Chocolate	-0.2859136
-4.917616	Chocolate!	-0.04576056
-4.616586	Chocolate,	-0.09203862
-4.616586	Chocolate-covered	-0.09244309
-4.139464	Chocolate.	-0.662553
-4.917616	Chocolate?	-0.09237485
-4.917616	Cholestericious!	-0.04576056
-4.917616	Chop	-0.09080187
-4.917616	Chopped	-0.09179156
-4.218646	Christ	-0.08825944
-4.440495	Christ,	-0.08348871
-4.616586	Christ.	-0.2852554
-4.917616	Christ](http://img.shockblast.net/2014/03/Luis-Quiles-illustrations-ShockBlast-40.jpg)	-0.0924641
-4.917616	Christian.	-0.0924641
-4.917616	Christmas	-0.09243786
-4.917616	Christmas.	-0.04576056
-4.917616	Chuck	-0.0924641
-4.917616	Chuck,	-0.09245886
-4.917616	Chuck...	-0.0827162
-4.917616	Chuck:	-0.09237485
-3.741524	Cinnamon	-0.2820622
-4.917616	Cinnamon.	-0.04576056
-4.917616	Circus	-0.0924641
-4.917616	Citric	-0.09244835
-4.917616	City,	-0.09228031
-4.917616	Clams	-0.08573401
-4.917616	Classic	-0.0924641
-4.917616	Clearly	-0.0920071
-4.917616	Click	-0.0897254
-4.917616	Clicked	-0.08927608
-4.917616	Clitoris	-0.08782981
-4.917616	Clitoros	-0.0923801
-4.917616	Close	-0.09244835
-4.917616	CoD	-0.09245361
-4.072518	Coca	-0.1484043
-4.616586	Coca-Cola	-0.09198606
-4.917616	Coca-Cola...	-0.09225405
-4.616586	Cocaine	-0.03989829
-4.917616	Cocaine.	-0.0827162
-4.616586	Coco	-0.3319484
-4.616586	Cocoa	-0.3319484
-4.139464	Coconut	-0.2365833
-3.713496	Coffee	-0.6270279
-4.917616	Coffee!	-0.04576056
-4.917616	Coffee,	-0.09197031
-4.315556	Coffee.	-0.3681699
-4.917616	Cogitotoro,	-0.09060683
-4.440495	Coke	-0.1899894
-4.917616	Coke!	-0.04576056
-4.917616	Cola	-0.09220677
-4.917616	Cola,	-0.09244835
-4.917616	Cola.	-0.0924011
-4.917616	Colambia?	-0.04576056
-4.014526	Cold	-0.2203438
-4.917616	Coleslaw.	-0.0924641
-4.315556	Colombia	-0.0873626
-4.917616	Colombia.	-0.04576056
-4.218646	Colombian	-0.08869392
-4.917616	Columbia.	-0.04576056
-4.917616	Columbian	-0.09245886
-4.917616	Columbus	-0.09107585
-4.917616	Coma.	-0.04576056
-4.917616	Combo	-0.08830184
-4.014526	Come	-0.4441493
-4.917616	Comment	-0.09242211
-4.917616	Commentates	-0.09100737
-4.616586	Commenting	-0.0893924
-4.917616	Completely	-0.0924641
-4.616586	Condensed	-0.09214897
-4.917616	Condi?	-0.04576056
-4.917616	Condoleezza	-0.04576056
-4.917616	Condolezza	-0.09157592
-4.616586	Confirmed	-0.09072807
-4.616586	Congrats	-0.04555003
-4.917616	Congrats,	-0.09217525
-4.917616	Congratulations,	-0.0827162
-4.917616	Consider	-0.0924641
-4.616586	Considering	-0.09059627
-4.917616	Continued...	-0.04576056
-4.440495	Cook	-0.09099157
-4.917616	Cook,	-0.09245361
-4.440495	Cooked	-0.09136017
-4.072518	Cookie	-0.1661431
-4.917616	Cookies.	-0.04576056
-4.440495	Cooking	-0.2366726
-4.917616	Cookoff	-0.09211746
-4.072518	Cool	-0.1940123
-4.917616	Cool!	-0.04576056
-4.014526	Corn	-0.2456704
-4.917616	Corned	-0.09241685
-4.917616	Correct	-0.09245361
-4.917616	Corsica,	-0.09073336
-4.917616	Cosmic	-0.0924641
-4.072518	Cottage	-0.4321671
-3.876223	Cotton	-0.330902
-4.917616	Couches	-0.09100737
-4.917616	Cough.	-0.04576056
-4.440495	Could	-0.2215101
-4.917616	Could've	-0.09245361
-4.917616	Cous	-0.09245361
-4.917616	Cous-Cous.	-0.04576056
-4.917616	Cover	-0.08573401
-4.315556	Cow	-0.09240111
-4.917616	Crack	-0.0924641
-4.917616	Crack!	-0.0924641
-4.917616	Crackers	-0.04576056
-4.440495	Crackle!	-0.04574303
-4.917616	Craisins	-0.04576056
-4.917616	Cranberries!	-0.04576056
-4.917616	Cranberry	-0.09121276
-4.917616	Crayons	-0.04576056
-4.917616	Crazy	-0.09244311
-3.963373	Cream	-0.08185642
-4.440495	Cream.	-0.5719207
-4.917616	Cream?	-0.09231707
-4.616586	Creamed	-0.09238008
-4.917616	Creme	-0.0924641
-4.917616	Crepes.	-0.04576056
-4.917616	Crim	-0.0919598
-4.917616	Crimson	-0.09245361
-4.917616	Crispies!	-0.04576056
-4.917616	Crisps	-0.09242211
-4.917616	Crisps*	-0.04576056
-4.917616	Crispy	-0.09157592
-4.917616	Crispys	-0.0924641
-4.917616	Croutons	-0.04576056
-4.917616	Croutons,	-0.09073336
-4.917616	Crumbled	-0.09242211
-4.218646	Crunch	-0.1204695
-4.917616	Crunch.	-0.04576056
-4.616586	Crushed	-0.3319537
-4.440495	Crusty	-0.2366831
-4.917616	Ctrl+f	-0.0924641
-4.917616	Cubans	-0.09050664
-4.917616	Cuck	-0.04576056
-4.917616	Cum	-0.08782981
-4.917616	Cum.	-0.04576056
-4.917616	Cum:	-0.0924116
-4.440495	Cup	-0.1839789
-4.917616	Curd	-0.08793593
-4.917616	Currently?	-0.09123909
-4.315556	Curry	-0.04563778
-4.917616	Curry"	-0.09202813
-4.917616	Curry.	-0.0924641
-4.315556	Custard	-0.1438453
-4.917616	Custard!	-0.04576056
-4.917616	Custard-filled	-0.0924641
-4.917616	Custard.	-0.04576056
-4.917616	Customs	-0.08885276
-4.917616	Cute	-0.09107585
-4.917616	Czech	-0.0924641
-4.917616	D	-0.09245886
-4.917616	D&D	-0.0924641
-4.917616	D'aw,	-0.0923801
-4.917616	D-did	-0.0827162
-4.917616	D2	-0.04576056
-4.917616	D:	-0.04576056
-4.616586	DAMN	-0.09171793
-4.917616	DAMN*	-0.04576056
-4.917616	DARN	-0.09245886
-4.917616	DATE	-0.0924641
-4.917616	DBZ!	-0.04576056
-4.917616	DEAL	-0.09245361
-4.616586	DEEZ	-0.3319537
-4.917616	DELICIOUS	-0.09149174
-4.917616	DESIGNER,	-0.08885276
-4.917616	DESSERTS	-0.09242735
-4.917616	DICK	-0.04576056
-4.917616	DID	-0.09245886
-4.917616	DINO,	-0.09244835
-4.315556	DINOSAUR.](https://www.youtube.com/watch?v=vgiDcJi534Y)	-0.3681699
-4.917616	DISGUSTING	-0.09245886
-4.917616	DISTUSTING	-0.04576056
-3.876223	DO	-0.2999477
-4.917616	DO!	-0.04576056
-4.917616	DOES	-0.09244835
-4.616586	DOESN'T	-0.09192824
-4.616586	DON'T	-0.09243259
-4.917616	DONE!	-0.09245886
-4.917616	DONT	-0.0924641
-4.917616	DO_U_EVEN_SPAGHETTI	-0.09230658
-4.917616	DO_U_EVN_EDIT?	-0.04576056
-4.917616	DO_U_EVN_RICE.	-0.04576056
-4.917616	DO_U_EVN_SPAGHETTI	-0.09042752
-4.917616	DO_U_EVN_SPAGHETTI.	-0.04576056
-4.917616	DO_U_EVN_SPAGHETTI?	-0.04576056
-4.917616	DROP	-0.09245886
-4.917616	DURING	-0.09241685
-4.917616	DYNAMITE	-0.04576056
-4.917616	Dad](https://www.youtube.com/watch?v=3PGV1Xofhcg)	-0.04576056
-4.917616	Dahl.	-0.04576056
-4.917616	Dammit.	-0.09136017
-3.838434	Damn	-0.0195668
-4.218646	Damn,	-0.08275916
-4.315556	Damn.	-0.04422614
-4.616586	Dang	-0.3307708
-4.616586	Dank	-0.3319537
-4.917616	Dare	-0.0827162
-4.440495	Dark	-0.09242736
-4.917616	Darude	-0.09211746
-4.917616	Dat	-0.09233809
-4.917616	Date	-0.0924641
-4.917616	Dave's	-0.08720851
-4.917616	Dawg	-0.08715005
-4.917616	Dayum.	-0.09245886
-4.917616	Dead	-0.09192826
-4.440495	Dear	-0.09240635
-4.440495	Deep	-0.2364625
-4.917616	Deez	-0.09244835
-4.315556	Definitely	-0.1852352
-4.917616	Delecious	-0.04576056
-4.917616	Deli	-0.09234859
-4.616586	Delicious	-0.0457547
-4.917616	Delicious!	-0.09215423
-4.315556	Delicious.	-0.3706065
-4.917616	Delightfully	-0.0924641
-4.917616	Deliver	-0.08793593
-4.917616	Deliver.	-0.04576056
-4.917616	Denmark	-0.08720851
-4.917616	Denmark.	-0.04576056
-4.616586	Depending	-0.3292202
-4.072518	Depends	-0.3176283
-4.917616	Derishous	-0.0924641
-4.616586	Dew	-0.08569667
-4.917616	Dewritos	-0.04576056
-4.917616	DiGiorno???	-0.04576056
-4.917616	Diamond:	-0.09183363
-4.917616	Diarrhea	-0.04576056
-4.917616	Diary,	-0.04576056
-4.440495	Dick	-0.1848258
-4.917616	Dick.	-0.04576056
-4.917616	Dick:	-0.0923906
-3.638862	Did	-0.5031348
-4.917616	Did...	-0.09236959
-4.218646	Didn't	-0.1706422
-4.917616	Died	-0.04576056
-4.616586	Diet	-0.08792
-4.917616	Dijon	-0.09238534
-4.616586	Dildomace	-0.2852554
-4.917616	Diniguan	-0.08573401
-4.917616	Dinner	-0.0924641
-4.917616	Dinosaur	-0.09202813
-4.917616	Dinuguan	-0.08885276
-4.917616	Dip	-0.08228107
-4.917616	Disagree.	-0.09242735
-4.917616	Disagreement!	-0.09219101
-4.917616	Disclaimer:	-0.090902
-4.917616	Disembodied	-0.0924641
-4.917616	Disgusting!	-0.04576056
-4.917616	Disgusting.	-0.09196506
-4.917616	Distance.	-0.04576056
-4.917616	Distrusting?	-0.09239585
-4.917616	Distust.	-0.04576056
-4.917616	Distusting	-0.09245886
-4.917616	Distusting*	-0.04576056
-4.917616	Distusting?	-0.0827162
-4.917616	Divide	-0.09202813
-3.236375	Do	-0.4510652
-4.917616	Doctor	-0.0924641
-3.771488	Does	-0.2128792
-4.072518	Doesn't	-0.1414908
-4.315556	Dog	-0.09175476
-4.616586	Dolphin	-0.09245884
-4.917616	Domestic	-0.0924641
-4.917616	Dominos?	-0.09244311
-3.426254	Don't	-0.1977254
-4.917616	Donde	-0.04576056
-4.917616	Done	-0.09221728
-4.616586	Done.	-0.04439036
-4.616586	Dont	-0.09244309
-4.917616	Donut	-0.09222779
-4.917616	Donut!?	-0.09226456
-4.440495	Donuts	-0.5719207
-4.917616	Donuts.	-0.04576056
-4.917616	Doo	-0.09245886
-4.218646	Doritos	-0.1081636
-4.917616	Doritos,	-0.09121276
-4.917616	Doritos.	-0.09203338
-4.917616	Double	-0.09213322
-4.616586	Dough	-0.04573716
-4.917616	Doughnuts	-0.04576056
-4.917616	Down	-0.08228107
-4.917616	Down*.	-0.04576056
-4.917616	Download	-0.09244835
-4.917616	Download.	-0.09245886
-4.917616	Downrange,	-0.0924641
-4.917616	Downvote!"	-0.04576056
-4.917616	Downvoted	-0.08948229
-4.917616	Doxxing	-0.08715005
-4.616586	Dr	-0.3319117
-4.917616	Dr.	-0.09237485
-4.917616	Dr.pepper	-0.09223304
-4.917616	Dressing.	-0.04576056
-4.440495	Dried	-0.09241161
-4.616586	Drunk	-0.09128119
-4.616586	Drunken	-0.09242734
-4.139464	Dry	-0.08727227
-4.616586	Duck	-0.0922015
-4.072518	Dude	-0.07603391
-4.139464	Dude,	-0.0692638
-4.616586	Dude.	-0.09152856
-4.917616	Duh!	-0.04576056
-4.917616	Dumplings.	-0.0827162
-4.917616	Dunno	-0.091618
-4.917616	Duo	-0.0924641
-4.014526	Durian	-0.3969499
-4.616586	Durian.	-0.2852554
-4.917616	Durian...	-0.0924011
-4.917616	Durians	-0.04576056
-4.917616	Dustin.	-0.0924641
-4.616586	Dutch	-0.09242209
-4.616586	E	-0.09204388
-4.917616	EACH	-0.0924641
-4.440495	EAT	-0.09243261
-4.315556	EDIT:	-0.0890486
-4.917616	EDIT:Holy	-0.09243786
-4.917616	EEEEEMMMMMMM.	-0.0924641
-4.917616	ENJOYS	-0.0924641
-4.917616	ER	-0.09243786
-4.917616	ESPN's	-0.09245361
-4.616586	ETA:	-0.09171793
-4.218646	EVEN	-0.04573718
-4.616586	EVER	-0.09244309
-4.917616	EVERYTHING	-0.08927608
-4.917616	EVN	-0.09245886
-4.917616	Earlier	-0.08885276
-4.917616	Earth	-0.0924326
-4.917616	Easily	-0.0915233
-4.917616	East	-0.09233809
-4.440495	Easy	-0.08913326
-4.917616	Easy.	-0.09123909
-4.917616	Easy...	-0.0924641
-4.315556	Eat	-0.08351551
-4.917616	Eaten	-0.09127595
-4.917616	Eating	-0.09167586
-4.917616	Eats	-0.04576056
-4.440495	Ecuador,	-0.07847526
-4.917616	Ecuadorians	-0.09050664
-4.917616	Edelweiss.	-0.09168112
-4.917616	Edible	-0.0924641
-4.218646	Edit	-0.3296632
-3.349414	Edit:	-0.05127957
-4.917616	Edit;	-0.09242735
-4.917616	Eey	-0.0924641
-4.315556	Egg	-0.03228259
-4.218646	Eggs	-0.2781078
-4.917616	Eggs,	-0.09243786
-4.616586	Eggs.	-0.04552078
-3.963373	Either	-0.1636308
-4.917616	El	-0.0924641
-4.917616	El*i*wood	-0.04576056
-4.917616	Elf	-0.0918862
-4.616586	Eliwood	-0.3265651
-4.616586	Eliwood,	-0.0921227
-4.917616	Eliwood.	-0.04576056
-4.917616	Eliwood_of_Pherae	-0.04576056
-4.917616	Eliwood_of_Pherae,	-0.0924641
-4.917616	Eliwood_of_Pherae.	-0.04576056
-4.917616	Ellwood,	-0.09212796
-4.917616	Ellwood.	-0.04576056
-4.315556	Elvis	-0.4148524
-4.917616	Em	-0.09222253
-4.616586	Emblem	-0.08039041
-4.917616	Eminem	-0.08720851
-4.917616	Empanada,	-0.0924641
-4.917616	Ended	-0.09179156
-4.917616	Ends	-0.09179156
-4.917616	Energy	-0.0924641
-4.616586	England	-0.08573932
-4.616586	English	-0.08720318
-4.616586	Enhancement	-0.09245884
-4.440495	Enjoy	-0.02963315
-4.917616	Enter	-0.08228107
-4.917616	Epic	-0.09245886
-4.917616	Ericson	-0.0924641
-4.917616	Escargot	-0.08720851
-4.014526	Especially	-0.1259517
-4.917616	Espresso	-0.04576056
-4.917616	Establishing	-0.09245886
-4.917616	Europe	-0.08885276
-4.917616	European	-0.09237485
-4.616586	Europeans	-0.09226454
-4.917616	Euuww.	-0.04576056
-4.014526	Even	-0.4155647
-4.917616	Even...Even	-0.0924326
-4.917616	Eventually,	-0.08228107
-4.218646	Ever	-0.1711753
-4.917616	Ever?	-0.09225405
-4.917616	Everclear	-0.04576056
-4.917616	Everclear.	-0.04576056
-4.218646	Every	-0.09152331
-3.098072	Everybody	-1.609942
-4.315556	Everyone	-0.08438288
-4.917616	Everyone.	-0.04576056
-4.218646	Everything	-0.3101179
-4.616586	Everything,	-0.07807925
-4.917616	Ew	-0.04576056
-4.917616	Ew.	-0.04576056
-4.917616	Exactly	-0.04576056
-4.917616	Exactly!	-0.09158118
-4.917616	Excellent	-0.0897254
-4.315556	Except	-0.06454738
-4.917616	Explains	-0.08413675
-4.917616	Express	-0.08573401
-4.917616	Extract.	-0.04576056
-4.917616	Eye	-0.09245886
-4.616586	Eyes	-0.09099155
-4.315556	F	-0.3706124
-4.917616	F.	-0.09236959
-4.616586	FACE	-0.09226454
-4.917616	FAVORITE	-0.09245886
-4.616586	FDA	-0.09143384
-4.917616	FELL	-0.09245886
-4.917616	FFFFUCK	-0.09244835
-4.917616	FIELDS	-0.0924641
-4.917616	FIGURE	-0.09244835
-4.616586	FINALLY	-0.09243784
-4.917616	FIRED!	-0.04576056
-4.917616	FIVE	-0.09210695
-4.616586	FOOD	-0.09242209
-4.616586	FOR	-0.09244309
-4.917616	FOREVER**	-0.04576056
-4.917616	FORGOT	-0.0924641
-4.917616	FREAKING	-0.0924641
-4.917616	FROM	-0.04576056
-4.917616	FRY?	-0.0827162
-4.917616	FSM	-0.08573401
-3.838434	FTFY	-1.067235
-4.917616	FTFY"	-0.04576056
-4.616586	FUCK	-0.09234858
-4.917616	FUCK!	-0.04576056
-4.917616	FUCK.	-0.04576056
-4.917616	FUCKER	-0.04576056
-4.218646	FUCKING	-0.09242736
-4.917616	FUCKKKKKKKKKKKkkkkkkkkkkkkkkkkkkkkkkkkk".............................................................................'shhhhhhhhhhhhhhszzcht'	-0.04576056
-4.917616	FUNNY!	-0.09233283
-4.917616	FYI,	-0.09231707
-4.917616	Factorial	-0.09236434
-4.917616	Fair	-0.09244835
-4.917616	Fairy	-0.0924641
-4.917616	Falling	-0.08885276
-4.917616	Family	-0.09187043
-4.917616	Fanta	-0.04576056
-4.917616	Far	-0.09185466
-4.917616	Farts?	-0.04576056
-4.917616	Fat	-0.0924641
-4.616586	Favorite	-0.09245884
-4.917616	FedEx	-0.09235909
-4.917616	Fedora.	-0.04576056
-4.917616	Fedora?	-0.0827162
-4.616586	Feel	-0.09242734
-4.917616	Feijoada	-0.08720851
-4.917616	Fellow	-0.09244835
-4.616586	Ferrero	-0.09245884
-4.616586	Fetus	-0.04573716
-4.917616	Fiction](http://m.imdb.com/title/tt0110912/quotes?qt=qt0447129)	-0.04576056
-4.917616	Fifth,	-0.09241685
-4.917616	Figs.	-0.04576056
-4.917616	Figuratively	-0.0924641
-3.638862	Filipino	-0.1357833
-4.616586	Filipino,	-0.08571799
-4.440495	Filipino.	-0.09092309
-4.917616	Filipino.")	-0.04576056
-4.917616	Filipino/Tagalog.	-0.04576056
-4.616586	Filipino?	-0.2852554
-4.440495	Filipinos	-0.2345778
-4.616586	Finally	-0.09231181
-4.440495	Finally,	-0.08282358
-4.917616	Find	-0.08413675
-4.917616	Fine.	-0.09123909
-4.917616	Finger	-0.0924641
-4.616586	Finish	-0.3310707
-4.917616	Finnish	-0.09192826
-4.616586	Fire	-0.3319537
-3.963373	First	-0.113966
-4.917616	First,	-0.08715005
-4.315556	Fish	-0.08526987
-4.917616	Fish,	-0.0924326
-4.917616	Fish.	-0.0923801
-4.917616	Fiver	-0.09121276
-4.917616	Fizz	-0.0924641
-4.917616	Flakes.	-0.04576056
-4.917616	Flaming	-0.0923801
-4.616586	Flan	-0.04461316
-4.917616	Float	-0.04576056
-4.917616	Flour!	-0.04576056
-4.917616	Flourless	-0.09213322
-4.917616	Fluff	-0.04576056
-4.917616	Focus	-0.09242211
-4.917616	Foghorn	-0.0924641
-4.917616	Foie	-0.0924641
-4.917616	Fondue	-0.04576056
-4.917616	Fondue.	-0.04576056
-4.139464	Food	-0.08659163
-4.917616	Food.	-0.04576056
-4.917616	Foodcombos	-0.04576056
-4.917616	Foodoo	-0.0924641
-4.917616	Foodoverfood.	-0.04576056
-4.917616	Foot	-0.09202813
-3.386137	For	-0.2534485
-4.917616	Foreign	-0.0924641
-4.616586	Forgot	-0.07773178
-4.315556	Found	-0.1741008
-4.917616	Four	-0.09229082
-4.917616	Fradi	-0.0924641
-4.917616	Francisco	-0.09245886
-4.616586	Frank's	-0.09234332
-4.917616	Fred	-0.0924641
-4.616586	Freddie?	-0.0456553
-4.315556	Free	-0.04419094
-4.917616	Free.	-0.04576056
-3.838434	French	-0.3039345
-4.440495	Fresh	-0.09230133
-4.917616	Fricassee	-0.04576056
-4.917616	Fricassee](http://mamastaverna.com/lamb-fricassee-arnaki-frikase/).	-0.04576056
-4.917616	Friday.	-0.04576056
-3.771488	Fried	-0.15792
-4.917616	Fried?	-0.0924011
-4.917616	Friend	-0.09244835
-4.315556	Fries	-0.0328009
-4.917616	Frisk	-0.04576056
-4.440495	Fritos	-0.07730795
-4.218646	From	-0.3198473
-4.917616	Frosted	-0.0924641
-3.662343	Fruit	-0.158453
-4.917616	Fruit,	-0.0924326
-4.917616	Fruit.	-0.04576056
-3.876223	Fruity	-0.2705372
-4.616586	Fry	-0.0822703
-3.741524	Fuck	-0.08445108
-4.917616	Fuck,	-0.0827162
-4.917616	Fuck.	-0.04576056
-4.917616	Fuckers	-0.09217
-4.917616	Fuckin	-0.09245886
-3.917616	Fucking	-0.09190723
-4.440495	Fudge	-0.1897789
-4.315556	Fun	-0.4172587
-4.917616	Funnel	-0.09227506
-4.315556	Funniest	-0.4165808
-4.917616	Funnily	-0.09233283
-4.917616	Funny	-0.09244835
-4.917616	Funyuns	-0.08782981
-4.917616	Fur	-0.09245886
-4.917616	Futurama.	-0.04576056
-4.917616	GAAAAIIIIIIIINZZZZZ	-0.04576056
-4.917616	GET	-0.09244835
-4.917616	GG	-0.04576056
-4.917616	GIANT	-0.0924641
-4.917616	GIF	-0.08707032
-4.917616	GILDED	-0.09244835
-4.917616	GLORIOUS.	-0.04576056
-4.917616	GOD	-0.0924641
-4.917616	GODDAMN.	-0.04576056
-4.917616	GOES	-0.09234334
-4.917616	GOING	-0.09244311
-4.917616	GOLD!	-0.04576056
-4.917616	GOLD!!!	-0.04576056
-4.917616	GOOD	-0.04576056
-4.917616	GOOD,	-0.0827162
-4.917616	GOT	-0.0924641
-4.917616	GP	-0.09221728
-4.917616	GREAT!	-0.0924641
-4.917616	GUYS	-0.09242735
-4.917616	Gaddafi?	-0.04576056
-4.917616	Gaffigan.	-0.09244311
-4.139464	Gaki	-0.440414
-4.917616	Galactus,	-0.08720851
-4.616586	Galaxy	-0.08782449
-4.917616	Game?	-0.04576056
-4.315556	Garlic	-0.1958237
-4.917616	Gates_Is_My_Bitch	-0.04576056
-4.917616	Gathering?	-0.04576056
-4.917616	Gatorade	-0.04576056
-4.072518	Gavin	-0.2838514
-4.917616	Gavvy	-0.0924641
-4.917616	Geico	-0.09244311
-4.917616	Gelatin	-0.08885276
-4.917616	Gene.	-0.09245361
-4.917616	General	-0.0924641
-4.917616	Generic	-0.09242735
-4.917616	GeoCities	-0.0924641
-4.917616	German	-0.09245886
-4.917616	Germany	-0.09226456
-4.440495	Get	-0.07933651
-4.616586	Gghh	-0.2852554
-4.917616	Ghandi	-0.04576056
-4.917616	Ghetto	-0.09245361
-4.917616	Ghirardelli	-0.0924641
-3.963373	Ghost	-0.4900373
-4.917616	Ghoul	-0.09194403
-4.917616	Gin.	-0.04576056
-4.917616	Give	-0.0913128
-4.917616	Giveaway?	-0.04576056
-4.917616	Gives	-0.08228107
-4.440495	Glad	-0.2205248
-4.917616	Globs	-0.08707032
-3.917616	Go	-0.1859554
-4.616586	Goat	-0.09205438
-3.917616	God	-0.06830084
-4.616586	God's	-0.09245359
-4.072518	God,	-0.06421132
-4.917616	God.	-0.09179682
-4.917616	God...	-0.09127595
-4.917616	Goddamit.	-0.04576056
-4.917616	Goddammit.	-0.09232758
-4.917616	Goha…:	-0.0924641
-4.616586	Going	-0.09120222
-4.917616	Goku	-0.0924641
-3.917616	Gold	-0.3198423
-4.917616	Gold!	-0.09229082
-4.917616	Gold"	-0.04576056
-4.616586	Gold.	-0.09223828
-4.616586	Gold:	-0.09178629
-4.917616	Gold?	-0.04576056
-4.917616	Goldfish	-0.09244311
-4.616586	Gonna	-0.09151803
-4.917616	Gonorrhea	-0.0924641
-4.917616	Goob...	-0.0827162
-4.917616	Gooby	-0.09242211
-3.502642	Good	-0.1791576
-4.917616	Good.	-0.09158118
-4.917616	Good:	-0.0924641
-4.917616	Goodjob.	-0.04576056
-4.315556	Google	-0.08876276
-4.917616	Googled	-0.0924326
-4.917616	Got	-0.09028508
-4.917616	Gotcha.	-0.0827162
-4.917616	Gotta	-0.09027452
-4.917616	Gr8	-0.09180208
-4.917616	Grabbed	-0.0915917
-4.917616	Grade	-0.09206491
-4.917616	Grandma	-0.09218576
-4.917616	Granted	-0.0827162
-4.139464	Grape	-0.0920649
-4.917616	Grapefruit	-0.04576056
-4.917616	Grapefruit.	-0.04576056
-4.917616	Grapes	-0.04576056
-4.917616	Graphene.	-0.09245361
-4.917616	Gras	-0.04576056
-4.616586	Great	-0.09241684
-4.917616	Greater	-0.09245361
-4.917616	Greatly	-0.09245886
-4.616586	Greek	-0.08572333
-4.218646	Green	-0.126193
-4.917616	Grill	-0.09241685
-4.917616	Grocery	-0.09244835
-4.917616	Groose's	-0.0924641
-4.917616	Groot!	-0.04576056
-4.616586	Gross	-0.2852554
-4.917616	Gross.	-0.04576056
-4.917616	Gross...	-0.0827162
-4.917616	Ground	-0.09241685
-4.917616	Guacamole	-0.04576056
-4.616586	Guess	-0.08691081
-4.917616	Guide*	-0.04576056
-4.917616	Guinea	-0.0924641
-4.917616	Guinness	-0.0924641
-4.072518	Gum	-0.4957775
-4.917616	Gum.	-0.04576056
-4.917616	Gum?	-0.04576056
-4.315556	Gummy	-0.09243786
-4.917616	Gurren	-0.0924641
-4.917616	Gushers.	-0.04576056
-4.616586	Guy	-0.09149698
-4.315556	Guys	-0.07938521
-4.440495	Guys,	-0.2321654
-4.917616	Guys.	-0.09243786
-4.917616	H	-0.09244311
-4.917616	HAH.	-0.09234334
-4.917616	HAHA	-0.08885276
-4.917616	HAS	-0.09241685
-4.917616	HATES	-0.0924641
-4.616586	HAVE	-0.09243259
-4.616586	HE	-0.09245884
-4.616586	HE'S	-0.09244309
-4.917616	HEIIIISEEEENNNNBBEEERRRGGGGG!!!!	-0.04576056
-4.616586	HELL	-0.09245884
-4.917616	HELLO!!!!!	-0.04576056
-4.917616	HERE	-0.04576056
-4.440495	HEY	-0.08266252
-4.917616	HEYYYYYYYY!!	-0.04576056
-4.917616	HIDEOUS	-0.0897254
-4.917616	HIV	-0.0924641
-4.917616	HOLY	-0.09245361
-4.917616	HOME	-0.09235384
-4.917616	HORRIBLE	-0.09230132
-4.440495	HOW	-0.09239586
-4.917616	HP	-0.08573401
-4.917616	Ha	-0.08927608
-4.917616	Ha,	-0.09233809
-4.917616	Haaaaa	-0.04576056
-4.917616	Habanero	-0.09243786
-4.072518	Had	-0.07818779
-4.917616	Haggis	-0.08573401
-4.917616	Haggis.	-0.0924641
-4.917616	Hah	-0.08715005
-4.315556	Haha	-0.1365395
-4.917616	Haha.	-0.0924641
-4.917616	Hahah.	-0.09168112
-4.440495	Hahaha	-0.2337382
-4.917616	Hair	-0.0924641
-4.917616	Hajmola	-0.04576056
-4.315556	Half	-0.08224882
-4.440495	Ham	-0.1824885
-4.315556	Hamburger	-0.03987461
-4.917616	Hamsters	-0.04576056
-4.139464	Happy	-0.1583532
-4.917616	Hard	-0.09232758
-4.917616	Haribo.	-0.04576056
-4.917616	Haribos.	-0.04576056
-4.315556	Harry	-0.4148577
-4.616586	Has	-0.08217354
-3.575193	Have	-0.8280928
-4.218646	Haven't	-0.09129174
-4.917616	Hawaii	-0.0924641
-4.917616	Hawaii.	-0.0827162
-4.218646	Hawaiian	-0.1725076
-3.139465	He	-0.2191102
-4.917616	He'll	-0.09201761
-3.519676	He's	-0.1470744
-4.917616	He/she	-0.09197031
-4.917616	HeWent	-0.08720851
-4.315556	Healed	-0.4065461
-4.917616	Hear	-0.08830184
-4.917616	Heard	-0.0923801
-4.218646	Heat	-0.08376198
-4.917616	Heavy	-0.09242211
-4.917616	Hefeweizen	-0.08573401
-4.917616	Hefeweizen...	-0.09196506
-4.917616	Hefeweizen??	-0.0923801
-4.917616	Heh	-0.09229607
-4.917616	Hehe	-0.09234334
-4.917616	HeheMe2	-0.04576056
-4.917616	Hehehe.	-0.04576056
-4.440495	Hell	-0.09183364
-4.917616	Hell,	-0.0924641
-4.917616	Hello	-0.09244835
-4.917616	Hells	-0.09242735
-4.917616	Her	-0.09229082
-4.315556	Here	-0.02911711
-4.440495	Here's	-0.08311872
-4.917616	Here,	-0.09245886
-4.616586	Here:	-0.2852554
-4.917616	Heroin.	-0.04576056
-4.917616	Herring?	-0.04576056
-4.917616	Hershey	-0.09236959
-3.963373	Hershey's	-0.3964874
-4.917616	Hes	-0.0924641
-3.771488	Hey	-0.1651602
-4.616586	Hey!	-0.09106003
-4.218646	Hey,	-0.07860537
-4.917616	Heyyo!	-0.09220677
-4.917616	Heyyyy	-0.04576056
-4.917616	Hi!	-0.04576056
-4.917616	Hi,	-0.09028508
-4.917616	Hi.	-0.04576056
-4.917616	High	-0.09107585
-4.917616	Highly	-0.09245886
-4.917616	Hilarity	-0.0924641
-4.917616	Him	-0.09199659
-4.917616	Hint:	-0.09242211
-4.218646	His	-0.09202813
-4.917616	Hispanic	-0.09244835
-4.917616	Historical	-0.04576056
-4.440495	History	-0.04521067
-4.917616	History!	-0.04576056
-4.917616	Hit	-0.08228107
-4.917616	Hitler.	-0.04576056
-4.917616	Hitmarkers	-0.0920071
-4.917616	Hmm,	-0.09179156
-4.917616	Hmm...	-0.09245886
-4.917616	Hmm...I'll	-0.0907966
-4.917616	Hmmm....	-0.04576056
-4.917616	Hmmmmmm	-0.04576056
-4.917616	Hochata?	-0.04576056
-4.917616	Hola	-0.04576056
-4.917616	Hold	-0.0897254
-3.595397	Holy	-0.4004867
-4.616586	Home	-0.08657034
-4.917616	Homemade	-0.0923906
-4.917616	Homer	-0.0924641
-4.917616	Honda,	-0.09236959
-4.616586	Honestly	-0.08734664
-4.315556	Honestly,	-0.1855526
-4.917616	Honesty	-0.09043279
-4.139464	Honey	-0.03151602
-4.917616	Hope	-0.0917232
-4.917616	Hopefully	-0.0923906
-4.917616	Hopefully!!	-0.09233283
-4.616586	Horchata	-0.08039041
-4.917616	Horchata!	-0.04576056
-4.917616	Horchata?	-0.04576056
-4.917616	Horchatta	-0.04576056
-4.917616	Hornel	-0.09242735
-4.917616	Horrible	-0.08573401
-4.440495	Horse	-0.04524579
-4.917616	Horseradish	-0.08720851
-3.687167	Hot	-0.1940415
-4.616586	Hotdog	-0.3252288
-4.917616	House	-0.08707032
-4.917616	Houston,	-0.09229607
-2.963373	How	-0.5524971
-4.917616	How....	-0.09220677
-4.917616	HowToBasic?	-0.04576056
-4.616586	However	-0.09172844
-4.917616	However,	-0.09186517
-4.917616	Huge	-0.09245886
-4.917616	Huh?	-0.0924641
-4.440495	Human	-0.09244836
-4.616586	Human.	-0.2852554
-4.616586	Hummus	-0.2852554
-4.440495	Hummus.	-0.04504674
-4.218646	Hut	-0.1727546
-4.917616	Hut.	-0.04576056
-4.917616	Hut~~	-0.09226981
-1.653507	I	-0.6508745
-4.315556	I'M	-0.09238011
-3.218646	I'd	-0.1825776
-3.264403	I'll	-0.2553028
-2.443399	I'm	-0.3401997
-4.616586	I'm...	-0.3303968
-2.803672	I've	-0.625968
-4.440495	I,	-0.09106532
-4.917616	I..	-0.0827162
-4.616586	I...	-0.04572546
-4.917616	I...I	-0.09182837
-4.917616	I.loveyou	-0.04576056
-4.616586	I?	-0.04439036
-4.917616	IAmA	-0.0924641
-4.917616	IB	-0.09224354
-4.917616	ICKESLES	-0.04576056
-4.917616	ICQ,	-0.0924641
-4.917616	IF	-0.09245886
-4.917616	IGN	-0.04576056
-4.917616	IGN?	-0.04576056
-4.917616	IHOP?	-0.04576056
-4.917616	II	-0.0924641
-4.917616	II.	-0.04576056
-4.917616	IL.	-0.09203338
-4.917616	IM	-0.09244311
-4.917616	IMMINENT	-0.04576056
-4.917616	IMO,	-0.08830184
-4.917616	IMO.	-0.09179682
-4.315556	IN	-0.1957606
-4.917616	INB4	-0.09127595
-4.917616	INCREDIBLE	-0.09226981
-4.917616	INTERNET.	-0.04576056
-4.917616	IRC,	-0.0924641
-3.876223	IS	-0.1608665
-4.218646	IT	-0.04573718
-4.917616	IT'S	-0.0924641
-4.315556	IT.	-0.1491866
-4.440495	ITS	-0.09244312
-4.917616	ITT	-0.09192826
-4.917616	ITT-	-0.09127595
-3.741524	ITT:	-0.2357143
-4.917616	IamA	-0.0924641
-3.104702	Ice	-0.6328871
-4.616586	Ice!	-0.2852554
-4.917616	Ice"	-0.09244311
-4.917616	Ice,	-0.09121276
-4.917616	Ice-cold	-0.09244835
-4.917616	Ice-cream	-0.04576056
-4.917616	Ice-cream.	-0.09123909
-4.917616	Ice.	-0.04576056
-4.616586	Icecream	-0.2852554
-4.917616	Icecream!	-0.04576056
-4.917616	Icelandic	-0.0924641
-4.616586	Ick.	-0.2852554
-4.917616	Icky	-0.09244311
-4.917616	Iconic	-0.09107585
-4.917616	Idaho!	-0.09158118
-4.218646	Idk	-0.1607561
-4.917616	Idk,	-0.09203338
-4.917616	Idunno,	-0.0924641
-2.973133	If	-0.4712487
-4.917616	If...	-0.09233283
-4.917616	Iihcz	-0.04576056
-4.917616	Ill	-0.09233283
-4.616586	Illinois	-0.08947171
-4.917616	Ilong!	-0.04576056
-3.838434	Im	-0.1145469
-4.616586	Implying	-0.08769712
-4.917616	Impossible,	-0.09060683
-3.19334	In	-0.2955579
-4.616586	Inb4	-0.0822058
-4.917616	Incorrect.	-0.0827162
-4.917616	Increase	-0.09242735
-4.917616	Incredibly	-0.0924641
-4.616586	Indeed	-0.07845355
-4.917616	Indeed!	-0.0827162
-4.917616	Indeed.	-0.04576056
-4.218646	India	-0.08903802
-4.440495	India,	-0.08930781
-4.616586	India.	-0.0447714
-3.771488	Indian	-0.06337359
-4.917616	Indians	-0.09107585
-4.917616	Indonesia),	-0.0922488
-4.917616	Ingest.	-0.04576056
-4.917616	Ingredients	-0.08948229
-4.917616	Instagram?	-0.04576056
-4.440495	Instant	-0.09241686
-4.917616	Instantly	-0.09220677
-4.917616	Instead	-0.08707032
-4.616586	Instructions	-0.3319537
-4.917616	Interesting!	-0.09224354
-4.917616	Interesting,	-0.09245886
-4.440495	Interesting.	-0.1886251
-4.440495	Internet	-0.09241161
-4.917616	Internet."	-0.04576056
-4.917616	Internet?	-0.04576056
-4.917616	Iran	-0.09060683
-4.917616	Iron	-0.08885276
-4.917616	Ironically,	-0.09028508
-3.210046	Is	-0.3577073
-3.963373	Isn't	-0.3543333
-2.741524	It	-0.3676174
-4.315556	It'd	-0.4150266
-4.917616	It'll	-0.09027452
-2.689729	It's	-0.3440773
-4.440495	Italian	-0.09243786
-4.917616	Italian!	-0.04576056
-4.616586	Italians	-0.09026396
-3.537405	Its	-0.1330434
-4.917616	Itt:	-0.09233809
-4.315556	Ive	-0.19483
-4.917616	I’m	-0.0924641
-4.917616	JERRY	-0.0924641
-4.917616	JESUS	-0.0924641
-4.917616	JK	-0.09240635
-4.616586	JUST	-0.09245359
-4.917616	Jackfruit	-0.08782981
-4.917616	Jacobs	-0.09244311
-4.917616	Jail](https://www.youtube.com/watch?v=vJEwo_gwO9M)	-0.04576056
-4.917616	Jalapeno	-0.04576056
-4.616586	Jalapeño	-0.09226454
-4.917616	Jalebi	-0.04576056
-4.616586	Jam	-0.04436104
-4.917616	James	-0.0924641
-4.440495	Japan	-0.0822327
-4.616586	Japan.	-0.04546813
-4.917616	Japanee...	-0.09245886
-4.315556	Japanese	-0.09192301
-4.917616	Jasmine	-0.09209119
-4.917616	Jaw	-0.0924641
-4.315556	Jell-O	-0.04523408
-4.440495	Jell-o	-0.5719207
-3.575193	Jello	-0.5660344
-4.917616	Jello!	-0.04576056
-4.440495	Jello.	-0.5719207
-4.917616	Jello...	-0.08927608
-4.917616	Jello/Jam	-0.08573401
-4.917616	Jello:	-0.09183363
-4.917616	Jello?	-0.04576056
-3.838434	Jelly	-0.1677878
-4.917616	Jelly/jam	-0.04576056
-4.917616	Jemima	-0.09244311
-4.917616	Jerks	-0.0924641
-4.917616	Jerky.	-0.04576056
-4.917616	Jerry's	-0.09204914
-4.917616	Jerry?	-0.04576056
-3.687167	Jesus	-0.2975107
-4.440495	Jesus.	-0.034874
-4.917616	Jew	-0.09245886
-4.917616	Jif	-0.08720851
-4.616586	Jif,	-0.09151277
-4.917616	Jim	-0.0924641
-4.917616	Jims.	-0.04576056
-4.917616	Jk	-0.09245361
-4.440495	John	-0.08781921
-4.917616	Joke's	-0.0897254
-4.917616	Jolibee	-0.04576056
-4.315556	Jolly	-0.09244836
-4.917616	Judging	-0.09202813
-4.616586	Juice	-0.0457547
-4.440495	Juice.	-0.1895156
-4.917616	Julian.	-0.04576056
-3.218646	Just	-0.112397
-4.917616	Justus	-0.08885276
-4.616586	K	-0.0398331
-4.917616	K.	-0.04576056
-4.917616	KEEP	-0.09234334
-4.917616	KFC	-0.09245886
-4.917616	KFC-Taco	-0.0924641
-4.917616	KID	-0.0924641
-4.616586	KIDS	-0.09242209
-4.917616	KILL	-0.04576056
-4.315556	KNOW	-0.09237485
-4.917616	Kaneki	-0.08720851
-4.917616	Kangaroo	-0.04576056
-4.616586	Kappa	-0.2852554
-4.917616	Kare	-0.0924641
-4.917616	Karl	-0.0924641
-4.014526	Karma	-0.08340923
-4.616586	Karma.	-0.04560851
-4.917616	Karma:	-0.08228107
-4.917616	Karma?	-0.04576056
-4.917616	Kaszanka.	-0.09158118
-4.917616	Kebab.	-0.04576056
-4.917616	Kedgeree	-0.09244311
-4.616586	Keen	-0.08315625
-4.440495	Keep	-0.08924435
-4.917616	Keeps	-0.08830184
-4.917616	Kem	-0.0924641
-4.917616	Kerchup?	-0.04576056
-3.803672	Ketchup	-0.1918422
-4.440495	Ketchup,	-0.09202813
-3.917616	Ketchup.	-0.2985014
-4.917616	Ketcshup.	-0.09233283
-4.917616	Kevin	-0.09213322
-4.440495	Key	-0.2366673
-4.917616	Kfc	-0.0924641
-4.917616	Kicking	-0.08413675
-4.917616	Kickstarter	-0.08618701
-4.917616	Kickstarter?	-0.04576056
-4.917616	Kid	-0.08720851
-4.917616	Kidneys	-0.04576056
-4.315556	Kids	-0.1943403
-4.917616	Kill	-0.0913128
-4.917616	Kimchi?	-0.04576056
-4.917616	King	-0.0924641
-4.917616	Kirk	-0.09244311
-4.917616	Kith	-0.04576056
-4.917616	Knees	-0.09245361
-4.917616	Knorr	-0.09236434
-4.917616	Know	-0.091618
-4.917616	Koldskål	-0.0924641
-4.917616	Kool	-0.09244835
-4.917616	Kool-Aid.	-0.04576056
-4.616586	Korea	-0.0904697
-4.917616	Korea.	-0.04576056
-4.616586	Korean	-0.09245884
-4.917616	Koreans	-0.0915233
-4.917616	Korma	-0.08948229
-4.917616	Kosher	-0.0924641
-4.917616	Kouhai.	-0.0923906
-4.616586	Krab?	-0.2852554
-4.917616	Krackel	-0.08715005
-4.315556	Kraft	-0.09240635
-4.917616	Kreme	-0.0924641
-4.616586	Krispies	-0.03825376
-4.616586	Krispies.	-0.2852554
-4.917616	Krispies......wait	-0.04576056
-4.917616	Krispy	-0.0924641
-4.917616	Krunk	-0.09236959
-4.616586	Krusty	-0.3319537
-4.917616	Kudos,	-0.09242211
-4.917616	Kung	-0.0924641
-4.917616	Kurd?	-0.09244835
-4.917616	L+o×10^n	-0.0924641
-4.917616	LAN	-0.0923906
-4.917616	LAN,	-0.090902
-4.917616	LARGE	-0.0924641
-4.917616	LDR	-0.08948229
-4.917616	LEFTY!	-0.04576056
-4.917616	LGBT-supportive.	-0.04576056
-4.917616	LIAR!	-0.04576056
-4.917616	LIKE	-0.09245361
-4.917616	LITERALLY	-0.09244835
-4.616586	LMFAO.	-0.08270545
-4.917616	LMS	-0.08948229
-4.917616	LOL	-0.0917232
-4.917616	LOL,	-0.09241685
-4.917616	LOT.	-0.0827162
-4.218646	LOVE	-0.08923906
-4.616586	LOVED	-0.09233807
-4.917616	LUFF	-0.09241685
-4.917616	Lagann?	-0.04576056
-4.616586	Lamb	-0.0457547
-4.917616	Lamingtons	-0.04576056
-4.917616	Langos	-0.04576056
-4.917616	Lard	-0.04576056
-4.616586	Lasagna	-0.2852554
-4.440495	Last	-0.09008453
-4.315556	Late	-0.08609645
-4.917616	Latin	-0.09245886
-4.917616	Latkes.	-0.04576056
-4.616586	Lava	-0.09123381
-4.917616	Lawry's	-0.0924641
-4.917616	Lay	-0.09233283
-4.917616	Lays	-0.09240635
-4.917616	Leading	-0.09179156
-4.917616	Learn	-0.08618701
-4.440495	Leave	-0.07617021
-4.917616	Leaving	-0.08413675
-4.616586	Lebanese	-0.08561134
-4.917616	Leche	-0.08720851
-4.917616	Leftover	-0.0922488
-4.917616	Leghorn.	-0.09227506
-4.315556	Lemon	-0.09223305
-4.917616	Lemon!	-0.04576056
-4.616586	Lemonade	-0.3319537
-4.616586	Lemons	-0.03825376
-4.917616	Less	-0.09202287
-4.072518	Let	-0.2356186
-4.139464	Let's	-0.08763342
-4.616586	Lets	-0.092191
-4.917616	Lettuce	-0.04576056
-4.315556	Liberty's	-0.4148524
-4.917616	LicoRICE	-0.04576056
-4.616586	Licorice.	-0.04564945
-4.917616	Lies	-0.04576056
-4.917616	Lies?	-0.04576056
-4.616586	Life	-0.09205964
-3.537405	Like	-0.02498192
-4.440495	Like,	-0.08813749
-4.917616	Like...	-0.09212796
-4.616586	Lil	-0.3319537
-4.917616	Limberger	-0.09205966
-4.218646	Lime	-0.04567286
-4.917616	Limes!	-0.04576056
-4.917616	Link	-0.08948229
-4.917616	Linked	-0.08618701
-4.917616	Links.	-0.04576056
-4.917616	Lipton's	-0.09244311
-4.917616	Liquorice	-0.04576056
-4.616586	Liquorice.	-0.2852554
-4.917616	Liquroce	-0.08573401
-4.917616	Listen.	-0.09229082
-4.917616	Listerine	-0.04576056
-4.440495	Literally	-0.0908862
-4.616586	Little	-0.09103369
-4.616586	Live	-0.09240633
-4.917616	Liver	-0.04576056
-4.917616	Liverwurst.	-0.04576056
-4.917616	Living	-0.08228107
-4.315556	Lmao	-0.3681699
-4.917616	Lmaoo	-0.04576056
-4.917616	Lmfao	-0.09242211
-4.440495	Lobster	-0.5719207
-4.917616	LocoMoco	-0.04576056
-4.072518	Lol	-0.1001515
-4.917616	Lol!!!	-0.0827162
-4.917616	Lol,	-0.09245886
-4.616586	Lol.	-0.09240633
-4.917616	Lollipops.	-0.04576056
-4.917616	Lolll	-0.09152857
-4.917616	Lolly/Popsicle.	-0.04576056
-4.917616	Long	-0.09245361
-4.139464	Look	-0.1496242
-4.917616	Look,	-0.09189672
-4.917616	Looks	-0.09043279
-4.917616	Looks:	-0.04576056
-4.917616	Loony	-0.0924326
-4.917616	Loops	-0.04576056
-4.917616	Loops,	-0.0924641
-4.917616	Loops.	-0.04576056
-4.917616	Loops/Lucky	-0.0924641
-4.917616	Lord	-0.09209644
-4.917616	Lord.	-0.09199659
-4.917616	Losing	-0.09080187
-4.616586	Lots	-0.3265651
-4.917616	Louisiana	-0.04576056
-4.917616	Louisiana.	-0.09158118
-4.440495	Love	-0.08877335
-4.917616	Love,	-0.04576056
-4.917616	Love](https://www.youtube.com/watch?v=k8PjjxJ7v78)	-0.04576056
-4.917616	Loved	-0.08927608
-4.616586	Lovestory	-0.08778204
-4.917616	Loving	-0.08927608
-4.218646	Lucky	-0.4806201
-4.917616	Lucky.	-0.04576056
-4.917616	Lunch	-0.0924641
-4.917616	Lutefisk,	-0.0924641
-4.917616	M	-0.09241685
-4.917616	M&M	-0.0924641
-4.917616	M&M's	-0.04576056
-4.917616	M&M's!	-0.0827162
-4.917616	M&Ms.	-0.0917863
-4.917616	M'lady.	-0.04576056
-4.917616	M-maybe	-0.08793593
-4.917616	M8	-0.04576056
-4.917616	MAGGOT	-0.04576056
-4.616586	MAKE	-0.09239058
-4.917616	MAN	-0.04576056
-4.917616	MARIJUANAS	-0.04576056
-4.616586	MARINARA	-0.3319537
-4.616586	MASHED	-0.3319537
-4.917616	ME	-0.0924641
-4.917616	MEANT	-0.09234334
-4.917616	MEAT	-0.09245886
-4.917616	MI6?	-0.04576056
-4.917616	MILK.	-0.04576056
-4.917616	MILKY	-0.09245886
-4.917616	MINIMUM	-0.08707032
-4.917616	MIT	-0.09121276
-4.917616	MOM	-0.09245361
-4.315556	MORE	-0.1958762
-4.917616	MORE]**	-0.04576056
-4.917616	MOS	-0.09245886
-4.917616	MOST	-0.0924641
-4.917616	MOTHERFUCKER	-0.04576056
-4.218646	MRE	-0.04536869
-4.616586	MRE's	-0.09173896
-4.917616	MRES	-0.09231182
-4.917616	MREs	-0.09100737
-4.917616	MREs.	-0.04576056
-4.917616	MS	-0.0924641
-4.616586	MSN	-0.0457547
-4.917616	MTG	-0.09244311
-4.917616	MUCH	-0.04576056
-4.917616	MUCH.	-0.0924641
-4.917616	MUST	-0.0924641
-4.616586	MVP	-0.2852554
-4.315556	MY	-0.09244836
-4.917616	MYCH	-0.04576056
-4.917616	Mabuhay!	-0.04576056
-3.963373	Mac	-0.2373934
-4.917616	Macandcheese	-0.04576056
-4.616586	Macaroni	-0.3318906
-4.616586	Made	-0.08958799
-4.616586	Madrid	-0.090591
-4.917616	Maggots	-0.04576056
-4.917616	Maggots.	-0.04576056
-4.440495	Magic	-0.08182398
-4.917616	Magic!	-0.04576056
-4.917616	Main	-0.09244311
-4.014526	Make	-0.2199082
-4.315556	Makes	-0.1905511
-4.917616	Making	-0.08413675
-4.917616	Makulit	-0.0924641
-4.917616	Mal	-0.0924641
-4.917616	Malaysia	-0.08573401
-4.440495	Man	-0.07720464
-4.218646	Man,	-0.08158718
-4.917616	Manage	-0.0924641
-4.917616	Mandarin	-0.09242735
-4.315556	Mango	-0.04512871
-4.616586	Mango.	-0.04527503
-4.917616	Mangoes	-0.08573401
-4.917616	Mangoes,	-0.09245886
-4.917616	Mangoes.	-0.04576056
-4.616586	Mangos	-0.03825376
-4.917616	Mangos.	-0.04576056
-4.917616	Manwich	-0.04576056
-4.440495	Many	-0.09225931
-4.014526	Maple	-0.4576937
-4.917616	Maple.	-0.09245886
-4.616586	Marinara	-0.085558
-4.440495	Mario	-0.09245361
-4.917616	Mario!	-0.04576056
-4.917616	Mariokart	-0.0924641
-4.440495	Marmite	-0.5719207
-4.917616	Marmite?	-0.04576056
-4.917616	Marquess	-0.09245886
-4.917616	Marriage	-0.08782981
-4.917616	Marriage:	-0.0923906
-4.440495	Mars	-0.2366568
-4.917616	Marshmallow	-0.0924641
-4.315556	Marshmallows	-0.3654487
-4.917616	Marshmallows!	-0.04576056
-4.616586	Marshmallows.	-0.04439036
-4.917616	Marshmallows:	-0.09183363
-4.917616	Marshmellows.	-0.04576056
-4.917616	Marx	-0.09236434
-4.917616	Marx).	-0.0827162
-4.917616	Marzipan!	-0.04576056
-3.838434	Mashed	-0.8089856
-4.917616	Master	-0.0924641
-4.917616	Max	-0.09179156
-4.315556	May	-0.09058575
-3.455218	Maybe	-0.1210776
-4.917616	Maybe.	-0.09220677
-4.616586	Mayo	-0.2852554
-4.917616	Mayo,	-0.09240635
-4.917616	Mayonaise	-0.09107585
-4.218646	Mayonnaise	-1.092491
-4.440495	Mayonnaise.	-0.5719207
-4.917616	Mazapan	-0.04576056
-4.616586	McDonalds	-0.08572866
-4.917616	McFlurry	-0.04576056
-4.315556	Me	-0.0923591
-4.917616	Me!	-0.09233809
-4.616586	Me,	-0.09219625
-4.917616	Me-N-Edd's	-0.09243786
-4.616586	Meal	-0.09243784
-4.616586	Meat	-0.09192298
-4.917616	Meatballs	-0.09143911
-4.917616	Meatballs.	-0.09245361
-4.917616	Medium	-0.0924641
-4.917616	Meh.	-0.04576056
-4.917616	Melt	-0.08413675
-4.315556	Melted	-0.09221204
-4.440495	Mentos	-0.04370954
-4.917616	Menudo	-0.04576056
-4.917616	Merchant	-0.0924116
-4.917616	Mercury	-0.09245886
-4.917616	Mercury.....	-0.04576056
-4.917616	Meth	-0.09245886
-4.917616	Mett.	-0.08830184
-3.876223	Mexican	-0.1266022
-4.917616	Mexicans	-0.09218051
-4.917616	Mexicans.	-0.04576056
-4.917616	Mexico	-0.0924641
-4.917616	Meyer	-0.0924641
-4.917616	Miami	-0.0924641
-4.917616	Michael	-0.0924641
-4.917616	Michelin	-0.0924641
-4.917616	Microwave	-0.08830184
-4.917616	Microwaved	-0.0924641
-4.917616	Midwest,	-0.09210169
-4.917616	Midwest.	-0.04576056
-4.072518	Might	-0.2068533
-4.917616	Military	-0.09242735
-3.803672	Milk	-0.2517707
-4.917616	Milk,	-0.0923906
-4.917616	Milk?	-0.04576056
-4.616586	Milkshake	-0.2852554
-4.917616	Milkshake?!?!	-0.04576056
-4.139464	Milky	-0.2790662
-4.616586	Milo	-0.09240633
-4.917616	Milton	-0.0924641
-4.917616	Milwaukee	-0.09245361
-4.917616	Min	-0.09153909
-4.616586	Mind	-0.3318329
-4.917616	Mine,	-0.09225405
-4.917616	Mines	-0.0924641
-4.917616	Minnesota	-0.09211746
-4.917616	Minnesota!	-0.09195454
-4.917616	Minnesotan	-0.09107585
-4.072518	Mint	-0.2474258
-4.917616	Mints	-0.04576056
-4.440495	Minty	-0.2366411
-4.917616	Minus	-0.08228107
-4.917616	Minute	-0.09209119
-4.917616	Mitch!	-0.08573401
-4.616586	Mix	-0.0922015
-4.917616	Mmm	-0.0827162
-4.616586	Mmm...	-0.09220675
-4.917616	Mmmm.	-0.04576056
-4.616586	Mmmmmm	-0.2852554
-4.616586	Mmmmmm...	-0.2852554
-4.917616	Moar	-0.08793593
-4.616586	Mochi	-0.08678316
-4.917616	Mochi.	-0.04576056
-4.917616	Mode	-0.09245886
-4.917616	Mode.	-0.04576056
-4.917616	Modes	-0.09245886
-4.917616	Mohandas	-0.0924641
-4.917616	Molasses.	-0.04576056
-4.917616	Molten	-0.09205966
-4.917616	Molé	-0.08720851
-4.315556	Mom	-0.4171432
-3.917616	Mom's	-0.1896046
-4.917616	Mom.	-0.04576056
-4.315556	Moms	-0.09213848
-4.917616	Monday	-0.09230658
-4.917616	Money.	-0.04576056
-4.917616	Monkey	-0.09243786
-4.917616	Months	-0.09239585
-4.917616	Montisa2008	-0.04576056
-4.616586	Moon	-0.09138121
-4.917616	Moooooooom	-0.09140754
-3.963373	More	-0.127189
-4.917616	Morgan:	-0.09240635
-4.917616	Mos	-0.09245886
-4.917616	Mosaic,	-0.08573401
-4.917616	Mosquitos.	-0.04576056
-3.803672	Most	-0.08361731
-4.616586	Mother	-0.08694271
-4.917616	Mother,	-0.08950873
-4.917616	Mothers	-0.0924641
-4.440495	Mountain	-0.2366831
-4.917616	Mouse	-0.04576056
-4.917616	Movie	-0.0924641
-4.917616	Mr	-0.0924641
-4.917616	Mrs	-0.0924641
-4.616586	Mrs.	-0.09245884
-4.917616	Ms	-0.04576056
-4.917616	Msn	-0.08950873
-4.917616	Muammar	-0.0924641
-4.440495	Much	-0.0923906
-4.917616	Muffins.	-0.04576056
-4.917616	Mulder!	-0.04576056
-4.917616	Multi-grain	-0.09244311
-4.917616	Munch's	-0.0924641
-4.917616	Muslim	-0.0924641
-4.917616	Must	-0.09027452
-4.917616	Must've	-0.09243786
-4.917616	Must.	-0.0924641
-4.218646	Mustard	-0.2742379
-4.917616	Mustard+Tomato	-0.08720851
-4.917616	Mustard:	-0.0923801
-4.917616	Mustardy	-0.09236434
-4.917616	Muttley.	-0.09212796
-2.998538	My	-0.2106712
-4.917616	N	-0.0924641
-4.917616	N'	-0.0924641
-4.917616	N64	-0.08573401
-4.917616	NEED	-0.09235384
-4.917616	NICE!	-0.04576056
-4.218646	NO	-0.0454623
-4.917616	NO.	-0.09245886
-4.917616	NOOO!	-0.09215949
-4.917616	NOOOOOOOOOOOOOO!	-0.09229607
-3.838434	NOT	-0.0899631
-4.616586	NOTHING	-0.09244309
-4.917616	NOTHING!!!	-0.04576056
-4.440495	NOW	-0.2269455
-4.616586	NSFW	-0.08572866
-4.917616	NSW,	-0.09244835
-4.616586	NUTS	-0.2852554
-4.917616	Na	-0.09073336
-4.315556	Nacho	-0.414469
-4.440495	Nachos	-0.08655439
-4.917616	Nachos!	-0.04576056
-4.315556	Nah	-0.09219627
-4.315556	Nah,	-0.1823361
-4.917616	Nah.	-0.09158118
-4.917616	Nails	-0.04576056
-4.917616	Named	-0.09243786
-4.917616	Nanay?	-0.04576056
-4.917616	Nastiest	-0.09201235
-4.917616	Natto	-0.04576056
-4.917616	Natto.	-0.04576056
-4.917616	Naturally.	-0.04576056
-4.917616	Nearly	-0.08413675
-4.616586	Needs	-0.08351012
-4.917616	Neeps.	-0.09244835
-4.917616	Neil	-0.0924641
-4.917616	Neither	-0.09042752
-4.917616	Nemo.	-0.04576056
-4.440495	Nerds	-0.04412052
-4.917616	Nerf	-0.09242211
-4.917616	Netherlands,	-0.0924641
-4.616586	Nev	-0.03825376
-3.963373	Never	-0.09030092
-4.014526	New	-0.2243447
-4.139464	Next	-0.2797069
-4.917616	Nicaragua	-0.09186517
-3.838434	Nice	-0.1653493
-4.616586	Nice!	-0.09219625
-4.917616	Nice?	-0.09158118
-4.917616	Nicolas	-0.08715005
-4.917616	Nigeria	-0.09230658
-4.917616	Nightmarish.	-0.04576056
-4.616586	Ninja	-0.08701183
-4.917616	Nissin	-0.0924326
-3.125224	No	-0.1152826
-4.917616	No!	-0.0827162
-3.537405	No,	-0.2473818
-4.072518	No.	-0.04223268
-4.917616	No..	-0.09244835
-4.917616	No....	-0.09184414
-4.917616	No..it	-0.09167586
-4.440495	Nobody	-0.09200186
-4.917616	Noctowl](http://cdn.bulbagarden.net/upload/thumb/f/fa/164Noctowl.png/250px-164Noctowl.png)	-0.04576056
-4.917616	Noice	-0.04576056
-4.917616	Nokia	-0.09245886
-4.616586	None	-0.3265651
-4.917616	Noodle	-0.09222779
-4.917616	Noodles	-0.08782981
-4.917616	Noodles:	-0.09183363
-4.917616	Noot	-0.04576056
-4.917616	Nope	-0.04576056
-4.616586	Nope!	-0.2852554
-4.014526	Nope,	-0.1944646
-4.139464	Nope.	-0.100935
-4.917616	Noped	-0.09187569
-4.440495	Normal	-0.2363154
-4.917616	Norris	-0.08707032
-3.146764	Not	-0.1719121
-4.917616	Note	-0.09211746
-4.218646	Nothing	-0.1255607
-4.440495	Nothing,	-0.2310977
-4.440495	Nothing.	-0.1890003
-4.917616	Nothing;	-0.090902
-4.917616	Notice	-0.0913128
-4.917616	Nougat	-0.0924641
-3.486252	Now	-0.2182487
-4.440495	Now,	-0.2239228
-4.917616	Nuevo	-0.0924641
-4.917616	Number	-0.0915233
-3.616586	Nutella	-0.2527842
-4.917616	Nutella!	-0.09196506
-4.616586	Nutella,	-0.09039585
-4.315556	Nutella.	-0.3705773
-4.616586	Nutella...	-0.04569038
-4.917616	Nutella:	-0.09183363
-4.616586	Nutella?	-0.2852554
-4.917616	Nuts	-0.09240635
-4.917616	Nuuuuuu	-0.04576056
-4.917616	Nyquil	-0.04576056
-4.917616	O	-0.0924641
-4.917616	O.O	-0.04576056
-4.917616	O.o	-0.04576056
-4.917616	OBLIGATORY	-0.09244835
-4.218646	OF	-0.1731171
-4.917616	OG	-0.09234334
-4.616586	OH	-0.09243784
-4.917616	OH...	-0.0924641
-4.917616	OIHHJJHH	-0.04576056
-4.917616	OIIIIIIIIINK*	-0.04576056
-4.616586	OJ	-0.0825121
-4.917616	OK	-0.09171794
-4.917616	OK,	-0.09221728
-4.917616	OK?	-0.04576056
-4.917616	OMFG,	-0.09100737
-4.616586	OMG	-0.08195307
-4.917616	OMG...they	-0.09197031
-4.218646	ON	-0.0922488
-4.440495	ONE	-0.2366726
-4.616586	ONLY	-0.08687358
-2.56159	OP	-0.2637185
-3.963373	OP!	-0.3494494
-4.917616	OP!!	-0.04576056
-4.917616	OP'S	-0.0827162
-3.616586	OP's	-0.09113376
-3.304832	OP,	-0.296448
-3.169428	OP.	-0.5825215
-4.917616	OP...	-0.09221728
-4.917616	OP....also	-0.09213322
-4.218646	OP:	-0.3240463
-4.917616	OP;	-0.09203338
-4.917616	OP=Better	-0.09127595
-3.917616	OP?	-0.744444
-4.616586	OP??	-0.04574885
-4.917616	OPinion?	-0.04576056
-4.917616	OPium?	-0.04576056
-4.315556	OPs	-0.09243786
-4.917616	OPs.	-0.04576056
-4.616586	OR	-0.09234858
-4.917616	OTHER	-0.09245886
-4.917616	OUT	-0.0924641
-4.917616	OUT.	-0.04576056
-4.616586	OVER	-0.09109163
-4.917616	Oat	-0.09245886
-4.917616	Oath.	-0.09229082
-4.917616	Oatmeal	-0.04576056
-4.917616	Oatmeal,	-0.09239585
-4.917616	Oatmeal?	-0.04576056
-4.440495	Obama	-0.1899894
-4.917616	Obama's	-0.09245361
-4.917616	Obama's.	-0.090902
-4.917616	Obito	-0.09244311
-4.917616	Obligatory	-0.0924641
-4.917616	Octopus	-0.08782981
-4.917616	Octopus:	-0.09183363
-4.616586	Odd	-0.09243259
-4.440495	Oddly	-0.09229608
-4.917616	Odds	-0.09244835
-3.963373	Of	-0.1712781
-3.399102	Oh	-0.2618896
-3.838434	Oh,	-0.138698
-4.616586	Oh.	-0.2852554
-4.616586	Oh...	-0.09216473
-4.917616	Ohio,	-0.09185991
-4.917616	Oj	-0.08782981
-4.440495	Ok	-0.04419094
-4.440495	Ok,	-0.09085985
-4.616586	Okay	-0.04573131
-4.072518	Okay,	-0.04268628
-4.440495	Old	-0.09151805
-4.917616	Old.	-0.0827162
-4.917616	Olds	-0.0922488
-4.616586	Olives	-0.2852554
-4.218646	Omg	-0.09230133
-4.917616	Omg.	-0.0827162
-3.741524	On	-0.1970128
-4.917616	On.	-0.0924641
-4.616586	Once	-0.08168405
-3.575193	One	-0.5308892
-4.616586	Ones	-0.3317016
-4.616586	Onions	-0.2852554
-4.917616	Onions.	-0.04576056
-3.687167	Only	-0.1310253
-4.616586	Ooh	-0.08901154
-4.917616	Ooh!	-0.09157592
-4.917616	Ooh,	-0.0924641
-4.917616	Oohhhhh	-0.09229607
-4.917616	Oooooh	-0.0924641
-4.917616	Ooooohmyufjdnrmr	-0.04576056
-4.917616	Ooops.	-0.04576056
-4.917616	Oops	-0.09219101
-4.917616	Oops,	-0.090902
-4.440495	Oops.	-0.04498232
-3.771488	Op	-0.2655609
-4.917616	Op's	-0.09244835
-4.917616	Op?	-0.04576056
-3.085107	Open	-1.914785
-4.917616	Opera	-0.0924641
-4.440495	Optic	-0.08610178
-3.326551	Or	-0.1092144
-4.616586	Or,	-0.09188093
-3.662343	Orange	-0.3911812
-4.616586	Oranges	-0.08102154
-4.616586	Oranges.	-0.2852554
-4.917616	Oranges:	-0.0924641
-4.917616	Oranges?	-0.04576056
-4.917616	Order	-0.09187043
-4.917616	Order*	-0.04576056
-4.917616	Ordered	-0.0915917
-4.917616	Oreo	-0.0924326
-4.616586	Oreo's	-0.2852554
-4.917616	Oreo's.	-0.04576056
-3.963373	Oreos	-0.9924964
-4.440495	Oreos.	-0.1899894
-4.917616	Oreos?	-0.09244835
-4.917616	Original	-0.09244311
-4.917616	Original,	-0.09245886
-4.917616	Originally	-0.08228107
-4.917616	Orphan	-0.09244835
-4.917616	Ortolan	-0.04576056
-4.616586	Other	-0.09241684
-4.917616	Other:	-0.0924641
-4.917616	Otherwise	-0.09245361
-4.917616	Otherwise,	-0.0924011
-4.917616	Otter	-0.0924641
-4.917616	Ouch.	-0.0827162
-4.616586	Our	-0.09242734
-4.917616	Out	-0.08707032
-4.072518	Over	-0.08953516
-4.917616	OverRice	-0.09217
-4.917616	Own	-0.09244311
-4.917616	Owww	-0.0924641
-4.917616	Oxygen,	-0.09245361
-4.917616	Oyster	-0.04576056
-4.917616	Oysters	-0.04576056
-4.917616	Oysters.	-0.04576056
-4.315556	P	-0.04571379
-4.917616	P*	-0.09202813
-4.616586	P,	-0.3266449
-4.616586	P.	-0.09243784
-4.440495	P.S.	-0.08260344
-4.917616	P.s.	-0.090902
-4.616586	PATATO	-0.04571377
-4.917616	PATCH	-0.09245886
-4.917616	PB&J?	-0.04576056
-4.917616	PEACE	-0.09127595
-4.917616	PEBBLES!	-0.04576056
-4.917616	PENIS!	-0.04576056
-4.616586	PEOPLE	-0.09241684
-4.616586	PHONE	-0.2852554
-4.917616	PHONE!?	-0.04576056
-4.917616	PHONE.	-0.04576056
-4.917616	PHONE?	-0.04576056
-4.917616	PHONE??!?	-0.04576056
-4.616586	PICKLES	-0.04571377
-4.917616	PICKLES!!!!!!!!!!!!	-0.04576056
-4.917616	PICKLES?	-0.04576056
-4.917616	PICS	-0.04576056
-4.917616	PICTURES	-0.0924641
-4.917616	PLAIN.	-0.0924641
-4.440495	PLEASE	-0.09238535
-4.917616	PLS	-0.04576056
-4.917616	PLUS	-0.0924641
-4.917616	PM	-0.0913128
-4.917616	POOFS	-0.04576056
-4.917616	POP	-0.09243786
-4.917616	POPULAR	-0.04576056
-4.616586	POST	-0.09245359
-4.616586	POTATOES	-0.2852554
-4.440495	PS	-0.08210367
-4.917616	PUDDING.	-0.04576056
-4.917616	PUNCH	-0.09235384
-4.616586	PUT	-0.09243259
-4.917616	Pad	-0.0924641
-4.917616	Paella	-0.04576056
-4.616586	Paging	-0.08227567
-4.917616	Pakistan,	-0.09186517
-4.917616	Pale.	-0.04576056
-4.917616	Pan	-0.09223304
-3.917616	Pancakes	-0.5080816
-4.917616	Pancakes:	-0.09183363
-4.917616	Pancakes?	-0.04576056
-4.917616	Panda	-0.0924641
-4.616586	Paper	-0.08782449
-4.917616	Papya...	-0.04576056
-4.917616	Parasite	-0.0924641
-4.917616	Parents	-0.09223829
-4.072518	Parmesan	-0.2419165
-4.917616	Parmesean	-0.09238534
-4.917616	Part	-0.08707032
-4.917616	Pass,	-0.08793593
-4.917616	Passion	-0.09245886
-4.917616	Passionfruit.	-0.04576056
-4.218646	Pasta	-0.1182708
-4.917616	Pasta,	-0.09245886
-4.917616	Paste	-0.09217
-4.917616	Patanones	-0.08782981
-4.917616	Pate	-0.04576056
-4.917616	Patella	-0.0924641
-4.616586	Patrick	-0.2852554
-4.917616	Patrick!	-0.04576056
-4.440495	Patrick,	-0.0923696
-4.315556	Patrick.	-0.3681699
-4.917616	Patrick13.	-0.04576056
-4.917616	Paul!	-0.04576056
-4.917616	Pavlova	-0.08573401
-4.917616	Pavlova,	-0.09244835
-4.917616	Peach	-0.09212796
-4.917616	Peaches	-0.08573401
-3.315556	Peanut	-0.8644322
-4.917616	Peanuter	-0.09207542
-4.917616	Peanuter?	-0.09220152
-4.917616	Peanuts.	-0.04576056
-4.917616	Pears	-0.04576056
-4.917616	Peas?	-0.04576056
-4.917616	Peassoup	-0.08782981
-4.440495	Pebbles	-0.6183879
-4.917616	Peels	-0.04576056
-4.917616	Peep...	-0.09220677
-4.917616	Peeps!	-0.04576056
-4.917616	Peer-reviewed,	-0.0924641
-4.917616	Penis	-0.08782981
-4.917616	Pennsylvania...	-0.04576056
-4.917616	Penotti	-0.08782981
-4.917616	Penut	-0.0924116
-4.014526	People	-0.08384229
-4.917616	Peperoni	-0.0924326
-3.917616	Pepper	-0.1620059
-4.616586	Peppermint	-0.09244309
-4.917616	Pepperoni	-0.04576056
-4.917616	Peppers	-0.09237485
-4.616586	Pepsi	-0.0457547
-4.917616	Pepto-Bismol.	-0.04576056
-4.616586	Perfect.	-0.03488597
-4.917616	Perhaps	-0.09223304
-4.616586	Persian	-0.08781388
-4.917616	Persians	-0.09241685
-4.917616	Perso:	-0.04576056
-4.917616	Personal	-0.0924641
-4.917616	Pesto,	-0.09245886
-4.917616	PhD.	-0.04576056
-4.917616	Phelps	-0.08707032
-4.917616	Pherae,	-0.09212796
-4.917616	Pherae.	-0.04576056
-4.616586	Philippine	-0.09191773
-4.139464	Philippines	-0.1491361
-4.315556	Philippines,	-0.08307581
-4.616586	Philippines.	-0.0457547
-4.917616	Philippines?	-0.09245886
-4.917616	Phillipines	-0.09187043
-4.917616	Phillipines.	-0.09224354
-4.917616	Pho.	-0.04576056
-4.917616	Phones	-0.09050664
-4.616586	Pickled	-0.09245884
-4.917616	Pickled,	-0.09242211
-4.072518	Pickles	-0.2694484
-4.917616	Pickles.	-0.04576056
-4.917616	Pickles:	-0.0924116
-4.139464	Pics	-0.7082713
-4.616586	Pie	-0.04476554
-4.917616	Pie!!!	-0.04576056
-4.917616	Pie.	-0.04576056
-4.917616	Pierogies	-0.04576056
-4.917616	Pilaf.	-0.04576056
-4.917616	Pilipino	-0.0918862
-4.917616	Pilipino."	-0.0924641
-4.917616	Pineapple	-0.04576056
-4.917616	Pineapple.	-0.04576056
-4.917616	Pinoy	-0.09245886
-4.917616	Pinoys	-0.08885276
-4.917616	Piped	-0.09213322
-4.917616	Pistachio	-0.09237485
-4.315556	Pixie	-0.09244836
-3.519676	Pizza	-0.5662619
-4.616586	Pizza,	-0.08587793
-4.072518	Pizza.	-0.3238107
-4.917616	Pizza:	-0.09183363
-4.917616	Pizza?	-0.0924641
-4.917616	Placenta	-0.04576056
-4.440495	Plain	-0.2365203
-4.917616	Play	-0.0924641
-3.687167	Please	-0.1013106
-4.917616	Please,	-0.09150752
-4.616586	Please.	-0.04524577
-4.616586	Plenty	-0.3265651
-4.616586	Plot	-0.09244834
-4.440495	Pls	-0.09167061
-4.917616	Pls,	-0.09220677
-4.315556	Plus	-0.0724257
-4.917616	Plzdapit	-0.04576056
-4.917616	Pm	-0.0913128
-4.917616	Pocky	-0.0924641
-4.616586	Poland	-0.33136
-4.616586	Pomegranate	-0.09243784
-4.917616	Pomegranate)	-0.09107585
-4.917616	Pometranate	-0.04576056
-4.917616	Poop	-0.04576056
-4.917616	Poor	-0.09233809
-4.218646	Pop	-0.1731276
-4.616586	Pop!	-0.2852554
-4.139464	Popcorn	-0.2335145
-4.917616	Popcorn.	-0.04576056
-4.917616	Pope	-0.09201235
-4.440495	Popeye	-0.08967257
-4.917616	Popeye's	-0.09210169
-4.917616	Popsicle.	-0.04576056
-4.917616	Popsicles	-0.04576056
-4.917616	Poptart.	-0.04576056
-4.616586	Poptarts	-0.2852554
-4.917616	Poptarts,	-0.0924641
-4.917616	Por	-0.0924641
-4.616586	Pork	-0.09157065
-4.917616	Pork,	-0.09244835
-4.917616	Porque	-0.09184414
-4.917616	Porridge.	-0.04576056
-4.917616	Porridge/oatmeal	-0.04576056
-4.917616	Portuguese	-0.09244311
-4.917616	Possibly.	-0.0922593
-4.917616	Posting	-0.0897254
-4.072518	Potato	-0.2837812
-4.616586	Potato.	-0.2852554
-4.917616	Potato?	-0.09244311
-4.917616	Potatochips.	-0.04576056
-4.616586	Potatoes	-0.04059105
-4.917616	Potatoes,	-0.09228031
-4.917616	Potatoes.	-0.0827162
-4.917616	Potatos.	-0.09230658
-4.616586	Potted	-0.3318959
-4.315556	Potter	-0.09160749
-4.917616	Pour	-0.09143911
-4.616586	Poutine	-0.04572546
-4.616586	Poutine.	-0.04572546
-4.917616	Powder?	-0.04576056
-4.917616	Powdered	-0.09242211
-4.917616	Powerade	-0.04576056
-4.917616	President	-0.08707032
-3.917616	Pretty	-0.2404915
-4.917616	Pretty...	-0.0924641
-4.917616	Pringles	-0.08782981
-4.917616	Pringles.	-0.09158118
-3.771488	Probably	-0.08707032
-4.616586	Problem	-0.08720318
-4.917616	Profit!	-0.04576056
-4.917616	Promoting?	-0.0924641
-4.917616	Pronounced	-0.08927608
-4.917616	Props	-0.08618701
-4.616586	Protein	-0.09240633
-4.917616	Ps-OP	-0.09232758
-4.917616	Pshhh,	-0.0924641
-3.771488	Pudding	-0.563919
-4.139464	Pudding.	-0.6622721
-4.917616	Pudding...	-0.04576056
-4.917616	Pudding....	-0.0924641
-4.917616	Pudding](http://www.foodnetwork.com/recipes/marcela-valladolid/mexican-rice-pudding-arroz-con-leche-recipe.html)	-0.09197031
-4.917616	Pudding](https://www.minuterice.com/en-us/recipes/13674/PumpkinPieRicePudding.aspx)	-0.04576056
-4.616586	Puerto	-0.09245884
-4.616586	Puffed	-0.3274308
-4.440495	Puffs	-0.04572549
-4.917616	Pulled	-0.09239585
-4.616586	Pumpkin	-0.09238008
-4.917616	Punch!	-0.0924641
-4.917616	Punjabi	-0.0924641
-4.917616	Pure	-0.09228031
-4.917616	Push-ups	-0.09236959
-4.440495	Pussy	-0.1899894
-4.616586	Pussy.	-0.2852554
-4.139464	Put	-0.07273348
-4.917616	Putrified	-0.09245886
-4.440495	Putting	-0.08492277
-4.917616	Qdoba	-0.08720851
-4.917616	Quality	-0.09244311
-4.917616	Quesadilla	-0.04576056
-4.616586	Question:	-0.09093887
-4.917616	Quinoa	-0.04576056
-4.440495	Quite	-0.08377804
-4.218646	R	-0.266714
-4.917616	R&D	-0.09245886
-4.616586	R.I.P	-0.04443141
-4.917616	R.I.P.	-0.0924641
-4.917616	RAGRETS	-0.04576056
-4.917616	RASTA	-0.0924641
-4.917616	RAY	-0.09242211
-4.917616	REAL	-0.09127595
-4.917616	REALLY	-0.0915233
-4.917616	REDDIT	-0.0924641
-4.917616	REDDIT'S	-0.0924641
-4.917616	REGRET	-0.09244311
-4.917616	REKT	-0.04576056
-4.917616	REPEAT.	-0.0924116
-4.917616	REPLIES.	-0.09212796
-4.440495	RES	-0.09106532
-4.917616	REVENGE!	-0.04576056
-3.963373	RICE	-0.04561438
-4.917616	RICE!	-0.0827162
-4.917616	RICE!!!	-0.04576056
-4.315556	RICE.	-0.3597436
-4.917616	RICE?!	-0.04576056
-4.917616	RICECREAM!!!	-0.04576056
-4.917616	RIGHT	-0.0924641
-3.963373	RIP	-0.1779864
-4.616586	RIP.	-0.04543303
-4.440495	RIce	-0.2344881
-4.917616	ROBOTS!!!	-0.04576056
-4.917616	Race	-0.09223304
-4.315556	Rainbow	-0.04573133
-4.917616	Raisin	-0.0924641
-4.917616	Rakfisk.	-0.04576056
-4.218646	Ramen	-0.1136291
-4.917616	Ramen,	-0.0924641
-4.616586	Ramen.	-0.08267323
