
\data\
ngram 1=32615
ngram 2=94162
ngram 3=7688

\1-grams:
-3.802842	!	-0.6859767
-4.844235	!!	-0.2991924
-4.668144	!!!	-0.04167371
-5.145265	!!!!!!!!!!!!!!!!!!	-0.04268029
-5.145265	!)	-0.04268029
-5.145265	!.	-0.04268029
-4.668144	!=	-0.08120165
-5.145265	!](http://i.imgur.com/cdec3XO.jpg)	-0.04268029
-5.145265	!](https://www.youtube.com/watch?v=q2T7Pw_ep04)	-0.04268029
-4.242175	"	-0.4379275
-4.844235	"#!"	-0.2991924
-5.145265	"(	-0.08117056
-5.145265	"(Ich)	-0.08121408
-5.145265	")".	-0.04268029
-5.145265	"**T**ot**h**oh**is**os	-0.08121097
-5.145265	"*Jojusostot	-0.08121408
-5.145265	"*anglifierat*"	-0.08084092
-5.145265	"...och	-0.08121097
-5.145265	"...really,	-0.08121408
-5.145265	"...uppf[uh]r	-0.08121408
-5.145265	"/",	-0.07987857
-5.145265	"/r/Sweden	-0.08106485
-5.145265	"/r/alla"?	-0.08121408
-5.145265	"/r/shitamericanssay	-0.07816347
-5.145265	"/s	-0.08072269
-5.145265	"0	-0.08121097
-5.145265	"300"	-0.04268029
-5.145265	"9".	-0.04268029
-5.145265	"A	-0.08116745
-5.145265	"AAAARGH"	-0.08117367
-5.145265	"AL"	-0.07775322
-5.145265	"AN"	-0.07775322
-5.145265	"Achan"	-0.08121408
-5.145265	"Advokat"	-0.07775322
-5.145265	"Ah	-0.08100577
-5.145265	"Ah!	-0.08121097
-5.145265	"Al".	-0.08121408
-5.145265	"Alder	-0.07816347
-4.844235	"Allahu	-0.08121099
-5.145265	"Allt"	-0.07806329
-5.145265	"Almedalsveckan",	-0.08092491
-5.145265	"Alt"	-0.07816347
-4.844235	"America"	-0.07707908
-5.145265	"American	-0.08121408
-5.145265	"Americans	-0.08001261
-5.145265	"Americans"!	-0.08117056
-5.145265	"Amerikanerna	-0.08106174
-5.145265	"BOBÖRORKOK	-0.08121408
-5.145265	"BaconMeat"!!!	-0.08121408
-5.145265	"Beautiful	-0.08121408
-5.145265	"Bobrora	-0.08121408
-5.145265	"Bort	-0.08121408
-5.145265	"Bosnian	-0.08121408
-5.145265	"Brandklipparen"	-0.08121097
-5.145265	"Brödrafolkens	-0.08121408
-5.145265	"BÖRK	-0.08121408
-5.145265	"CoC".	-0.04268029
-5.145265	"Congratulations!	-0.08114569
-5.145265	"Country"	-0.04268029
-5.145265	"Crack",	-0.08121097
-5.145265	"Cut"	-0.04268029
-5.145265	"DAE	-0.08120475
-5.145265	"DAGS	-0.08119854
-5.145265	"Dags	-0.07791298
-5.145265	"Damn	-0.08060753
-5.145265	"Dank"	-0.08080047
-5.145265	"Danmak"	-0.08106796
-5.145265	"Dansk"	-0.04268029
-5.145265	"Danskjavlar	-0.08121408
-5.145265	"Danskjävlar!"	-0.04268029
-5.145265	"Dawn-sk-yeah-vlawr"	-0.04268029
-5.145265	"De	-0.08105552
-5.145265	"Decent	-0.08119543
-5.145265	"Delar	-0.08029616
-5.145265	"Den	-0.07775322
-4.668144	"Det	-0.07649815
-5.145265	"Did	-0.07824798
-5.145265	"Dirty	-0.08121408
-5.145265	"Dodetot"	-0.08112082
-4.844235	"Doesn't	-0.08066046
-5.145265	"Don't	-0.080984
-4.543205	"Du	-0.1905148
-5.145265	"Duck	-0.08121408
-5.145265	"Dumt	-0.08121408
-5.145265	"Edit"	-0.07987545
-5.145265	"Edoditot:"	-0.08052971
-5.145265	"Elk".	-0.04268029
-5.145265	"En	-0.0811488
-5.145265	"Eng"	-0.04268029
-4.844235	"English	-0.0811084
-5.145265	"English"	-0.08121408
-5.145265	"Eva	-0.07860774
-5.145265	"FTFY",	-0.08117677
-5.145265	"Fan	-0.07918584
-5.145265	"Fan,	-0.08082537
-5.145265	"Fika"	-0.08117677
-4.668144	"Fillings	-0.3611297
-5.145265	"Flytta	-0.07857959
-5.145265	"For	-0.07474438
-5.145265	"Fucking	-0.08109594
-5.145265	"Fuktigt"	-0.0811488
-5.145265	"Förliden	-0.08120475
-5.145265	"Gamen"	-0.07860774
-5.145265	"Garmarna"	-0.07785347
-5.145265	"Gilla	-0.08121408
-5.145265	"Glurgh."	-0.04268029
-4.543205	"Good	-0.2743589
-5.145265	"Greater	-0.08121408
-5.145265	"Grimm"	-0.08121408
-5.145265	"Gräfv	-0.08113325
-5.145265	"Hadsch"	-0.08120475
-5.145265	"Hahaha"	-0.08093424
-5.145265	"Hakkaa	-0.08121408
-5.145265	"Hamburger	-0.08121097
-5.145265	"Hampurilais-kastike	-0.07987545
-5.145265	"Hampurilaisen	-0.08121097
-5.145265	"Han	-0.07775322
-5.145265	"Handskas	-0.07987857
-5.145265	"Hantera	-0.08121097
-5.145265	"Har	-0.08106174
-5.145265	"He	-0.08121408
-5.145265	"He'zzaat	-0.07474438
-5.145265	"Hedningarna"?	-0.04268029
-5.145265	"Hehe,	-0.08082537
-5.145265	"Hej	-0.08086581
-5.145265	"Hela	-0.08118921
-5.145265	"Hello,	-0.08003443
-5.145265	"Helvetes	-0.08097778
-5.145265	"Hem-PC-reformen"	-0.08092491
-5.145265	"Heroes	-0.07805703
-4.844235	"Herr	-0.337723
-5.145265	"Hi,	-0.08088759
-5.145265	"Hii	-0.08121408
-5.145265	"Hohahohahoha"	-0.08121408
-5.145265	"Hon	-0.08109283
-4.844235	"How	-0.0769504
-5.145265	"Hygglig	-0.08119543
-5.145265	"Hygglige	-0.08119543
-5.145265	"Höhöhö,	-0.08121408
-4.031322	"I	-0.1999334
-5.145265	"I"	-0.07918897
-4.446295	"I'm	-0.07752758
-5.145265	"I...um...seem	-0.07672118
-5.145265	"IAMAs"	-0.08117677
-5.145265	"IKEA"	-0.08121408
-5.145265	"Iasi"	-0.08119231
-4.844235	"If	-0.08044878
-4.844235	"In	-0.07473493
-5.145265	"Inside	-0.08109594
-5.145265	"Internet	-0.08121408
-5.145265	"Irony"?	-0.08121097
-5.145265	"Island	-0.07806329
-5.145265	"It	-0.07816347
-4.543205	"It's	-0.08023075
-5.145265	"Itot	-0.08121408
-5.145265	"Ja"	-0.04268029
-4.367114	"Jag	-0.232991
-5.145265	"Jag"	-0.08080669
-5.145265	"Jaha,	-0.08121408
-5.145265	"Je	-0.08120786
-5.145265	"Joj	-0.08121408
-5.145265	"Jump!"s	-0.07785347
-5.145265	"Jänkaren"	-0.08121408
-5.145265	"K"	-0.08112703
-5.145265	"Kan	-0.07816034
-5.145265	"Kanskje	-0.0807787
-5.145265	"Karl	-0.08121408
-5.145265	"Knullrufs"	-0.07806329
-5.145265	"Kör	-0.08105864
-5.145265	"Kött"	-0.07816347
-5.145265	"Köttbullar"	-0.08018401
-5.145265	"Låten	-0.08113636
-5.145265	"Ma"	-0.08121408
-5.145265	"Mejmej"	-0.08115502
-5.145265	"Mem"	-0.07775322
-5.145265	"Men	-0.08121408
-5.145265	"Midsomer	-0.08121408
-5.145265	"Minfält".	-0.04268029
-5.145265	"Minijobs"	-0.08092491
-5.145265	"Minna	-0.08121408
-5.145265	"Moderator"	-0.07785347
-5.145265	"Moose",	-0.07783467
-5.145265	"Motion	-0.08121408
-5.145265	"Murcia"	-0.04268029
-5.145265	"Ni	-0.07775322
-4.844235	"No	-0.0806947
-5.145265	"Not	-0.0811519
-5.145265	"Now	-0.07941376
-5.145265	"Nä,	-0.08082537
-5.145265	"Nädå	-0.08085337
-5.145265	"Någon	-0.08121408
-5.145265	"O-formade"	-0.07987857
-4.844235	"OMG	-0.3377168
-5.145265	"Obama,"	-0.08044876
-5.145265	"Obivously."	-0.04268029
-5.145265	"Om	-0.07931387
-5.145265	"Ooooeeeeeeyyyyaaaaah!"	-0.08116434
-5.145265	"Opopishop"	-0.08121408
-5.145265	"Oslo",	-0.07922644
-5.145265	"PLEASE,	-0.08121408
-5.145265	"Paper	-0.08121408
-5.145265	"Pastellfisk."	-0.04268029
-5.145265	"Peppe"	-0.08121408
-5.145265	"Peter	-0.07474438
-4.844235	"Please	-0.08103999
-5.145265	"Politik/Samhälle"	-0.08121408
-5.145265	"Popular"	-0.08118299
-5.145265	"Press	-0.08024632
-5.145265	"Primary	-0.07816347
-5.145265	"På	-0.08121408
-5.145265	"Race	-0.08121408
-5.145265	"Randomly"	-0.08112703
-5.145265	"Rapportturken"	-0.04268029
-5.145265	"Robber	-0.08121408
-5.145265	"Rorövovarore"	-0.04268029
-5.145265	"Rummet	-0.08119854
-5.145265	"Rök	-0.08121408
-5.145265	"SHE-bang",	-0.08049858
-5.145265	"SJW"	-0.07993156
-5.145265	"Screws	-0.08017466
-5.145265	"Sh"	-0.07806329
-5.145265	"Shady	-0.08121408
-5.145265	"Shött"	-0.08105864
-5.145265	"Slut	-0.08121408
-5.145265	"Some	-0.08071335
-5.145265	"Something	-0.08057018
-5.145265	"Southern	-0.08121408
-5.145265	"Speaker	-0.08121408
-5.145265	"Spiced	-0.08121408
-5.145265	"Stellan	-0.08121408
-5.145265	"Stop	-0.08115502
-4.668144	"Suck	-0.2330284
-5.145265	"Svea	-0.08120164
-5.145265	"Swedditörer".	-0.04268029
-4.668144	"Sweden	-0.2341404
-5.145265	"Sweden"	-0.08120475
-4.844235	"Swedish	-0.08121099
-5.145265	"Swedish-German"	-0.08118299
-5.145265	"Sword	-0.07806329
-5.145265	"TMI"	-0.0811146
-5.145265	"TRO	-0.08121408
-5.145265	"Test	-0.08121408
-5.145265	"Thanks,	-0.08121408
-4.103872	"The	-0.2630437
-5.145265	"There	-0.07816347
-5.145265	"Took	-0.0801622
-5.145265	"Trolling	-0.08121408
-5.145265	"True"	-0.08120786
-5.145265	"Tshöt-Bullar"	-0.08112082
-5.145265	"U	-0.08121097
-5.145265	"US	-0.08121097
-5.145265	"Up	-0.08120475
-5.145265	"Va?!"	-0.08107729
-5.145265	"Vackert"?	-0.04268029
-5.145265	"Vad	-0.08099955
-5.145265	"Varsågod	-0.07791298
-5.145265	"Very	-0.08121408
-5.145265	"Vi	-0.0807258
-5.145265	"Visst	-0.08019958
-5.145265	"Välfärd"	-0.07816347
-5.145265	"Välkommen	-0.08024632
-5.145265	"Was"	-0.08102132
-4.668144	"We	-0.07970393
-5.145265	"Welfare	-0.08121408
-5.145265	"Well,	-0.08056707
-4.844235	"What	-0.3312565
-5.145265	"What's	-0.08117677
-5.145265	"Where	-0.07474438
-5.145265	"Winning	-0.08090624
-5.145265	"Wow,	-0.08113015
-5.145265	"Ydslektiker	-0.08029616
-5.145265	"Yorn	-0.08121408
-4.668144	"You	-0.07880157
-5.145265	"You're	-0.07474438
-5.145265	"[Melaninberikad](https://sv.wikipedia.org/wiki/Melaniner)	-0.08121408
-5.145265	"[Paper	-0.08121408
-5.145265	"\"	-0.0811519
-5.145265	"]".	-0.04268029
-5.145265	"a	-0.08118921
-5.145265	"a"	-0.08015908
-5.145265	"ah	-0.08121408
-5.145265	"airplanes".	-0.04268029
-5.145265	"aka"	-0.07816347
-5.145265	"all	-0.08113325
-5.145265	"alollolahohu"	-0.08121408
-5.145265	"also	-0.08117677
-5.145265	"amateur	-0.08121097
-5.145265	"amazing	-0.08119543
-5.145265	"american	-0.08121408
-5.145265	"an"	-0.07716692
-4.668144	"anal"!	-0.08120786
-5.145265	"and	-0.07474438
-5.145265	"and"	-0.04268029
-5.145265	"annektering"	-0.07857959
-5.145265	"annex".	-0.08108973
-5.145265	"apples",	-0.08117677
-5.145265	"as	-0.07824798
-4.668144	"assimilated"?	-0.0422521
-4.844235	"assimilated,"	-0.3347601
-5.145265	"assimilation"	-0.07816347
-5.145265	"au"	-0.08039271
-5.145265	"author"	-0.08118921
-4.844235	"aww"	-0.3345754
-5.145265	"ayy	-0.08121408
-5.145265	"backslang"	-0.04268029
-5.145265	"bad	-0.08113325
-4.844235	"bara	-0.07904531
-5.145265	"bara"	-0.08119854
-5.145265	"be	-0.08044876
-5.145265	"beaner"?	-0.08121408
-5.145265	"bete	-0.0807258
-5.145265	"better",	-0.07625927
-5.145265	"bjork	-0.08121408
-5.145265	"blockas"	-0.08084092
-4.668144	"bork	-0.2343674
-5.145265	"brädgård!"	-0.08117989
-5.145265	"burglarious"	-0.0796041
-5.145265	"bäst"	-0.07783467
-5.145265	"call	-0.08070402
-5.145265	"circlejerk"	-0.08119231
-5.145265	"citizen"	-0.080984
-4.668144	"clever"	-0.3641841
-4.844235	"cockok"	-0.08060133
-5.145265	"cool"	-0.08113015
-5.145265	"coordinator"	-0.07785347
-5.145265	"cousin".	-0.04268029
-5.145265	"crow	-0.08121408
-5.145265	"cut	-0.07474438
-5.145265	"cuz"	-0.08024632
-5.145265	"damp	-0.08120475
-5.145265	"dank	-0.08109594
-5.145265	"de	-0.08121097
-5.145265	"decode"	-0.08018401
-5.145265	"dej"	-0.08094668
-5.145265	"dej".	-0.04268029
-5.145265	"democracy"	-0.07816347
-4.446295	"den	-0.08083471
-4.844235	"denna	-0.08121099
-4.844235	"det"	-0.07756207
-5.145265	"detta"	-0.07775322
-5.145265	"dhen	-0.08121408
-5.145265	"dialects"	-0.08097467
-5.145265	"dialekt"	-0.07918897
-5.145265	"dig"	-0.08121408
-5.145265	"do	-0.07824798
-5.145265	"doesn't	-0.08083781
-5.145265	"don't	-0.08121097
-5.145265	"downvotes".	-0.08102443
-5.145265	"drawn"	-0.07672118
-4.844235	"du	-0.07992534
-5.145265	"du"?	-0.08121408
-5.145265	"dual-command"	-0.07987545
-5.145265	"east	-0.08121408
-5.145265	"edoditot"!	-0.08121408
-5.145265	"eh"...	-0.08101199
-5.145265	"en"	-0.07806329
-5.145265	"encryption"	-0.04268029
-5.145265	"engelskt	-0.08121408
-5.145265	"enklis"	-0.08113325
-5.145265	"er"	-0.07672118
-5.145265	"etottot"	-0.08121408
-5.145265	"ett"	-0.08121408
-5.145265	"everything",	-0.08121097
-5.145265	"examinatorn"	-0.08121408
-5.145265	"expanded"	-0.08121408
-4.844235	"faktoid"	-0.07915775
-5.145265	"feel	-0.08121408
-5.145265	"fiender"	-0.08121408
-5.145265	"fika".	-0.08098089
-5.145265	"fiksu"	-0.08121408
-5.145265	"finland"?	-0.04268029
-5.145265	"fish".	-0.04268029
-5.145265	"fjant"	-0.08108662
-5.145265	"fofamomiloljojenon	-0.08121408
-5.145265	"folk"),	-0.08121408
-5.145265	"folk").	-0.08121408
-5.145265	"folk".	-0.04268029
-5.145265	"foreign	-0.08121408
-5.145265	"free"	-0.08121097
-5.145265	"freedom"	-0.08117056
-5.145265	"friends".	-0.04268029
-5.145265	"fuktigt"	-0.0811488
-5.145265	"fuktigt"?	-0.08116434
-4.844235	"funny	-0.08121099
-4.367114	"fyndiga"	-0.7976133
-5.145265	"födelsedagshälsningar"…	-0.08121408
-5.145265	"gda"	-0.08089691
-5.145265	"gogamommomalolboblolåbobilol"	-0.08119543
-5.145265	"gogamommomelolmomamommoma	-0.08082537
-5.145265	"gogoogoglole"	-0.04268029
-5.145265	"good	-0.08121408
-5.145265	"good,"	-0.08018401
-5.145265	"google	-0.08121408
-4.844235	"grattis"	-0.07767803
-5.145265	"great	-0.08119543
-5.145265	"gråtrunka"	-0.08121097
-5.145265	"guests"	-0.08039271
-5.145265	"gut(s)".	-0.04268029
-5.145265	"hagel"	-0.07816347
-5.145265	"hahaha	-0.08052037
-5.145265	"han	-0.07775322
-5.145265	"have	-0.07716692
-5.145265	"he	-0.08117367
-5.145265	"herp	-0.08121408
-5.145265	"hetast"	-0.07918897
-5.145265	"high/low	-0.08121408
-5.145265	"hobby	-0.08121408
-5.145265	"hoherorrorsosurorfoflolägogetot"!	-0.04268029
-5.145265	"humor"	-0.08120164
-5.145265	"hurr	-0.08121408
-5.145265	"här,	-0.0810804
-4.668144	"i	-0.2343985
-4.367114	"i"	-0.145009
-5.145265	"in"	-0.07783467
-5.145265	"in".	-0.04268029
-4.844235	"internet	-0.08121099
-5.145265	"internetfenomen"	-0.08072269
-5.145265	"is	-0.08017466
-4.668144	"island	-0.361136
-4.844235	"it"	-0.08044255
-5.145265	"its,	-0.08121408
-5.145265	"ja"	-0.08052971
-4.668144	"jag	-0.07754952
-5.145265	"jag"	-0.08121097
-5.145265	"jaha,	-0.07931387
-5.145265	"jobbat".	-0.08121408
-4.844235	"just	-0.3367833
-5.145265	"jämt"	-0.07857959
-5.145265	"jänk(e)"?	-0.0803055
-5.145265	"kaffi"	-0.08121408
-5.145265	"kaja	-0.07775322
-5.145265	"kallar	-0.08045499
-5.145265	"kicked"),	-0.08044876
-5.145265	"knullrufs".	-0.08109906
-5.145265	"kokajoja	-0.08070402
-5.145265	"kokalollolaror	-0.08112703
-5.145265	"kokododenon"	-0.08121408
-5.145265	"kokononsosonontot	-0.08119543
-5.145265	"koordinator"	-0.07816347
-5.145265	"kulturell	-0.08121408
-5.145265	"kuriosa").	-0.04268029
-4.844235	"kör	-0.08115814
-5.145265	"körde	-0.07918897
-5.145265	"körkort",	-0.08084092
-5.145265	"lagom"	-0.07918897
-5.145265	"lalalalalala"	-0.08085025
-5.145265	"landet"	-0.07987857
-5.145265	"le	-0.08113636
-5.145265	"le"	-0.07816347
-5.145265	"learning	-0.08121408
-5.145265	"learning"	-0.08087825
-5.145265	"lesbisk".	-0.04268029
-5.145265	"linguist"	-0.08117677
-4.844235	"linguist"?	-0.04267351
-5.145265	"lololol"?	-0.04268029
-5.145265	"lololololololol"	-0.04268029
-5.145265	"längre	-0.08094668
-5.145265	"may-mays"?	-0.04268029
-5.145265	"mejmej",	-0.07987857
-5.145265	"mejmej"?	-0.08121408
-5.145265	"mejmejs	-0.07987857
-4.844235	"mem"	-0.07788794
-5.145265	"mem"?	-0.04268029
-5.145265	"meme"	-0.08052971
-5.145265	"memer"	-0.07816034
-5.145265	"men	-0.08121408
-5.145265	"mig"	-0.04268029
-5.145265	"miim".	-0.08120475
-5.145265	"mjukost"	-0.04268029
-5.145265	"mob"	-0.07987857
-5.145265	"momacocka"?	-0.04268029
-5.145265	"momacockoka",	-0.08119543
-5.145265	"more	-0.08120786
-5.145265	"morgon"	-0.08095601
-5.145265	"männen	-0.08119543
-5.145265	"nedärvd	-0.08121408
-5.145265	"neutral	-0.08116745
-4.844235	"neutral"	-0.07801321
-5.145265	"neutral".	-0.04268029
-5.145265	"night"	-0.07806329
-5.145265	"no	-0.08121408
-5.145265	"nonchalant"?	-0.04268029
-5.145265	"normal"	-0.0796041
-4.543205	"not	-0.07654842
-5.145265	"nu	-0.07775322
-5.145265	"nutsack"	-0.08055773
-5.145265	"något	-0.07918897
-4.242175	"o"	-0.1235337
-5.145265	"o".	-0.04268029
-4.844235	"o"s	-0.07684994
-5.145265	"obfuscated".	-0.08121408
-5.145265	"officiell"	-0.08121097
-5.145265	"oh	-0.08120786
-5.145265	"oh"	-0.08121408
-4.844235	"oh,	-0.3356605
-5.145265	"omtagningar"	-0.07857959
-5.145265	"on"	-0.08121408
-5.145265	"ordblind"	-0.07783467
-5.145265	"pickled	-0.08121408
-5.145265	"pig	-0.08121408
-5.145265	"pirate	-0.08121097
-5.145265	"pirate"	-0.08117677
-5.145265	"please	-0.08119231
-5.145265	"please,	-0.08103376
-5.145265	"policies"	-0.08018401
-5.145265	"populo"/"people"	-0.07860774
-5.145265	"populolusos	-0.08121408
-5.145265	"pratar"	-0.04268029
-5.145265	"predatory"	-0.07785347
-4.844235	"prenumerera"	-0.08002198
-5.145265	"protester"	-0.07918897
-5.145265	"proven"?	-0.04268029
-5.145265	"pure"	-0.08120475
-4.844235	"pöbel"	-0.07904531
-5.145265	"pöbeln",	-0.07918897
-5.145265	"race-traitor".	-0.08100577
-4.844235	"real"	-0.3377199
-5.145265	"rebelliska	-0.08120786
-5.145265	"report"	-0.08104309
-4.668144	"ringa	-0.2339599
-5.145265	"river",	-0.08018401
-5.145265	"robber	-0.08121097
-5.145265	"roliga"	-0.0807258
-4.844235	"ropa	-0.3357385
-5.145265	"roredoddoditot.cocomom/ror/soswowedodisoshohcocopopypopasostota"	-0.08121097
-5.145265	"rorövovarorsospoproråkok"	-0.08120786
-5.145265	"rövar	-0.08121408
-5.145265	"rövar"	-0.08085025
-5.145265	"rövar-språket"	-0.08071335
-4.844235	"rövarspråk"	-0.0806698
-5.145265	"s"	-0.08121408
-5.145265	"s";	-0.08107418
-5.145265	"safe	-0.08121408
-5.145265	"saftig	-0.08121408
-5.145265	"samordnare".	-0.08121408
-5.145265	"seals"	-0.04268029
-5.145265	"search	-0.08121097
-5.145265	"see"	-0.08121097
-5.145265	"sexualizing	-0.08121408
-5.145265	"sgu"	-0.08109283
-5.145265	"she	-0.08121408
-5.145265	"shebang"	-0.07857959
-5.145265	"shäbang".	-0.04268029
-5.145265	"shəbang"	-0.08084092
-5.145265	"si"	-0.07860774
-4.844235	"ska	-0.07859211
-5.145265	"skjuta	-0.08121408
-5.145265	"skyddade"	-0.08121408
-5.145265	"skämten"	-0.07775322
-5.145265	"slumpmässigt"	-0.08120164
-4.844235	"sluta	-0.337723
-5.145265	"slutta"	-0.07806329
-4.668144	"smart"	-0.2343519
-4.446295	"smarta"	-0.3595315
-5.145265	"snälla	-0.08121408
-5.145265	"some	-0.08120786
-5.145265	"something	-0.07914837
-4.668144	"sosmomarortota"	-0.2344638
-5.145265	"sospopecocifofikok"	-0.08096534
-5.145265	"southern"	-0.08121408
-5.145265	"spam"	-0.08084092
-5.145265	"sparkad"	-0.08121408
-5.145265	"speak	-0.08107729
-5.145265	"specifik"	-0.07918897
-5.145265	"speeding"?	-0.04268029
-5.145265	"stockholmare".	-0.04268029
-5.145265	"stop"?	-0.04268029
-5.145265	"strykejernet".	-0.08121408
-5.145265	"subreddits"	-0.07785347
-5.145265	"suck	-0.08110838
-5.145265	"suction	-0.07987545
-5.145265	"svenska"	-0.08029616
-5.145265	"svåra"	-0.08121408
-5.145265	"svåra/nya"	-0.08121408
-5.145265	"swedish	-0.08121408
-5.145265	"syra"?	-0.08116434
-5.145265	"särskild"	-0.07918897
-5.145265	"ta	-0.08094357
-5.145265	"taffatlek,"	-0.07785347
-5.145265	"telephone	-0.08070402
-5.145265	"test	-0.080984
-5.145265	"thank	-0.08121408
-5.145265	"thanks",	-0.07941376
-5.145265	"that"	-0.07806329
-4.844235	"the	-0.08076315
-5.145265	"the"	-0.08085337
-5.145265	"the,	-0.08003443
-5.145265	"there's	-0.08100577
-4.844235	"too	-0.08111773
-5.145265	"totrorainon".	-0.04268029
-5.145265	"totysostota	-0.08121408
-5.145265	"train"	-0.08120786
-5.145265	"uh"	-0.08102754
-5.145265	"unkna	-0.08121408
-5.145265	"upbörk"	-0.08102132
-5.145265	"urkul"	-0.07775322
-5.145265	"ursinnigt	-0.08121408
-5.145265	"uuuh,	-0.07625927
-5.145265	"variant":	-0.08118299
-4.668144	"varsågod"	-0.2307615
-5.145265	"vegetables	-0.08121408
-5.145265	"vision	-0.08121408
-5.145265	"visste	-0.08121408
-5.145265	"vunnit"	-0.08084092
-5.145265	"väderflyktingar",	-0.08092491
-5.145265	"välfärd"	-0.08091868
-5.145265	"välfärdsspel"	-0.08121408
-5.145265	"we	-0.08001261
-5.145265	"weather	-0.08121408
-4.668144	"well"	-0.07622784
-5.145265	"what	-0.07816347
-5.145265	"work-life	-0.08121408
-5.145265	"works".	-0.04268029
-5.145265	"worst"	-0.08112703
-5.145265	"writer,	-0.08121408
-5.145265	"yes",	-0.08044876
-5.145265	"yes."	-0.04268029
-4.668144	"you	-0.2344638
-4.668144	"you're	-0.23447
-5.145265	"yoyanonkok"	-0.04268029
-5.145265	"zero-vision"	-0.0796041
-5.145265	"ÄH	-0.08121408
-5.145265	"Älgdräparen"	-0.08121408
-5.145265	"Ät	-0.08121408
-5.145265	"Åh	-0.08119231
-5.145265	"Åtta",	-0.08121408
-5.145265	"Ö	-0.07783467
-5.145265	"Ö",	-0.08119854
-5.145265	"Öst	-0.08121408
-5.145265	"Øl,	-0.08121408
-4.844235	"å"	-0.3365247
-5.145265	"å".	-0.04268029
-4.446295	"ö	-0.3527138
-5.145265	"ö"	-0.08119854
-5.145265	"고질/저질"	-0.08001261
-5.145265	"안녕하세요."	-0.04268029
-4.668144	#	-0.08118611
-5.145265	#!"	-0.04268029
-5.145265	#**"ANAL"	-0.07775322
-5.145265	#***le	-0.08121408
-5.145265	#**GLAD	-0.08121408
-4.543205	#1	-0.07855458
-5.145265	#17	-0.08061065
-5.145265	#21	-0.08121408
-5.145265	#BÖRK!	-0.04268029
-5.145265	#För	-0.08120164
-5.145265	#Hatanäthatare	-0.04268029
-5.145265	#In	-0.08098711
-5.145265	#Rorekoktot	-0.04268029
-5.145265	#UNKET	-0.04268029
-5.145265	#VAD	-0.08120475
-5.145265	#[TRIGGERED]	-0.04268029
-5.145265	#barasverigegrejer	-0.04268029
-4.844235	#dankness.	-0.2991924
-5.145265	#ingenstalman	-0.04268029
-5.145265	#ingenöverbron	-0.04268029
-5.145265	#inteallakaroliner	-0.04268029
-5.145265	#lolåtot	-0.08119231
-5.145265	#nonugogälollolerordodetot	-0.08121408
-5.145265	#nummer	-0.08114569
-5.145265	#sosvovenonsoskokakokododsospoproråkoketot2015	-0.04268029
-5.145265	#stoppanäthatet	-0.04268029
-5.145265	#totaövoverorroredoditot	-0.08121408
-4.844235	$10	-0.08117368
-5.145265	$10,000	-0.07806329
-4.844235	$2	-0.08117679
-5.145265	$20	-0.07785347
-5.145265	$3.99	-0.04268029
-5.145265	$63	-0.0796041
-5.145265	%	-0.08118921
-5.145265	%30	-0.07805703
-4.367114	&	-0.08084714
-4.446295	&#3232;_&#3232;	-0.3209792
-5.145265	&#9654;](http://sbtl.tv/_r3bv2ld?feature=playlist)	-0.04268029
-5.145265	&#9654;](http://sbtl.tv/_r3fq2zb?feature=playlist)	-0.04268029
-5.145265	&quot;enklis&quot;	-0.08121408
-5.145265	'	-0.04268029
-5.145265	''I	-0.08109283
-5.145265	'-ay'.	-0.08101199
-5.145265	'68.	-0.08100577
-5.145265	'Are	-0.07824798
-5.145265	'B',	-0.08060753
-5.145265	'Bat	-0.08121408
-5.145265	'Cause	-0.08121408
-5.145265	'Come	-0.08120164
-5.145265	'Diskussion'	-0.04268029
-5.145265	'Don't	-0.08119854
-5.145265	'Dänsk	-0.08121408
-5.145265	'Get	-0.08070402
-5.145265	'Hae	-0.08121097
-5.145265	'I'	-0.08049858
-5.145265	'Kappale'	-0.08092491
-5.145265	'Leathery	-0.08121408
-5.145265	'Lepakkomies',	-0.08092491
-5.145265	'MURICA	-0.08121408
-5.145265	'MURICA!	-0.08121408
-5.145265	'MURICA!](http://media.giphy.com/media/x6w2O5A1ITrOg/giphy.gif)	-0.04268029
-5.145265	'MURICA,	-0.08018401
-5.145265	'MURICA.	-0.04268029
-5.145265	'Meeksä?'.	-0.08113325
-5.145265	'Menetkö	-0.08121408
-4.844235	'Murica	-0.07959164
-5.145265	'Murica!!	-0.08121408
-5.145265	'Murican	-0.08102132
-5.145265	'Muricanness,	-0.07785347
-5.145265	'N'	-0.08121408
-5.145265	'NONA!!	-0.04268029
-5.145265	'Nahkhiirmees',	-0.08092491
-4.844235	'O'	-0.07498726
-5.145265	'O's,	-0.07625927
-5.145265	'P'	-0.07672118
-5.145265	'Piisi'	-0.07806329
-5.145265	'SWARJE!	-0.04268029
-5.145265	'Savupiippu'	-0.08121408
-5.145265	'Scrolling	-0.08113636
-5.145265	'Slut	-0.08121408
-5.145265	'Stadin	-0.08121408
-5.145265	'Sweden	-0.08080981
-5.145265	'The	-0.08121408
-5.145265	'Tuletko	-0.08120164
-5.145265	'Tuu	-0.08121097
-5.145265	'Tuuksmeille?'.	-0.08117367
-5.145265	'Would	-0.07824798
-5.145265	'\2')	-0.04268029
-4.844235	'a	-0.08121099
-5.145265	'a'	-0.08108662
-5.145265	'all'	-0.04268029
-5.145265	'and'	-0.08087203
-5.145265	'better'	-0.08086891
-5.145265	'billig'	-0.08121408
-5.145265	'bloody	-0.08121408
-4.844235	'cause	-0.07713243
-5.145265	'cause.	-0.04268029
-4.844235	'cos	-0.07816036
-5.145265	'cos/'cause	-0.08102754
-5.145265	'creek'	-0.08102132
-5.145265	'cross	-0.07474438
-5.145265	'cus	-0.07816347
-5.145265	'em	-0.04268029
-5.145265	'em.	-0.08121408
-5.145265	'every	-0.08119854
-5.145265	'famous'	-0.08121097
-5.145265	'h',	-0.07785347
-5.145265	'hora'	-0.0810151
-5.145265	'huh?'.	-0.04268029
-5.145265	'i'	-0.08120786
-5.145265	'jag'	-0.07918897
-5.145265	'jajaja'	-0.04268029
-5.145265	'just'	-0.08114258
-5.145265	'kurwa'	-0.07860774
-5.145265	'lagerblad'	-0.07785347
-5.145265	'larger	-0.08086891
-5.145265	'merika	-0.04268029
-5.145265	'merikaner	-0.07857959
-5.145265	'merikat	-0.04268029
-4.543205	'o'	-0.1871426
-5.145265	'official'	-0.08114569
-5.145265	'oy'	-0.07987545
-5.145265	'persienner'	-0.08092491
-5.145265	'pisshead'	-0.08018401
-5.145265	'poorly'	-0.08115812
-5.145265	'reading'	-0.08046122
-5.145265	'recently'.	-0.08090003
-5.145265	'rorätottot)	-0.04268029
-4.844235	'rules'	-0.3332333
-5.145265	's/(.)o\1/\1/gi'	-0.04268029
-5.145265	's/([bcdfghjklmnpqrstvwxz])/\1o\1/gi'	-0.04268029
-5.145265	'skog',	-0.08018401
-4.844235	'skägg'.	-0.04264634
-5.145265	'something'	-0.04268029
-5.145265	'the	-0.08121408
-5.145265	'totjojugogoåtottotabobokoksostotävoverorsosalolfofabobetote'	-0.07783467
-5.145265	've	-0.08119854
-5.145265	'x'	-0.08120164
-5.145265	'y'	-0.07816347
-5.145265	'äntera	-0.08117989
-5.145265	'örenta	-0.08121097
-3.969173	(	-0.4068373
-5.145265	("the	-0.08121097
-5.145265	('is')	-0.08121408
-5.145265	((	-0.04268029
-5.145265	((≡ຶ⚲͜≡ຶ))	-0.04268029
-5.145265	(*eksem*,	-0.08121408
-5.145265	(*pronounce	-0.08024632
-5.145265	(*vareviga	-0.08121408
-5.145265	(,	-0.08119543
-5.145265	(,:	-0.04268029
-5.145265	(/ohly)	-0.04268029
-5.145265	(120-150cm	-0.07783467
-5.145265	(:	-0.04268029
-5.145265	(;	-0.04268029
-5.145265	(<3)	-0.08121408
-5.145265	(=gånger)	-0.08121408
-5.145265	(=mask)!	-0.08006871
-4.844235	(???)	-0.08017779
-5.145265	(A	-0.08121408
-4.844235	(A++)	-0.2991924
-4.844235	(Acerbus	-0.3376391
-5.145265	(Alder	-0.08121408
-5.145265	(Alnus)	-0.08121408
-5.145265	(Also	-0.08078803
-5.145265	(And	-0.08113325
-5.145265	(Apparently	-0.08061998
-5.145265	(Atottot	-0.08121097
-5.145265	(Bam	-0.08121097
-5.145265	(Before	-0.07474438
-5.145265	(Behovet	-0.08121097
-5.145265	(Blom).	-0.04268029
-4.668144	(Bonde)	-0.07910153
-5.145265	(BrB	-0.08121408
-5.145265	(CET),	-0.07860774
-5.145265	(Defense	-0.08121408
-5.145265	(Det	-0.07775322
-5.145265	(Did	-0.07914837
-5.145265	(Dit	-0.08121408
-5.145265	(Edit:	-0.08121408
-5.145265	(Eurasia)	-0.04268029
-5.145265	(FSI)	-0.08121408
-5.145265	(Finnarna,	-0.08049858
-5.145265	(Finns	-0.08121097
-5.145265	(Fixed)	-0.04268029
-5.145265	(Gothenburgese).	-0.08121408
-5.145265	(Grammar?	-0.08055462
-5.145265	(Guess	-0.08058886
-5.145265	(Gustav	-0.08119543
-4.844235	(Gustavus	-0.3376951
-5.145265	(Gävle?)!	-0.04268029
-4.031322	(I	-0.201947
-4.844235	(I'm	-0.08096847
-5.145265	(I)	-0.08121097
-5.145265	(I.e.	-0.08115502
-5.145265	(ISO?)	-0.08115502
-5.145265	(Innan	-0.07931387
-4.844235	(It's	-0.0800999
-5.145265	(Ja,	-0.07860774
-5.145265	(Ja.	-0.0803055
-5.145265	(Japanese)	-0.04268029
-5.145265	(Jeg	-0.08103687
-4.668144	(JoJa,	-0.2340159
-5.145265	(KURWA)	-0.08071335
-5.145265	(Killar,	-0.08113947
-5.145265	(Loui	-0.08121408
-5.145265	(May	-0.08019958
-4.844235	(My	-0.08020895
-4.844235	(NoNäsostotanon	-0.08121099
-5.145265	(Nonororrorlolanondod)	-0.08082537
-5.145265	(Nor	-0.08121097
-5.145265	(North	-0.08121408
-5.145265	(Obviously	-0.07914837
-4.668144	(Or	-0.0809809
-5.145265	(Oxenstierna)	-0.08106485
-5.145265	(Poland-Lithuania	-0.07785347
-5.145265	(Proper	-0.08121408
-5.145265	(Ropar	-0.07857959
-5.145265	(Roughly)	-0.08121408
-5.145265	(Ryssland,	-0.08121408
-5.145265	(Sannolikt	-0.08052971
-5.145265	(Size	-0.08121408
-5.145265	(Skoja	-0.08121097
-5.145265	(Skoja,	-0.07918584
-5.145265	(Skum	-0.08121408
-5.145265	(Sorry	-0.0796041
-5.145265	(Standin	-0.08121408
-5.145265	(Sweden).	-0.04268029
-5.145265	(Swedish:	-0.08112082
-5.145265	(Tack	-0.08121408
-4.844235	(That's	-0.08098402
-4.844235	(The	-0.08079116
-5.145265	(Unfortunately	-0.08055462
-5.145265	(Vad	-0.07775322
-5.145265	(Väl:Wel,	-0.08121408
-5.145265	(Västerås	-0.07816347
-5.145265	(We'll	-0.08104931
-5.145265	(Y	-0.08121408
-5.145265	(Y)	-0.04268029
-5.145265	([Reddit	-0.08120164
-5.145265	([Västerås	-0.07816347
-5.145265	(a	-0.08121408
-5.145265	(according	-0.07672118
-5.145265	(age	-0.08121408
-5.145265	(aka	-0.08121408
-4.844235	(although	-0.07937007
-3.999137	(and	-0.06455842
-4.844235	(apart	-0.3370823
-4.844235	(approx	-0.337723
-4.844235	(as	-0.07306905
-5.145265	(at	-0.08110838
-4.844235	(av	-0.08121099
-5.145265	(b	-0.08120164
-4.844235	(back	-0.07467499
-5.145265	(basically,	-0.08121408
-5.145265	(before	-0.08121097
-5.145265	(blowing	-0.08083781
-5.145265	(bun)	-0.04268029
-4.844235	(but	-0.08013105
-5.145265	(bäck),	-0.08120786
-5.145265	(böjt	-0.07783467
-4.844235	(c	-0.08119855
-5.145265	(can	-0.0809529
-5.145265	(chimney)	-0.07816347
-5.145265	(cocaror(cocdodror(cocaror(cocdodror(cocdodror(cocdodror	-0.08121408
-5.145265	(coffee)	-0.08118921
-5.145265	(de	-0.07993156
-4.668144	(den	-0.2337856
-5.145265	(dessa	-0.08114569
-4.668144	(det	-0.2333776
-5.145265	(diacritic)	-0.04268029
-5.145265	(did	-0.07625927
-5.145265	(didn't	-0.08074136
-5.145265	(distributed	-0.08121408
-5.145265	(djur	-0.07860774
-5.145265	(don't	-0.0807258
-5.145265	(dramaten)	-0.07785347
-5.145265	(där	-0.08045499
-5.145265	(däremellan	-0.08019958
-5.145265	(då	-0.08106174
-5.145265	(edit	-0.08117367
-5.145265	(edit:	-0.08121408
-5.145265	(ej	-0.08121408
-5.145265	(eksem,	-0.08121408
-4.668144	(eller	-0.23447
-5.145265	(en	-0.08118299
-5.145265	(especially	-0.08118299
-5.145265	(even	-0.08110838
-5.145265	(extreme	-0.08116434
-5.145265	(fan	-0.07993156
-5.145265	(fast	-0.08105864
-5.145265	(filéer,	-0.08111771
-5.145265	(for	-0.08121097
-5.145265	(forgive	-0.08121408
-5.145265	(former	-0.08120475
-4.844235	(from	-0.08103377
-5.145265	(fysiskt	-0.08121408
-4.844235	(för	-0.08064179
-5.145265	(google	-0.08121408
-5.145265	(gris	-0.08121408
-5.145265	(hade	-0.08103687
-5.145265	(haha	-0.08119231
-4.668144	(har	-0.232679
-5.145265	(hohanon	-0.08119231
-5.145265	(http://i.imgur.com/c9mfb99.jpg)	-0.04268029
-5.145265	(http://sv.wikipedia.org/wiki/Internetfenomen),	-0.0810804
-4.844235	(http://y.cdn-expressen.se/images/e1/8b/e18bdd988ce54e7d99eda3ad3808b248/annan/645@70.jpg)	-0.2991924
-5.145265	(https://upload.wikimedia.org/wikipedia/commons/thumb/2/23/Prinsessan_Christina,_fru_Magnuson.jpg/200px-Prinsessan_Christina,_fru_Magnuson.jpg)	-0.04268029
-5.145265	(https://www.google.se/maps/place/V%C3%A4ster%C3%A5s/@59.624592,16.5450907,12z/data=!3m1!4b1!4m2!3m1!1s0x465e4281455ba9a7:0xbc415db6e2654020),	-0.08118921
-5.145265	(https://www.youtube.com/watch?v=VGicnjLY-Gs)	-0.04268029
-5.145265	(i	-0.08121408
-5.145265	(ibland)	-0.08121408
-5.145265	(ie	-0.08121408
-5.145265	(if,	-0.0796041
-5.145265	(ifrån	-0.08121408
-5.145265	(im	-0.08057018
-5.145265	(in	-0.08051726
-5.145265	(inte	-0.0811519
-5.145265	(inte)	-0.07993156
-5.145265	(it	-0.08097467
-5.145265	(jeg	-0.08103687
-5.145265	(jojagog	-0.08121408
-5.145265	(jokingly)	-0.08110838
-4.844235	(just	-0.08121099
-5.145265	(kristendomen)	-0.08019958
-5.145265	(kusipää	-0.07816347
-5.145265	(lagom)	-0.08094668
-5.145265	(land)	-0.07775322
-5.145265	(ledsen	-0.08087825
-5.145265	(lika	-0.08121097
-5.145265	(lindad	-0.08094668
-5.145265	(literally	-0.08121408
-5.145265	(lol).	-0.04268029
-5.145265	(läs:	-0.08121408
-5.145265	(magnificent)	-0.08121097
-5.145265	(main	-0.08121408
-5.145265	(man/woman)!	-0.04268029
-5.145265	(me	-0.08121408
-5.145265	(meat)	-0.08119543
-4.844235	(men	-0.07911715
-5.145265	(misslyckade)	-0.08121408
-5.145265	(momedod	-0.08121408
-4.668144	(mostly	-0.07437195
-5.145265	(mut	-0.08120475
-5.145265	(my	-0.08113636
-5.145265	(n.b.	-0.08121408
-5.145265	(native),	-0.08121408
-5.145265	(natur,	-0.08121408
-5.145265	(never	-0.08057018
-5.145265	(no,	-0.07625927
-4.844235	(northern)	-0.3343656
-4.844235	(not	-0.07914526
-5.145265	(now	-0.08120786
-5.145265	(nowadays	-0.08061065
-5.145265	(nästan)	-0.0811146
-5.145265	(o.0)7	-0.04268029
-5.145265	(obviously)	-0.07785347
-4.367114	(och	-0.0758661
-4.668144	(of	-0.2280034
-5.145265	(oh,	-0.08044876
-4.543205	(om	-0.1866376
-5.145265	(only	-0.07806329
-5.145265	(oon	-0.08121408
-5.145265	(oporop	-0.08121408
-4.191022	(or	-0.2071227
-5.145265	(our	-0.08121408
-5.145265	(pastries)	-0.07785347
-5.145265	(per	-0.08121408
-5.145265	(poorly	-0.08121408
-5.145265	(popular)	-0.08111149
-5.145265	(practical,	-0.07824798
-5.145265	(preposition)	-0.04268029
-5.145265	(r/all	-0.08121408
-5.145265	(randomized	-0.08119543
-5.145265	(reddit)	-0.08119543
-5.145265	(riksdaler,	-0.08119854
-5.145265	(rorobobboberor	-0.08121408
-5.145265	(rorätottot)(.))	-0.04268029
-5.145265	(rövar)	-0.08089691
-5.145265	(second	-0.07806329
-5.145265	(see,	-0.08098089
-5.145265	(sic)	-0.07474438
-5.145265	(självfallet)	-0.08119854
-5.145265	(skrattar	-0.08121097
-5.145265	(socialister)	-0.08084092
-4.543205	(som	-0.07907654
-5.145265	(stor)	-0.08116434
-5.145265	(sv:	-0.08121408
-5.145265	(svenska,	-0.08121408
-5.145265	(swedish?)	-0.08121408
-5.145265	(så	-0.07931387
-5.145265	(såtillvida	-0.08027124
-4.844235	(thanks	-0.07671805
-5.145265	(that	-0.08028059
-4.844235	(the	-0.0811457
-4.844235	(theoretical,	-0.3376982
-4.668144	(there	-0.2323356
-5.145265	(there's	-0.08097467
-5.145265	(this	-0.08120164
-5.145265	(though	-0.07625927
-5.145265	(three)	-0.08110838
-4.844235	(to	-0.3376516
-5.145265	(tolv	-0.07944809
-5.145265	(tomma	-0.08121408
-5.145265	(trade?)	-0.08120164
-4.844235	(tänkte	-0.3375396
-5.145265	(un)interesting	-0.08120786
-5.145265	(unknowingly,	-0.08121408
-5.145265	(unruly	-0.08120164
-5.145265	(until	-0.08121408
-5.145265	(ur	-0.07904842
-5.145265	(usually	-0.08109906
-5.145265	(utom	-0.08121408
-5.145265	(vad)	-0.07918584
-5.145265	(vaffan	-0.08113636
-5.145265	(varför	-0.07993156
-5.145265	(varg/häst	-0.08121408
-5.145265	(verb),	-0.08099333
-5.145265	(very	-0.0811519
-5.145265	(vet	-0.07922644
-5.145265	(via	-0.08102443
-4.844235	(vilket	-0.07907655
-5.145265	(väldigt	-0.0811519
-5.145265	(water)	-0.08120164
-5.145265	(we	-0.08047678
-5.145265	(what	-0.08003443
-4.446295	(which	-0.0767369
-5.145265	(who	-0.08028059
-5.145265	(with	-0.08121097
-4.668144	(you	-0.2331625
-5.145265	(young/old)	-0.08121408
-5.145265	(Ännu	-0.08121408
-4.844235	(Är	-0.3346724
-5.145265	(Ärede	-0.08121097
-5.145265	(Även	-0.08008742
-5.145265	(Åhå!)	-0.04268029
-5.145265	(älv).	-0.08121408
-5.145265	(är	-0.07816034
-5.145265	(är)"	-0.04268029
-5.145265	(även	-0.08008742
-5.145265	(övningskörning),	-0.08084714
-5.145265	(̲̅	-0.08117056
-5.145265	(っ´ω`c)	-0.04268029
-4.191022	)	-0.9969125
-4.844235	),	-0.08120787
-5.145265	):	-0.04268029
-5.145265	):<	-0.04268029
-4.668144	)[]D	-0.325753
-3.511796	*	-0.08629444
-5.145265	*"internetfenomen*".	-0.04268029
-5.145265	*"the	-0.08121097
-5.145265	*(skrattar	-0.08121408
-5.145265	**"Working	-0.08119543
-5.145265	**&#3232;_&#3232;**	-0.04268029
-4.446295	***	-0.8857583
-5.145265	***********	-0.08080669
-5.145265	*****Liechtenstein	-0.07944809
-5.145265	***1:A	-0.08118299
-5.145265	***Advanced	-0.08121408
-5.145265	***Digg***a	-0.08120786
-5.145265	***JUST	-0.08121097
-5.145265	***VÄLFÄRD!***	-0.04268029
-5.145265	***krystade***	-0.08121408
-5.145265	***missbruk	-0.08029616
-5.145265	***or***	-0.08121408
-4.668144	**-	-0.08003756
-5.145265	**Al**ollo**la**	-0.08121408
-5.145265	**Anyway**,	-0.08121408
-5.145265	**BITTER!**	-0.04268029
-5.145265	**BOOM**	-0.04268029
-4.844235	**Bonus!**	-0.04267351
-5.145265	**DESAMMA!**	-0.04268029
-5.145265	**DO	-0.08116745
-5.145265	**DODANONKOK	-0.08121408
-5.145265	**Danskar**	-0.04268029
-5.145265	**EDIT**	-0.08121408
-5.145265	**ENGLISH,	-0.08121408
-5.145265	**Edoditot:**	-0.04268029
-5.145265	**Ett**	-0.08113636
-5.145265	**Etymology**	-0.04268029
-5.145265	**FRÄSCH**	-0.04268029
-5.145265	**Google	-0.08121408
-5.145265	**HODOR	-0.08120475
-5.145265	**HOHODODOROR	-0.08120786
-5.145265	**IM	-0.08121408
-5.145265	**JAG	-0.08120164
-5.145265	**JUST	-0.08121097
-5.145265	**Jag	-0.07993156
-4.844235	**Jojusostot	-0.3377075
-5.145265	**Klaatu	-0.08121408
-5.145265	**Kränkning	-0.08121408
-5.145265	**NEW	-0.07625927
-5.145265	**NU	-0.08121408
-5.145265	**Ninjaswag_**	-0.08117367
-5.145265	**Noun**	-0.04268029
-5.145265	**PERKELE!!**	-0.04268029
-5.145265	**People	-0.08047678
-5.145265	**QuantoR:**	-0.08118921
-5.145265	**REA**	-0.04268029
-5.145265	**Redigering2:**	-0.08120786
-5.145265	**Redigering3:**	-0.08121408
-5.145265	**Redigering4:**	-0.08006871
-5.145265	**Redigering:**	-0.08120786
-5.145265	**Rähttelze:	-0.08121408
-5.145265	**S**os**t**ot**r**or**an**on**g**og**l**ol**ey**oy	-0.08121097
-5.145265	**SISU?!!!**	-0.08121408
-5.145265	**So	-0.08074136
-5.145265	**TYSK	-0.08121408
-5.145265	**Tankh:**	-0.08121097
-5.145265	**This	-0.07816347
-5.145265	**UPDATE**	-0.08072269
-5.145265	**Unket**	-0.04268029
-5.145265	**Va	-0.08121408
-5.145265	**Vem**	-0.08019958
-5.145265	**Vovi	-0.08103376
-4.844235	**We	-0.08106176
-5.145265	**We**	-0.08001261
-5.145265	**Who**	-0.08028059
-4.844235	**[There	-0.3346756
-5.145265	**[web](//radd.it/r/sweden/comments/301sqr)/	-0.04268029
-4.844235	**a**	-0.08121099
-5.145265	**ab**ob**l**ol**e**	-0.08120475
-5.145265	**ab**oblo**le**	-0.08121097
-5.145265	**all**	-0.08119543
-5.145265	**azisen:**	-0.08117677
-5.145265	**b**ob**e**	-0.08121097
-5.145265	**b**ob**ein**on**g**og	-0.08121408
-5.145265	**c**oc**om**om**m**om**un**on**ic**oc**at**ot**e**	-0.08121408
-5.145265	**d**od**o**	-0.08121097
-5.145265	**danskjävel**	-0.08121408
-4.844235	**eas**os**ier**or	-0.08119855
-5.145265	**ett**	-0.08116123
-5.145265	**g**og**et**ot**s**os	-0.08121097
-5.145265	**g**og**oin**on**g**og	-0.08120475
-5.145265	**g**og**r**or**eat**ot	-0.08121408
-5.145265	**go**go**in**ongo**g**	-0.08121097
-5.145265	**hundar**".	-0.04268029
-4.844235	**is**os	-0.08121099
-4.844235	**it**ot	-0.08121099
-4.844235	**it**ot.	-0.08121099
-4.844235	**it**ot."	-0.2991924
-5.145265	**lynxlynxlyx:**	-0.08079737
-5.145265	**låta**	-0.07816034
-5.145265	**m**om**or**or**e**	-0.08121408
-5.145265	**m**om**os**os**t**ot	-0.08121408
-5.145265	**mo**moso**st**ot	-0.08121408
-5.145265	**norwegian**	-0.08117367
-5.145265	**only**	-0.080984
-5.145265	**p**op**eop**op**l**ol**e**	-0.08121408
-5.145265	**quacks	-0.08024632
-5.145265	**r**or**ead**od	-0.08121097
-5.145265	**smörgåstårta**	-0.07944809
-5.145265	**som**	-0.08093424
-5.145265	**stängde**	-0.08119543
-5.145265	**t**ot**h**oh**e**	-0.08121408
-4.543205	**t**ot**o**	-0.08120476
-5.145265	**that**	-0.08118299
-5.145265	**that**?	-0.08121408
-5.145265	**the	-0.08119543
-4.844235	**to**to	-0.08121099
-5.145265	**two	-0.08121408
-5.145265	**urkundsförfalskning**,	-0.07918897
-5.145265	**w**ow**ay**oy	-0.08120475
-5.145265	**w**ow**it**ot**h**oh**out**ot	-0.08121408
-5.145265	**w**ow**r**or**it**ot**e**	-0.08121408
-5.145265	**who**	-0.08093424
-5.145265	**wink**	-0.08117367
-5.145265	**without	-0.08121408
-5.145265	**y**oy**ou**	-0.08121408
-5.145265	**you	-0.08121408
-5.145265	**your**	-0.08121408
-5.145265	**överstaste**?	-0.04268029
-5.145265	*-em*	-0.07993156
-5.145265	*-oid*:er	-0.08121097
-5.145265	*ASG*	-0.04268029
-5.145265	*Advokaterad*.	-0.04268029
-5.145265	*Alces	-0.08121408
-5.145265	*Allt	-0.08120164
-5.145265	*Alollol	-0.08120164
-5.145265	*BRONKIT!!!*	-0.04268029
-5.145265	*Begränsad	-0.08121408
-5.145265	*Börk	-0.08118921
-5.145265	*COCHOHOOOOOO,	-0.08121408
-5.145265	*Cervus	-0.08121408
-5.145265	*Clears	-0.08121408
-5.145265	*Clupea	-0.08121408
-5.145265	*Dansken	-0.04268029
-5.145265	*DoDanonsoskokenon,	-0.08121408
-4.844235	*Dodetot	-0.08057331
-5.145265	*Där	-0.08119854
-5.145265	*ELVES*	-0.04268029
-5.145265	*En	-0.08120475
-5.145265	*En*	-0.08117367
-5.145265	*English*-language	-0.08120475
-5.145265	*FOFÖRORRORÄDODARORE*,	-0.08110838
-5.145265	*FOFÖRORÄDODARORE	-0.04268029
-5.145265	*Faktoid*	-0.07775322
-5.145265	*Feta*	-0.08108973
-5.145265	*FÖRSTÅR	-0.08120475
-5.145265	*Förtjänst.	-0.04268029
-5.145265	*GRÖT	-0.04268029
-5.145265	*Gasp!*	-0.08062933
-5.145265	*Gener*	-0.04268029
-5.145265	*Genetik*	-0.04268029
-5.145265	*Glögg	-0.04268029
-5.145265	*Gymnasium*	-0.08092491
-5.145265	*Hantera	-0.07816034
-5.145265	*Har	-0.07931387
-5.145265	*Hauptschule*	-0.08121408
-5.145265	*Here's	-0.07474438
-5.145265	*Hint*	-0.04268029
-5.145265	*HoHypoperornoneuroroakokusostotisoskoka	-0.08121408
-5.145265	*Hohätotilola	-0.08121408
-5.145265	*Hålle	-0.08121408
-4.844235	*I	-0.08090004
-4.668144	*It's	-0.3632473
-4.844235	*Jag	-0.08116125
-5.145265	*Joja,	-0.08112082
-5.145265	*Kom	-0.08115502
-5.145265	*Kungligt	-0.08121408
-5.145265	*Liknande*.	-0.04268029
-5.145265	*Loletot	-0.08121097
-5.145265	*Loläror	-0.08120164
-5.145265	*M'urica*	-0.04268029
-5.145265	*M'viking*	-0.04268029
-5.145265	*Mem	-0.04268029
-5.145265	*Memer*	-0.04268029
-5.145265	*Memetik*	-0.04268029
-5.145265	*Memisar	-0.08080669
-5.145265	*Monteringen	-0.08121408
-5.145265	*MÄSSLING!!!*	-0.04268029
-5.145265	*NEKROS!!!!*	-0.04268029
-5.145265	*NoNågogonon	-0.08096534
-5.145265	*Noni	-0.08121408
-5.145265	*Norker*	-0.04268029
-5.145265	*Någonting	-0.08121408
-5.145265	*Om	-0.08027124
-5.145265	*Put	-0.08090624
-5.145265	*Putin*	-0.04268029
-5.145265	*Quick	-0.08120786
-5.145265	*ROT	-0.04268029
-5.145265	*Realschule*	-0.08092491
-5.145265	*Rorövovarorenon	-0.08121408
-5.145265	*Shocking,	-0.0811519
-5.145265	*Snyft	-0.04268029
-5.145265	*SoSenonasostote	-0.08121408
-5.145265	*Stadi*	-0.08102132
-5.145265	*SÅ*	-0.08120786
-5.145265	*Tippar	-0.08121408
-5.145265	*Tips	-0.08121408
-5.145265	*Totacockoka	-0.08121408
-5.145265	*Trådfan	-0.08121408
-5.145265	*UPPRÖSTAR	-0.08120786
-4.844235	*Vi	-0.07985364
-5.145265	*Vitameme	-0.04268029
-4.844235	*Vovi	-0.08102755
-5.145265	*You're	-0.08121408
-5.145265	*[̲̅kr(̲̅	-0.08117056
-5.145265	*^Downvote	-0.08120164
-5.145265	*a	-0.08121408
-5.145265	*actively*	-0.08121408
-5.145265	*ahem*	-0.08121408
-5.145265	*alces	-0.08121408
-5.145265	*alls*.	-0.08106796
-5.145265	*alltid*	-0.0807258
-5.145265	*alnus*,	-0.08024632
-5.145265	*any*	-0.080984
-5.145265	*approaching*	-0.07474438
-5.145265	*are*	-0.08119231
-5.145265	*beskåda	-0.04268029
-5.145265	*bulle*	-0.08121408
-5.145265	*c*	-0.04268029
-4.844235	*can*	-0.3377199
-5.145265	*crickets*	-0.04268029
-5.145265	*crybaby*.	-0.08117056
-5.145265	*curiosity	-0.08121408
-5.145265	*czech*	-0.08097467
-5.145265	*dammigkukfis	-0.04268029
-5.145265	*danska	-0.08121408
-4.844235	*de	-0.08121099
-5.145265	*det*	-0.07918584
-5.145265	*diadem*,	-0.08121408
-5.145265	*do*	-0.08104931
-5.145265	*does*	-0.08105864
-5.145265	*drops	-0.08121097
-5.145265	*du*	-0.08120786
-5.145265	*då*.	-0.0811146
-5.145265	*dåliga*	-0.08120475
-5.145265	*earn*	-0.07474438
-5.145265	*edit*:	-0.08113325
-5.145265	*edit:*	-0.08119854
-5.145265	*edoditot:	-0.08120475
-5.145265	*en	-0.08120475
-5.145265	*en*	-0.07918897
-4.844235	*ett	-0.3377168
-4.844235	*ett*	-0.08117057
-5.145265	*everyone*	-0.08086581
-5.145265	*face*.	-0.07625927
-5.145265	*fantastiskt,	-0.08121408
-5.145265	*far*	-0.08119231
-5.145265	*fermented*	-0.08120475
-5.145265	*finlandssvenskar.*	-0.08090003
-5.145265	*fjällhöga	-0.04268029
-4.844235	*flera	-0.08120166
-5.145265	*for	-0.07474438
-5.145265	*fäller	-0.07904842
-5.145265	*får	-0.08121408
-5.145265	*gem*,	-0.08121408
-5.145265	*gen*	-0.08110838
-5.145265	*gene*.	-0.08105864
-5.145265	*gissar*	-0.07791298
-5.145265	*gogamommomelolmomorormomoror*	-0.08117677
-5.145265	*gogororloloror	-0.08121408
-5.145265	*gotta	-0.0811861
-5.145265	*hela*	-0.08121408
-5.145265	*highly*	-0.08120475
-5.145265	*hopadop*)	-0.08121408
-5.145265	*hundratals*	-0.08108662
-5.145265	*här*	-0.08121408
-5.145265	*intressanta*	-0.08121408
-5.145265	*jag*	-0.07775322
-4.844235	*just	-0.08121099
-5.145265	*jänkare*?	-0.04268029
-5.145265	*k*	-0.04268029
-5.145265	*kanske*	-0.08121408
-5.145265	*klassad*	-0.07918897
-5.145265	*klick	-0.08121408
-5.145265	*klå	-0.08121408
-5.145265	*kokysososeror	-0.08121408
-5.145265	*kolmivaihekilotuntiwattimittari*,	-0.08052971
-5.145265	*kretsar*	-0.07918584
-5.145265	*kumarreksituteskenteleentuvaisehkollismaisekkuudellisenneskenteluettelemattomammuuksissaansakaankopahan*.	-0.04268029
-5.145265	*kött*	-0.08121408
-5.145265	*leaves	-0.08121408
-5.145265	*lik*t	-0.07904842
-5.145265	*madly	-0.08121408
-5.145265	*majmaj	-0.04268029
-5.145265	*mejmejs	-0.04268029
-5.145265	*mem	-0.04268029
-4.844235	*mem*	-0.07741786
-5.145265	*meme*	-0.07918897
-5.145265	*memerate	-0.04268029
-5.145265	*mems	-0.04268029
-5.145265	*men	-0.07816034
-5.145265	*miims	-0.04268029
-5.145265	*modem*),	-0.07860774
-5.145265	*momuroricoca	-0.04268029
-5.145265	*moulded*	-0.08090624
-5.145265	*mus	-0.08121408
-5.145265	*my*	-0.08116745
-5.145265	*mäm*	-0.04268029
-5.145265	*même	-0.04268029
-5.145265	*never*	-0.08019958
-5.145265	*nickar	-0.08121408
-5.145265	*någonting*	-0.04268029
-5.145265	*obligatorisk	-0.08116745
-5.145265	*otyg*	-0.07944809
-5.145265	*our*	-0.08120164
-5.145265	*outsider*.	-0.08120164
-5.145265	*picks	-0.08083781
-4.844235	*pling	-0.337723
-5.145265	*quality*	-0.08121408
-5.145265	*racist*!	-0.04268029
-5.145265	*rasism*.	-0.04268029
-5.145265	*rasist	-0.04268029
-5.145265	*real*	-0.08121408
-5.145265	*redigerat:	-0.08121408
-5.145265	*respect*	-0.07785347
-5.145265	*rorododnonaror*	-0.04268029
-5.145265	*rultiga	-0.08120786
-5.145265	*ryser*	-0.04268029
-5.145265	*rörelseuppskattningssökintervallsinställningar*,	-0.08112082
-5.145265	*sew*	-0.0811146
-4.844235	*sigh*	-0.04142512
-5.145265	*snille*	-0.08121408
-5.145265	*sniæld*,	-0.07775322
-5.145265	*snäll*	-0.07783467
-5.145265	*sospopelolaror	-0.08121408
-5.145265	*sostotämommomeror	-0.08121408
-5.145265	*special*	-0.08121408
-5.145265	*strangely*	-0.08039271
-5.145265	*strangley*,	-0.07785347
-5.145265	*sweden*	-0.08112082
-5.145265	*swedish*.	-0.04268029
-5.145265	*sy*	-0.07806329
-5.145265	*tar	-0.08121408
-5.145265	*terrible*	-0.08061065
-5.145265	*this	-0.07816347
-5.145265	*tillfälligt	-0.04268029
-5.145265	*too	-0.08121408
-5.145265	*total*	-0.08121408
-5.145265	*tre	-0.08089069
-5.145265	*turns	-0.08113636
-5.145265	*twitch*	-0.04268029
-5.145265	*unken	-0.04268029
-5.145265	*unverisum	-0.08121097
-5.145265	*uttag*.	-0.04268029
-5.145265	*var	-0.08121408
-5.145265	*verkligen*	-0.08120475
-5.145265	*vi	-0.08116434
-5.145265	*växel*	-0.07918897
-5.145265	*way*	-0.08119543
-5.145265	*wee*	-0.08110838
-5.145265	*were	-0.08121408
-5.145265	*whipes	-0.08121408
-5.145265	*will*	-0.08120475
-5.145265	*years*,	-0.08099644
-4.844235	*your*	-0.3375614
-5.145265	*yoyou'rore	-0.04268029
-5.145265	*Äror	-0.08092491
-5.145265	*Äsch,	-0.07918584
-5.145265	*Å	-0.08120786
-5.145265	*Ø	-0.07783467
-5.145265	*äij	-0.08121408
-5.145265	*ändrat	-0.04268029
-4.844235	*är*	-0.07836378
-5.145265	*även	-0.08008742
-5.145265	*Ž4WV‘êœ	-0.08121408
-4.300167	+	-0.08028994
-5.145265	+1	-0.04268029
-5.145265	+2	-0.08121408
-4.844235	+30c	-0.076539
-5.145265	+o+1o1,	-0.08117677
-3.653903	,	-0.1263919
-5.145265	,.　　　　	-0.08114258
-5.145265	,hard	-0.08115502
-5.145265	,häl	-0.08121408
-5.145265	,／　　　　|	-0.08120475
-2.943868	-	-0.05402507
-5.145265	-"*Hey	-0.08112703
-4.844235	-"*Hey,	-0.08031175
-5.145265	-"Vad	-0.08119854
-4.300167	--	-0.04161583
-5.145265	--*	-0.04268029
-4.668144	---	-0.325753
-5.145265	----	-0.04268029
-4.844235	-----	-0.2991924
-5.145265	------(	-0.08121408
-5.145265	---------------	-0.04268029
-4.668144	--------E	-0.325753
-4.668144	-------<	-0.325753
-5.145265	-------€	-0.08121408
-5.145265	------£	-0.04268029
-4.145265	-----E	-1.002856
-4.668144	----s--	-0.325753
-5.145265	--->	-0.08121097
-5.145265	---E|Ǝ---|---{	-0.04268029
-5.145265	---F|---L|---e	-0.04268029
-4.367114	---€	-0.3827679
-5.145265	---€,	-0.0808347
-5.145265	---€|---£|---₤|---K	-0.04268029
-5.145265	---₯	-0.08008742
-5.145265	---卐	-0.04268029
-4.668144	--D	-0.325753
-5.145265	--You	-0.08110838
-5.145265	--~*	-0.04268029
-5.145265	-.-	-0.04268029
-5.145265	-100	-0.08121097
-5.145265	-100!	-0.04268029
-5.145265	-10c	-0.08115502
-5.145265	-18c	-0.07806329
-4.844235	-20	-0.3377013
-5.145265	-20C	-0.07816347
-4.844235	-20c	-0.07477595
-5.145265	-30	-0.08121097
-5.145265	-91	-0.07944809
-4.446295	->	-0.04264294
-4.844235	-A,	-0.08086271
-5.145265	-America	-0.08121097
-5.145265	-Dä	-0.08101821
-5.145265	-Facebook	-0.04268029
-5.145265	-Governor	-0.08121408
-5.145265	-Guidetti	-0.04268029
-5.145265	-Hvilken	-0.08121408
-5.145265	-Island	-0.04268029
-5.145265	-Köra	-0.08120164
-5.145265	-Va	-0.08101821
-4.844235	-_-	-0.2991924
-5.145265	-a(/-n)	-0.08094668
-5.145265	-cancer	-0.08121408
-5.145265	-dodetot	-0.08119231
-4.844235	-e	-0.08121099
-5.145265	-em	-0.07993156
-5.145265	-like	-0.04268029
-5.145265	-malmöbo	-0.04268029
-5.145265	-oid	-0.0811488
-4.844235	-p	-0.337723
-5.145265	-up	-0.08117989
-4.844235	-|-	-0.2991924
-5.145265	-|-----	-0.08121408
-5.145265	-~*	-0.04268029
-5.145265	-~-E	-0.04268029
-5.145265	-Ä	-0.08113015
-5.145265	-Åhå!	-0.04268029
-5.145265	-Æ	-0.08099955
-3.802842	.	-0.3316757
-4.844235	.)	-0.04259878
-4.668144	..	-0.07541902
-3.914816	...	-0.0697543
-5.145265	..."	-0.08116434
-5.145265	...)	-0.04268029
-5.145265	.....	-0.07625927
-4.844235	......	-0.08107109
-5.145265	....Yeah!...	-0.08121097
-5.145265	...That	-0.08107418
-5.145265	...aaand?	-0.04268029
-5.145265	...bratwurst	-0.08119854
-5.145265	...but...	-0.08060753
-5.145265	...en	-0.08118921
-5.145265	...får	-0.08121408
-5.145265	...förutom	-0.08121097
-5.145265	...och	-0.08114258
-5.145265	...sort	-0.07805703
-5.145265	...suger	-0.08120786
-5.145265	..an	-0.08108351
-5.145265	..reddit?	-0.04268029
-5.145265	.?	-0.04268029
-5.145265	.](https://www.youtube.com/watch?v=u5ZLBnO3reE)	-0.04268029
-5.145265	._.	-0.04268029
-5.145265	.toLowerCase().replace(/([bcdefghjklmnpqrstvwxyz])o(\1)/ig,	-0.08121408
-3.866511	/	-0.3309422
-4.844235	/:	-0.08111773
-4.668144	/R/UBBET	-0.04263274
-5.145265	/R/UBBET!!!!!!!***	-0.04268029
-5.145265	/R/UBBET***	-0.04268029
-5.145265	/Sandviken	-0.04268029
-5.145265	/Swedish	-0.08120164
-5.145265	/U/apberg1	-0.08104309
-5.145265	/all,	-0.08003443
-4.844235	/all.	-0.04251044
-5.145265	/been	-0.07987545
-5.145265	/buzz	-0.08121408
-5.145265	/cirkelrunk	-0.04268029
-5.145265	/did	-0.07824798
-5.145265	/gogototlolänonnoninongogenon	-0.04268029
-5.145265	/me:m/	-0.07987857
-5.145265	/mi:m/	-0.08121408
-5.145265	/mvh	-0.08121408
-5.145265	/non	-0.08117989
-5.145265	/pol/	-0.07824798
-5.145265	/r/4chan.	-0.04268029
-5.145265	/r/AdviceAnimals	-0.07860774
-5.145265	/r/Allsvenskan,	-0.08119854
-5.145265	/r/Anal	-0.04268029
-5.145265	/r/AnnAhl	-0.08121408
-5.145265	/r/Australia	-0.08001261
-5.145265	/r/Austria.	-0.08121097
-5.145265	/r/Canada	-0.08112082
-5.145265	/r/Canada,	-0.08118299
-5.145265	/r/China	-0.04268029
-5.145265	/r/DANMAG	-0.04268029
-5.145265	/r/Denmark,	-0.08061998
-5.145265	/r/Finland	-0.08080981
-5.145265	/r/Germany	-0.07785347
-5.145265	/r/HanLästeLagboken	-0.04268029
-5.145265	/r/Korea	-0.07816347
-5.145265	/r/MURICA	-0.07716692
-4.844235	/r/Norway	-0.07991288
-5.145265	/r/OutOfTheLoop	-0.04268029
-5.145265	/r/Romania	-0.08097467
-5.145265	/r/SCHLAND?	-0.04268029
-4.367114	/r/SWARJE	-0.04121384
-5.145265	/r/ShitAmericansSay?	-0.04268029
-5.145265	/r/SkellefteaAIK	-0.08001261
-5.145265	/r/SquaredCircle	-0.08121408
-5.145265	/r/Suomi	-0.08039271
-5.145265	/r/Swanada	-0.04268029
-4.844235	/r/SweNsfw	-0.042575
-5.145265	/r/Sweddit	-0.0801622
-3.941145	/r/Sweden	-0.1017882
-5.145265	/r/Sweden!	-0.04268029
-5.145265	/r/Sweden,	-0.0796041
-4.668144	/r/Sweden.	-0.325753
-5.145265	/r/Sweeden	-0.08083781
-5.145265	/r/Swirclejerk	-0.08120786
-5.145265	/r/Ubbet	-0.04268029
-5.145265	/r/UnitedKingdom	-0.07785347
-4.844235	/r/Watches	-0.04187114
-5.145265	/r/al?	-0.04268029
-3.352873	/r/all	-0.2404482
-4.543205	/r/all!	-0.2358691
-5.145265	/r/all"	-0.04268029
-5.145265	/r/all".	-0.04268029
-5.145265	/r/all)	-0.08121408
-4.300167	/r/all,	-0.07305004
-5.145265	/r/all-browsers	-0.08118921
-3.999137	/r/all.	-0.2363665
-4.844235	/r/all..	-0.0808876
-5.145265	/r/all...	-0.04268029
-4.668144	/r/all?	-0.325753
-5.145265	/r/all?](https://np.reddit.com/r/sweden/comments/3eorz1/but_why_does_the_swedish_alphabet_have_to_appear/)	-0.04268029
-5.145265	/r/all](http://np.reddit.com/r/bestof/comments/302g5q/swedes_confusing_the_hell_out_of_rall/)	-0.04268029
-5.145265	/r/all](https://np.reddit.com/r/jailu/comments/3bvyoo/voilà_ce_qui_arrive_quand_un_fil_en_suédois/)	-0.04268029
-4.844235	/r/allt	-0.04232011
-4.668144	/r/anal	-0.07350905
-5.145265	/r/anal)	-0.04268029
-4.844235	/r/anal,	-0.08081605
-4.844235	/r/anal.	-0.2991924
-5.145265	/r/ateism?	-0.04268029
-4.844235	/r/atheism	-0.08113016
-4.844235	/r/australia	-0.08044878
-5.145265	/r/aww	-0.08084092
-5.145265	/r/battlestations	-0.08089381
-4.844235	/r/bestofreports	-0.08119855
-4.844235	/r/blivitvild	-0.03934215
-5.145265	/r/britishproblems	-0.07914837
-5.145265	/r/butthurtamericans	-0.04268029
-4.844235	/r/canada	-0.07784095
-5.145265	/r/canada.	-0.04268029
-5.145265	/r/cats.	-0.04268029
-5.145265	/r/circlejerk.	-0.07625927
-5.145265	/r/circlejerkaustralia	-0.0811488
-4.844235	/r/clocks	-0.07660498
-5.145265	/r/copypasta	-0.04268029
-5.145265	/r/creepy	-0.04268029
-5.145265	/r/dadjokes	-0.08118921
-5.145265	/r/danmag	-0.07775322
-4.844235	/r/de	-0.07747116
-4.844235	/r/denmark	-0.04265653
-5.145265	/r/denmark,	-0.07987857
-5.145265	/r/dodatdansken	-0.04268029
-5.145265	/r/dogs	-0.07860774
-5.145265	/r/es	-0.08052971
-5.145265	/r/fatpeoplehate	-0.0810804
-5.145265	/r/fatpeoplehate:s	-0.08119854
-5.145265	/r/fotostatspaghettimedkottbullar	-0.04268029
-5.145265	/r/france	-0.08052971
-4.844235	/r/funny	-0.04267691
-5.145265	/r/funny).	-0.04268029
-5.145265	/r/fuxtaposition	-0.08121408
-5.145265	/r/giffar.	-0.04268029
-4.844235	/r/hanguk/	-0.07808836
-5.145265	/r/holdmyracism	-0.08112082
-5.145265	/r/hybridanimals	-0.04268029
-5.145265	/r/iAmA	-0.07860774
-5.145265	/r/iamverysmart	-0.04268029
-5.145265	/r/indonesia	-0.08056707
-5.145265	/r/ireland	-0.08088136
-5.145265	/r/jag_ivl	-0.08121408
-4.844235	/r/japan	-0.2991924
-5.145265	/r/japan,	-0.08120786
-4.844235	/r/korea	-0.03934215
-4.668144	/r/korea,	-0.07180351
-4.844235	/r/korea.	-0.04266672
-4.543205	/r/korea/	-0.27101
-5.145265	/r/languagelearning	-0.0810151
-5.145265	/r/lazymonday	-0.04268029
-5.145265	/r/leagueoflegends?	-0.04268029
-5.145265	/r/letutgenerationen	-0.04268029
-5.145265	/r/malaysia)	-0.07672118
-5.145265	/r/murica	-0.08060442
-5.145265	/r/new	-0.08121097
-4.543205	/r/newsokur	-0.1880538
-5.145265	/r/newsokur?	-0.0811488
-5.145265	/r/nocontext	-0.08121408
-5.145265	/r/nomansskythegame	-0.08112082
-5.145265	/r/nordvei	-0.04268029
-5.145265	/r/norge	-0.0807258
-5.145265	/r/norway	-0.08052971
-5.145265	/r/philippines,	-0.08121408
-5.145265	/r/pitchforkemporium	-0.04268029
-5.145265	/r/programmerHumor	-0.04268029
-5.145265	/r/ridgebacks,	-0.08049858
-5.145265	/r/roosterteeth	-0.08121408
-5.145265	/r/rubbet	-0.08121408
-5.145265	/r/rubbet?	-0.04268029
-5.145265	/r/semester	-0.04268029
-5.145265	/r/serbia	-0.07816347
-5.145265	/r/shitamericanssay	-0.07816347
-5.145265	/r/sommaredit	-0.04268029
-5.145265	/r/sommarreddit	-0.04268029
-5.145265	/r/soswowedoddoditot	-0.0811488
-5.145265	/r/suomi	-0.08074136
-5.145265	/r/svenska	-0.08119854
-5.145265	/r/svenska!	-0.04268029
-4.668144	/r/svenskpolitik	-0.195606
-5.145265	/r/sw**ee**den	-0.08118921
-5.145265	/r/swanada!	-0.04268029
-5.145265	/r/sweddit...	-0.08113325
-3.325721	/r/sweden	-0.1886351
-4.844235	/r/sweden!	-0.04262596
-5.145265	/r/sweden's	-0.08119543
-4.543205	/r/sweden,	-0.0756804
-4.446295	/r/sweden.	-0.1893194
-5.145265	/r/sweden...	-0.04268029
-5.145265	/r/sweden.](http://np.reddit.com/r/ShitAmericansSay/comments/308rsu/shouldnt_you_guys_speak_arabic_since_sweden_is/)	-0.04268029
-5.145265	/r/sweden?	-0.04268029
-5.145265	/r/sweden](https://imgur.com/pyqMapq)	-0.04268029
-5.145265	/r/sweden](https://np.reddit.com/r/Eve/comments/3dkkn7/cyno_up_in_rsweden/)	-0.04268029
-5.145265	/r/sweden](https://np.reddit.com/r/thegreatsub/comments/36z2j7/dodetot_äror_foföror_lolitote/)	-0.04268029
-4.844235	/r/swedenhate	-0.04262596
-5.145265	/r/swedens	-0.08121408
-5.145265	/r/swedents	-0.08118921
-5.145265	/r/swedishcopypasta	-0.04268029
-5.145265	/r/sweeden	-0.04268029
-5.145265	/r/thailand	-0.08087203
-4.844235	/r/trees	-0.03900315
-5.145265	/r/trees!	-0.04268029
-3.682867	/r/ubbet	-0.2352149
-4.446295	/r/ubbet!	-0.8857583
-5.145265	/r/ubbet)	-0.08102754
-5.145265	/r/ubbet,	-0.07860774
-4.367114	/r/ubbet.	-0.2604412
-5.145265	/r/ubbet...	-0.04268029
-5.145265	/r/ubbet?	-0.04268029
-5.145265	/r/uk	-0.08096845
-4.543205	/r/unitedkingdom	-0.07598881
-5.145265	/r/ur	-0.07857959
-5.145265	/r/ursinne	-0.04268029
-5.145265	/r/uteurrondellen	-0.04268029
-5.145265	/r/volvo	-0.07716692
-4.031322	/r/watches	-0.1346535
-5.145265	/r/watches.	-0.08121408
-5.145265	/r/whereisthis	-0.04268029
-5.145265	/r/Änål	-0.04268029
-5.145265	/r/åll	-0.04268029
-5.145265	/ror/Dodisoskoktotanonkokaror	-0.04268029
-5.145265	/ror/SoSwowedodenon.	-0.04268029
-4.844235	/ror/alollol	-0.0811457
-5.145265	/ror/alollol.	-0.08119231
-5.145265	/ror/rorubobbobetot!	-0.04268029
-4.668144	/ror/ubobbobetot	-0.1959254
-5.145265	/ror/ubobbobetot,	-0.08110838
-4.543205	/s	-0.2358317
-5.145265	/s'et.	-0.08006871
-4.300167	/styck	-0.6343554
-5.145265	/thread	-0.08117677
-5.145265	/tråd	-0.04268029
-4.300167	/u/BaconMeat	-0.09690931
-4.844235	/u/BaconMeat's	-0.0811799
-5.145265	/u/BaconMeat/,	-0.08118299
-5.145265	/u/Caspasho	-0.04268029
-5.145265	/u/Caspasho,	-0.0811488
-5.145265	/u/Coffeh	-0.08121408
-5.145265	/u/CurvyVolvo	-0.04268029
-5.145265	/u/F_Klyka	-0.08094046
-5.145265	/u/Fea_wen:	-0.08120475
-5.145265	/u/Gallowboob	-0.08116434
-5.145265	/u/Gallowboob...	-0.04268029
-5.145265	/u/Izzeheh	-0.08118921
-5.145265	/u/LinearSimcon	-0.08119854
-5.145265	/u/Luuklilo	-0.04268029
-5.145265	/u/ManchurianCandycane	-0.08121408
-5.145265	/u/No-Shit-Sherlock	-0.04268029
-4.668144	/u/Norci	-0.081183
-5.145265	/u/Norci!	-0.04268029
-5.145265	/u/Norci,	-0.0807787
-4.668144	/u/Ollad	-0.07798502
-5.145265	/u/Olly.	-0.08121408
-5.145265	/u/PlaylisterBot	-0.08121408
-5.145265	/u/Rentah	-0.04268029
-5.145265	/u/Snyggkille	-0.08028059
-5.145265	/u/Spitfire15	-0.0811488
-5.145265	/u/Vonadler	-0.04268029
-5.145265	/u/YouShouldTrySnus	-0.08101199
-4.543205	/u/baconmeat	-0.08109595
-5.145265	/u/baconmeat,	-0.08049858
-5.145265	/u/blomhonung	-0.07918897
-5.145265	/u/caspasho	-0.08110838
-4.844235	/u/chooter,	-0.0749778
-5.145265	/u/damigkukfis	-0.04268029
-5.145265	/u/dlq84)	-0.04268029
-5.145265	/u/evitagen-armak<3	-0.04268029
-5.145265	/u/galgtutte	-0.04268029
-5.145265	/u/game004!	-0.04268029
-5.145265	/u/hajena123	-0.08088136
-5.145265	/u/imdrasil,	-0.08121408
-5.145265	/u/inte_dysterqvist	-0.04268029
-5.145265	/u/jpte91](http://www.reddit.com/r/sweden/comments/2wcj6q/sweddit_det_%C3%A4r_dags_att_prata_om_att_r%C3%B6sta_ner/?ref=search_posts)	-0.04268029
-5.145265	/u/kesuaus	-0.08015908
-5.145265	/u/khakansson	-0.08109283
-4.844235	/u/laukaus	-0.3346756
-5.145265	/u/lolynonxoxlolynonxoxlolynonxox	-0.04268029
-5.145265	/u/lynx	-0.08043008
-5.145265	/u/lynxlynxlynx	-0.07993156
-5.145265	/u/lynxlynxlynx-	-0.07474438
-5.145265	/u/lynxlynxlynx-,	-0.08095601
-5.145265	/u/martinuggla	-0.07775322
-5.145265	/u/northern-ape.	-0.08121408
-5.145265	/u/ollad	-0.07816347
-5.145265	/u/tinned_peaches	-0.0801622
-4.844235	/u/vonadler	-0.04260218
-4.844235	/u/vonadler,	-0.08072893
-5.145265	/u/vonadler.	-0.04268029
-5.145265	/u/vovononadodloleror	-0.08070402
-5.145265	/u/xlnqeniuz	-0.07785347
-4.844235	/v/akistan	-0.0421399
-5.145265	/　　	-0.08121408
-5.145265	/　　　　　　　　　ｉ　|	-0.0811488
-4.844235	0	-0.07944186
-5.145265	0%	-0.07805703
-5.145265	0,79	-0.0811488
-5.145265	0.	-0.08112703
-5.145265	0.05	-0.08121408
-5.145265	0.1%	-0.07805703
-4.066083	000	-0.1063632
-5.145265	000-3	-0.08117989
-4.844235	000.	-0.07611464
-5.145265	03:00	-0.07860774
-5.145265	03?	-0.04268029
-5.145265	054.	-0.04268029
-5.145265	05:00,	-0.08121408
-4.145265	1	-0.1152609
-5.145265	1)	-0.08029616
-4.668144	1,5	-0.08107108
-5.145265	1-	-0.08120786
-5.145265	1-600	-0.08052971
-4.066083	1.	-0.1135165
-5.145265	1/4th	-0.07805703
-5.145265	1/7000000000	-0.08119854
-5.145265	1/meta	-0.08121408
-3.802842	10	-0.1146115
-5.145265	10's	-0.07805703
-5.145265	10,000	-0.08061065
-5.145265	10-15	-0.08119543
-5.145265	10.	-0.04268029
-4.543205	10/10	-0.2355768
-4.191022	100	-0.07751191
-4.367114	100%	-0.1477617
-5.145265	100%,	-0.08049858
-5.145265	100+	-0.08121408
-5.145265	100,	-0.08121408
-4.844235	100.000	-0.08037715
-4.300167	1000	-0.08103065
-5.145265	101	-0.08121408
-5.145265	101."	-0.04268029
-4.844235	10589	-0.2991924
-5.145265	10M,	-0.08015908
-4.844235	10k.	-0.04250025
-4.844235	10st	-0.08113638
-4.300167	11	-0.07682796
-5.145265	11,3	-0.08121097
-5.145265	11-12	-0.08119231
-4.668144	11/10	-0.2331376
-4.844235	113	-0.337723
-5.145265	1179	-0.04268029
-5.145265	118	-0.08117989
-5.145265	1198	-0.04268029
-5.145265	11k,	-0.08121097
-4.300167	12	-0.2043276
-5.145265	12.	-0.04268029
-5.145265	12/10	-0.07987857
-5.145265	120	-0.07987857
-5.145265	1200	-0.08121408
-5.145265	12e	-0.08106485
-4.446295	13	-0.08105242
-5.145265	13%	-0.07805703
-5.145265	13/10	-0.07987857
-5.145265	132	-0.08071335
-5.145265	1341	-0.04268029
-5.145265	135x26	-0.08121408
-5.145265	136	-0.04268029
-5.145265	13k	-0.07944809
-5.145265	13°C	-0.08093735
-5.145265	14	-0.08106485
-5.145265	14%	-0.07805703
-5.145265	14.	-0.04268029
-4.844235	14/10	-0.3363906
-5.145265	1400-talet)	-0.08088759
-5.145265	14000:-	-0.07860774
-5.145265	1420	-0.08121097
-5.145265	1440p?	-0.04268029
-5.145265	1443	-0.04268029
-5.145265	1488	-0.04268029
-5.145265	14:09	-0.08121408
-4.242175	15	-0.07792551
-5.145265	15,	-0.08090624
-5.145265	15/10	-0.07987857
-5.145265	1500-tal.	-0.08121097
-5.145265	1500kr.	-0.04268029
-5.145265	1523	-0.08119231
-5.145265	15:00,	-0.08018401
-5.145265	15:12)	-0.08008742
-5.145265	15:43	-0.07625927
-4.543205	16	-0.07782216
-5.145265	16.	-0.04268029
-5.145265	16.20	-0.08121408
-5.145265	16/10	-0.07987857
-5.145265	1600-talssvenska	-0.07944809
-5.145265	1632	-0.08113947
-5.145265	1649	-0.08102754
-5.145265	1658	-0.08008742
-5.145265	1682	-0.08119231
-5.145265	1697	-0.07672118
-4.668144	16:20	-0.08118611
-5.145265	16k	-0.07857959
-5.145265	16k?	-0.08121097
-4.446295	17	-0.08085337
-5.145265	17-18	-0.08044876
-5.145265	17-åring	-0.07783467
-5.145265	17.	-0.08121408
-5.145265	17...	-0.04268029
-4.844235	1700	-0.08076315
-5.145265	1700-talet,	-0.08118299
-5.145265	1700.	-0.04268029
-5.145265	1703	-0.08049858
-5.145265	1704.	-0.04268029
-4.543205	1706	-0.189777
-5.145265	1706,	-0.07474438
-4.844235	1706.	-0.2991924
-5.145265	1709,	-0.08121097
-5.145265	1711	-0.08019958
-5.145265	1715	-0.08121408
-5.145265	1718),	-0.08121408
-4.844235	1718.	-0.0810431
-5.145265	17316	-0.08119543
-5.145265	1763	-0.07987857
-5.145265	1766,	-0.08015908
-4.543205	1772	-0.03580561
-5.145265	1772.	-0.08120164
-5.145265	1776?	-0.08121408
-5.145265	1776](https://en.wikipedia.org/wiki/Gustav_III_of_Sweden#Between_constitutionalism_and_absolutism);	-0.04268029
-4.668144	1777,	-0.0777595
-5.145265	1778	-0.08117367
-4.668144	1782	-0.07667408
-5.145265	1783,	-0.08085025
-5.145265	1783.	-0.08061065
-5.145265	1786,	-0.08085025
-5.145265	1786-1787	-0.07785347
-5.145265	1786.	-0.04268029
-4.844235	1787	-0.07981621
-5.145265	1788-1790,	-0.08105242
-5.145265	1792,	-0.08121408
-5.145265	1792.	-0.04268029
-4.668144	17th	-0.3642712
-4.668144	18	-0.08098401
-5.145265	18'e	-0.08121408
-5.145265	18,	-0.08121408
-5.145265	18.	-0.04268029
-5.145265	18/3	-0.08120786
-5.145265	180	-0.08071335
-5.145265	1809,	-0.08108662
-4.844235	1809.	-0.2991924
-5.145265	1814,	-0.08121097
-5.145265	1836,	-0.07474438
-5.145265	1895.	-0.08119543
-4.543205	19	-0.08068224
-5.145265	1901	-0.08019958
-5.145265	1901?	-0.04268029
-4.844235	1905	-0.04121727
-4.844235	1905.	-0.2991924
-5.145265	1908	-0.07918897
-5.145265	1917.	-0.08062933
-5.145265	1920x1080	-0.04268029
-5.145265	195	-0.0811861
-5.145265	1960s	-0.08120475
-5.145265	1971,	-0.07716692
-5.145265	1998	-0.08112082
-5.145265	19km/h	-0.08078803
-5.145265	1:	-0.08121408
-5.145265	1:e	-0.08121408
-5.145265	1kr/litern,	-0.08027124
-5.145265	1mb/s	-0.04268029
-4.668144	1st	-0.07811652
-5.145265	1st.	-0.04268029
-3.626751	2	-0.09292138
-5.145265	2!	-0.08107418
-5.145265	2)av	-0.08112703
-5.145265	2,000	-0.08121408
-5.145265	2-	-0.08121408
-4.844235	2-3	-0.08105243
-5.145265	2-4	-0.08106485
-4.191022	2.	-0.1249515
-4.844235	2.5	-0.08109285
-4.145265	20	-0.08097467
-5.145265	20%	-0.07805703
-5.145265	20+	-0.08106485
-5.145265	20,	-0.08120786
-5.145265	20-29,	-0.08059197
-5.145265	200	-0.08121097
-5.145265	200-year-old	-0.08119854
-5.145265	2000	-0.08113947
-5.145265	2000!	-0.04268029
-4.844235	2002	-0.07852644
-5.145265	2002-2002	-0.07860774
-5.145265	2005,	-0.08008742
-5.145265	2006.	-0.04268029
-5.145265	2007	-0.08119543
-5.145265	2007"	-0.04268029
-5.145265	2008.	-0.08121408
-5.145265	2009?	-0.08107107
-5.145265	2010..lite	-0.08121408
-5.145265	2011.	-0.04268029
-5.145265	2012,	-0.07785347
-4.844235	2013	-0.07914838
-5.145265	2013,	-0.08102754
-5.145265	2013.	-0.07625927
-5.145265	2013?	-0.04268029
-5.145265	2014!	-0.08121097
-5.145265	2014.	-0.04268029
-4.668144	2015	-0.08056085
-5.145265	2015,	-0.08107107
-5.145265	2015](https://en.m.wikipedia.org/wiki/Elk)	-0.04268029
-5.145265	2015th	-0.08121097
-5.145265	2018!!!	-0.04268029
-5.145265	2019:	-0.08121408
-5.145265	2034	-0.04268029
-5.145265	20:00.	-0.0803055
-5.145265	20k?	-0.08121408
-5.145265	20sec	-0.07672118
-5.145265	20åren.	-0.08089069
-5.145265	21,	-0.08087203
-5.145265	2171	-0.04268029
-4.844235	21940	-0.2991924
-5.145265	21:29	-0.08121408
-5.145265	21st	-0.08119854
-4.844235	22	-0.07785036
-5.145265	22%	-0.07805703
-5.145265	2200	-0.0811861
-5.145265	22×27×16	-0.08120475
-4.543205	23	-0.08107419
-5.145265	23,	-0.08121408
-5.145265	23,076	-0.08090624
-5.145265	23:48,	-0.08121408
-4.844235	24	-0.07990352
-4.367114	240	-0.151085
-5.145265	240.	-0.08103998
-5.145265	240snusit.se	-0.04268029
-5.145265	244:an	-0.07993156
-5.145265	249	-0.0811861
-4.543205	25	-0.1900511
-5.145265	25%,	-0.08119543
-5.145265	25,	-0.08092491
-5.145265	250.	-0.04268029
-5.145265	2500	-0.08107107
-4.844235	26	-0.08082849
-4.668144	27	-0.08109284
-5.145265	27,0	-0.07806329
-4.844235	279,834,232	-0.07815722
-4.844235	28	-0.08120476
-4.844235	28%	-0.3345691
-5.145265	2853	-0.04268029
-5.145265	28×69	-0.08120475
-4.543205	29	-0.08113948
-5.145265	29,0	-0.08110527
-5.145265	29,4,	-0.08121408
-5.145265	29/40	-0.04268029
-5.145265	299	-0.0811861
-4.668144	2:	-0.08054217
-5.145265	2:A	-0.08118299
-5.145265	2:a	-0.08082537
-5.145265	2M	-0.07816347
-5.145265	2ch	-0.08120164
-5.145265	2ch.	-0.04268029
-5.145265	2chan,	-0.08121408
-4.446295	2nd	-0.07915463
-5.145265	2st	-0.08119543
-3.823045	3	-0.1239942
-5.145265	3)av	-0.07904842
-4.844235	3,	-0.07625614
-5.145265	3-5	-0.08121408
-4.191022	3.	-0.1211192
-5.145265	3/4	-0.08024632
-3.941145	30	-0.1243352
-4.668144	30%	-0.2338261
-5.145265	30-40	-0.07944809
-5.145265	30-sträckor	-0.08120786
-5.145265	30...	-0.07625927
-3.802842	300	-0.5914923
-4.844235	3000	-0.08118301
-5.145265	3098	-0.04268029
-5.145265	30c	-0.08112703
-5.145265	31	-0.08029616
-5.145265	3177	-0.04268029
-5.145265	322	-0.08118921
-5.145265	3249	-0.04268029
-5.145265	32×35×32	-0.08120475
-5.145265	33%	-0.08121408
-5.145265	33).	-0.04268029
-4.446295	35	-0.1626159
-5.145265	35-40	-0.08119543
-5.145265	3500	-0.08121408
-5.145265	352	-0.08121408
-5.145265	3550	-0.07785347
-5.145265	35×35	-0.08120475
-5.145265	365-dagar	-0.08008742
-5.145265	37	-0.08121408
-5.145265	38c.	-0.04268029
-5.145265	39	-0.0811861
-5.145265	3:	-0.08061065
-5.145265	3rd	-0.08121408
-3.844235	4	-0.07822411
-5.145265	4,5	-0.08118921
-5.145265	4-4	-0.08121408
-4.543205	4.	-0.08117057
-5.145265	4.0	-0.08121097
-5.145265	4.4	-0.08118921
-5.145265	4/10	-0.07987545
-4.446295	40	-0.08080048
-5.145265	40%	-0.07805703
-5.145265	40,	-0.08017466
-5.145265	40.	-0.08120786
-5.145265	4000	-0.08119543
-5.145265	4037	-0.04268029
-5.145265	40c	-0.07806329
-5.145265	40k	-0.08080359
-5.145265	41	-0.08121097
-4.668144	420	-0.08119232
-4.668144	45	-0.0810462
-5.145265	450€	-0.07806329
-5.145265	450€/month	-0.07785347
-5.145265	4845	-0.04268029
-4.844235	49	-0.3376982
-5.145265	4:an	-0.08102754
-5.145265	4am	-0.0796041
-5.145265	4chan	-0.07775322
-4.844235	4chan,	-0.0806978
-5.145265	4chan.	-0.08061065
-5.145265	4th	-0.08089691
-3.783537	5	-0.09229596
-5.145265	5-10	-0.08117056
-5.145265	5-stjärnors	-0.08120786
-4.543205	5.	-0.1522229
-4.668144	50	-0.08117057
-4.844235	50%	-0.07801321
-5.145265	50-100	-0.07914837
-5.145265	50-sonen	-0.07783467
-5.145265	50-sonen.	-0.08089069
-5.145265	50-sträcka	-0.0810804
-5.145265	50-sträckan	-0.07860774
-5.145265	50-sträckor,	-0.08120786
-5.145265	50/50	-0.08121097
-4.668144	500	-0.08084093
-5.145265	500$	-0.08093735
-5.145265	500.	-0.04268029
-5.145265	50cent	-0.08112393
-5.145265	50kg	-0.08121408
-5.145265	51	-0.08121408
-5.145265	51,000+	-0.08119854
-5.145265	5119	-0.04268029
-4.668144	52	-0.07804765
-5.145265	5382	-0.04268029
-5.145265	56	-0.08120786
-5.145265	560	-0.04268029
-5.145265	560Ti	-0.07860774
-5.145265	56k	-0.07922644
-5.145265	57	-0.08121408
-5.145265	59	-0.04268029
-5.145265	5948	-0.04268029
-5.145265	599	-0.0811861
-5.145265	5:30	-0.08100266
-5.145265	5am	-0.08051726
-5.145265	5k.	-0.0811861
-5.145265	5km/h	-0.0810804
-4.844235	5th	-0.08119855
-3.730291	6	-0.2432967
-4.844235	6%	-0.3345691
-4.668144	6-1	-0.04265992
-5.145265	6-7	-0.07987545
-5.145265	6-7-8	-0.08121097
-5.145265	6.	-0.08121097
-4.543205	60	-0.1876093
-5.145265	600	-0.08106485
-5.145265	61	-0.04268029
-5.145265	63	-0.08121408
-5.145265	633	-0.08119854
-5.145265	6395	-0.04268029
-5.145265	64,	-0.08121408
-5.145265	64.	-0.04268029
-5.145265	65	-0.08119543
-5.145265	66	-0.08121097
-5.145265	667	-0.08121097
-5.145265	67%	-0.07994092
-5.145265	672,5	-0.08121097
-5.145265	6?	-0.04268029
-5.145265	6h	-0.04268029
-5.145265	6months	-0.07806329
-5.145265	6th	-0.07805703
-4.145265	7	-0.1958432
-5.145265	7%	-0.07806329
-5.145265	7-11,	-0.08121408
-4.844235	7.	-0.08118612
-4.446295	70	-0.1628699
-5.145265	70%	-0.08121408
-5.145265	70+	-0.08121408
-5.145265	70-zone.	-0.08061065
-4.543205	700	-0.1906516
-5.145265	707	-0.08121097
-5.145265	70kg,	-0.08116434
-5.145265	70km/h	-0.07857959
-5.145265	71	-0.07857959
-5.145265	7254	-0.04268029
-5.145265	75%	-0.08029616
-5.145265	7513	-0.04268029
-5.145265	760k	-0.08119854
-5.145265	790	-0.08121408
-5.145265	7970	-0.07987857
-4.367114	8	-0.08096845
-5.145265	8+	-0.08106485
-5.145265	8-11	-0.08106485
-5.145265	8-8,5	-0.08118921
-4.844235	8-bitarsmusik	-0.03982793
-5.145265	8/8	-0.04268029
-4.844235	80	-0.0811799
-4.844235	80%	-0.3345691
-4.844235	800m).	-0.04262935
-5.145265	812	-0.08121097
-5.145265	8203	-0.04268029
-5.145265	83	-0.08121097
-5.145265	86F.	-0.04268029
-5.145265	88	-0.08121097
-5.145265	884	-0.04268029
-4.446295	9	-0.1663481
-4.844235	9,	-0.0809187
-5.145265	9,5	-0.08118921
-5.145265	9,7	-0.08118921
-5.145265	9-11	-0.08106485
-5.145265	9-3	-0.07785347
-5.145265	9/10	-0.08121408
-5.145265	90%	-0.08104931
-5.145265	90's.	-0.08121408
-5.145265	90-talet	-0.08092802
-5.145265	90-väg	-0.07783467
-5.145265	9000!!!	-0.04268029
-5.145265	911	-0.0796041
-4.844235	9328	-0.2991924
-5.145265	95	-0.08121408
-5.145265	98%	-0.07805703
-5.145265	99	-0.0811861
-4.367114	99%	-0.1957357
-5.145265	9:45-10:15	-0.08121408
-5.145265	9?	-0.04268029
-4.844235	9th	-0.3377106
-3.999137	:	-0.1214423
-4.844235	:'(	-0.2991924
-4.446295	:')	-0.3208671
-3.473167	:(	-0.8113279
-5.145265	:()	-0.04268029
-3.024691	:)	-1.161553
-4.844235	:)"	-0.2991924
-4.844235	:))	-0.2991924
-4.543205	:).	-0.431514
-5.145265	:)](http://en.wikipedia.org/wiki/Cnut_the_Great)	-0.04268029
-5.145265	:,)	-0.04268029
-4.844235	:-(	-0.2991924
-4.191022	:-)	-0.4180042
-5.145265	:-).	-0.04268029
-5.145265	:-/	-0.04268029
-4.844235	:-:|:-:|:-:	-0.2991924
-5.145265	:-:|:-:|:-:|:-:	-0.04268029
-5.145265	:-D	-0.08055462
-5.145265	:-P	-0.04268029
-4.844235	:-S	-0.2991924
-4.145265	:/	-1.042677
-4.844235	:/)	-0.2991924
-4.668144	:3	-0.325753
-4.844235	:<	-0.2991924
-5.145265	:C	-0.08055462
-3.404902	:D	-0.9986825
-5.145265	:D:D	-0.04268029
-5.145265	:DDDD	-0.08121408
-4.668144	:DOD	-0.325753
-5.145265	:DoD	-0.04268029
-4.844235	:O	-0.04265653
-4.066083	:P	-1.075406
-5.145265	:PPPPPPPPPPP	-0.04268029
-5.145265	:S	-0.04268029
-4.844235	:\^)	-0.2991924
-5.145265	:^	-0.08118921
-5.145265	:^)	-0.04268029
-4.543205	:o	-0.2359336
-5.145265	:o:DoD	-0.04268029
-4.191022	:p	-0.9969193
-5.145265	:s	-0.08112082
-4.668144	:|	-0.325753
-5.145265	;	-0.04268029
-5.145265	;(	-0.04268029
-3.420989	;)	-0.8785107
-5.145265	;).	-0.04268029
-5.145265	;)?	-0.04268029
-4.844235	;-)	-0.2991924
-5.145265	;-;	-0.04268029
-4.668144	;D	-0.325753
-5.145265	;P	-0.04268029
-4.844235	;]	-0.2991924
-5.145265	;___;	-0.04268029
-5.145265	;____;	-0.04268029
-4.844235	;p	-0.2991924
-4.668144	<	-0.07997522
-5.145265	<---	-0.08121408
-1.071034	</s>
-3.682867	<3	-0.891345
-5.145265	<3)	-0.04268029
-4.668144	<D	-0.325753
-5.145265	<_<	-0.04268029
-5.145265	<clears	-0.08121408
-5.145265	<name	-0.07805703
-99	<s>	-0.2238284
-3.205745	=	-0.05426534
-4.668144	=(	-0.325753
-4.446295	=)	-0.3210437
-5.145265	=*(	-0.04268029
-5.145265	=/	-0.04268029
-5.145265	=/=	-0.08117989
-5.145265	==	-0.08121408
-5.145265	=>	-0.08121097
-5.145265	=D	-0.04268029
-5.145265	=]	-0.04268029
-5.145265	=_=	-0.04268029
-2.777909	>	-0.0511046
-5.145265	>"**T**otho**his**os	-0.08121097
-5.145265	>"Danskjävlar	-0.08120786
-5.145265	>"Fucking	-0.08109594
-5.145265	>'	-0.04268029
-4.668144	>*	-0.07462133
-5.145265	>***Bottom:***	-0.08121408
-5.145265	>***Post	-0.08121408
-5.145265	>***Top:***	-0.08121408
-5.145265	>*It	-0.07816347
-5.145265	>*Mob	-0.08121408
-5.145265	>*Plebejer	-0.08121097
-5.145265	>*Pöbel	-0.08121097
-5.145265	>*^59,158	-0.08121097
-5.145265	>*^72,053	-0.08121097
-5.145265	>.ca	-0.04268029
-4.844235	>:(	-0.2991924
-4.844235	>:)	-0.2991924
-5.145265	>>	-0.04268029
-5.145265	>>Ett	-0.08029616
-5.145265	>>Förmågan	-0.07791298
-5.145265	>>Tog	-0.08119231
-5.145265	>>Ville	-0.08052971
-4.844235	>A	-0.08117368
-5.145265	>Americanised	-0.04268029
-5.145265	>Amerikanen	-0.04268029
-4.844235	>Amomerorikokanonerornona	-0.3376733
-5.145265	>Amomomomerorororikokokokanonononerororornononona	-0.08121408
-4.668144	>And	-0.07561428
-4.844235	>Are	-0.3347601
-5.145265	>Arrêtez-le	-0.08121097
-5.145265	>Astronomen	-0.08121408
-5.145265	>Beautiful	-0.08121408
-5.145265	>Begreppet	-0.08121097
-5.145265	>Benåda	-0.04268029
-5.145265	>Burger	-0.0811861
-5.145265	>But	-0.07625927
-5.145265	>Close	-0.08121097
-5.145265	>Congratulations!	-0.04268029
-5.145265	>Dawkins	-0.08120786
-5.145265	>De	-0.08119854
-5.145265	>Defeated,	-0.07625927
-4.844235	>Den	-0.07910778
-4.844235	>Det	-0.0796634
-5.145265	>Do	-0.07824798
-5.145265	>Doesn't	-0.08083781
-4.844235	>Du	-0.3377168
-5.145265	>EDIT:	-0.08119854
-5.145265	>Emellertid	-0.08109283
-5.145265	>FPH	-0.08105864
-5.145265	>FTFY	-0.04268029
-5.145265	>From	-0.07914837
-5.145265	>Frågan	-0.08008742
-5.145265	>Fuktig	-0.08109594
-5.145265	>Får	-0.08119854
-5.145265	>Greenlandic,	-0.07625927
-5.145265	>Hade	-0.08120475
-5.145265	>Har	-0.08118921
-5.145265	>He	-0.07816347
-4.844235	>Hohelolvovetote!	-0.3377199
-4.300167	>I	-0.08044877
-5.145265	>I'll	-0.08119854
-5.145265	>IKEA	-0.04268029
-5.145265	>In	-0.08121097
-5.145265	>Including	-0.080984
-5.145265	>Inga	-0.08119231
-5.145265	>Ja,	-0.07918584
-4.446295	>Jag	-0.07716066
-5.145265	>Jojagog	-0.08121408
-4.844235	>Just	-0.08087827
-5.145265	>KOKOMOMMOMEROR	-0.04268029
-4.844235	>Let	-0.07422352
-5.145265	>Men	-0.08086581
-5.145265	>Might	-0.07994092
-5.145265	>Modsen	-0.07857959
-5.145265	>Morocco	-0.08118921
-5.145265	>Never	-0.08121408
-5.145265	>No	-0.08080981
-5.145265	>No,	-0.08098089
-5.145265	>NoNågogonon	-0.08096534
-5.145265	>Norge	-0.04268029
-5.145265	>Now	-0.08056707
-5.145265	>Oh,	-0.08116745
-5.145265	>Picture	-0.08120164
-5.145265	>Please	-0.08111149
-5.145265	>Porqué	-0.04268029
-5.145265	>Rorealolisosatotiononsosvovinonsostotbobesoskokatottotnoninongog	-0.04268029
-5.145265	>Sa	-0.07922644
-5.145265	>Sju	-0.08121408
-4.668144	>So	-0.07392965
-5.145265	>Suck	-0.07987545
-5.145265	>Swede's	-0.04268029
-5.145265	>Sweden	-0.08120164
-5.145265	>Såg	-0.08094357
-4.300167	>The	-0.1392686
-5.145265	>Therefore,	-0.08120475
-5.145265	>They	-0.08121408
-5.145265	>This	-0.08121408
-5.145265	>Tjäna	-0.07857959
-5.145265	>Totyvovärorror!	-0.08103064
-5.145265	>Transleison:	-0.08121408
-5.145265	>Vargön	-0.04268029
-5.145265	>Vi	-0.08121408
-5.145265	>Vår	-0.08121408
-4.844235	>What	-0.3312565
-5.145265	>When	-0.07824798
-5.145265	>Where	-0.08096845
-5.145265	>[**Försvarsmaktens	-0.08121408
-5.145265	>[**Luftens	-0.08121097
-5.145265	>[All	-0.08121097
-5.145265	>anananastårta	-0.04268029
-4.844235	>and	-0.08087204
-5.145265	>but	-0.08093424
-5.145265	>bästa	-0.08118921
-5.145265	>chocolateballs	-0.04268029
-5.145265	>cock	-0.08116745
-5.145265	>colloquialism	-0.04268029
-5.145265	>corsairlanguage	-0.08120786
-5.145265	>english	-0.04268029
-5.145265	>ett	-0.08117367
-5.145265	>fin	-0.08121097
-5.145265	>fite	-0.08070402
-5.145265	>flensost*	-0.04268029
-5.145265	>game	-0.07805703
-5.145265	>hodgepodge	-0.04268029
-5.145265	>it	-0.07816347
-5.145265	>it's	-0.08121097
-5.145265	>känslorna	-0.04268029
-5.145265	>let	-0.07474438
-5.145265	>med	-0.08116123
-5.145265	>mfw	-0.07918584
-5.145265	>n,	-0.08103376
-5.145265	>no	-0.08108973
-5.145265	>nonorordodvoväsostoterorsosjojökokusostotarortotilollolerorifoflolygogsospopanoninongogsossosimomulolatotoror-anonlolägoggognononinongogsosmomatoterorielolunondoderorhohålollolsosupoppopfoföloljojnoninongogsos-sosysostotemomdodisoskokusossosiononsosinonlolägoggogsosfoförorboberoredodelolsosearorbobetotenon	-0.04268029
-5.145265	>prime	-0.08121097
-5.145265	>satte	-0.08120475
-5.145265	>solidaritet	-0.04268029
-5.145265	>som	-0.04268029
-5.145265	>sosololsostotrorålolanondode	-0.04268029
-5.145265	>top	-0.08119543
-5.145265	>transcript	-0.08115812
-5.145265	>u'I	-0.08121097
-5.145265	>unkna	-0.0811519
-5.145265	>v	-0.08121408
-5.145265	>var	-0.04268029
-5.145265	>verkleberk	-0.04268029
-5.145265	>välfärds	-0.08121097
-5.145265	>välfärdsuppbåtar	-0.04268029
-5.145265	>where	-0.08121097
-4.844235	>your	-0.337636
-5.145265	>~~länkad~~	-0.08121408
-5.145265	>äjj	-0.08119231
-4.844235	>ø	-0.2991924
-5.145265	>“Sweden	-0.08028059
-3.653903	?	-0.6237261
-5.145265	?!	-0.04268029
-5.145265	?!?!	-0.04268029
-5.145265	?"	-0.04268029
-5.145265	???	-0.04268029
-5.145265	????	-0.04268029
-4.668144	?????	-0.325753
-5.145265	@	-0.07625927
-5.145265	@faffri:	-0.0803055
-5.145265	@o@£o£#o#$o$&o&¤o¤!!!	-0.04268029
-5.145265	@xXx\_ANCKARS7RÖM_n0scöpe_xXx	-0.08117056
-3.374413	A	-0.08985177
-5.145265	A)	-0.08121097
-4.844235	A,	-0.07913589
-5.145265	A-HA!	-0.08055462
-5.145265	A-L-L	-0.07806329
-5.145265	A-L-L,	-0.08121408
-4.300167	A.	-0.4535699
-5.145265	A1.	-0.04268029
-5.145265	A?	-0.08121408
-5.145265	AAAABAAAAAAAABAABBABABBAA.	-0.04268029
-4.668144	ABBA	-0.042558
-5.145265	ABBA!	-0.04268029
-5.145265	ABBA,	-0.08113325
-4.844235	ABORK!	-0.04267351
-5.145265	AC.	-0.08118921
-5.145265	ACK	-0.08121408
-5.145265	AE,	-0.08117367
-5.145265	AF	-0.08121408
-5.145265	AFoFToTONoNRoREDoDDoDIToT	-0.04268029
-5.145265	AKA	-0.0811146
-4.367114	ALL	-0.08116745
-4.191022	ALLA	-0.1385888
-5.145265	ALLA!**	-0.04268029
-5.145265	ALLAS	-0.08119854
-5.145265	ALLT*	-0.08121097
-5.145265	ALMOST	-0.08101199
-5.145265	ALT	-0.08118921
-5.145265	ALoLLoLToT	-0.08120786
-5.145265	AM	-0.07625927
-5.145265	AMA	-0.08088759
-4.844235	AMA?	-0.04251723
-4.844235	AMAs	-0.0784326
-5.145265	AMERICA!	-0.08121408
-4.844235	AMERICAN	-0.04266672
-5.145265	AMERIKANSKA	-0.08121408
-5.145265	AMOMENON	-0.08121408
-5.145265	AMoMERoRICoCUNoNToTSoSENoN	-0.08120786
-5.145265	ANAL	-0.04268029
-4.543205	AND	-0.08115502
-5.145265	ANNARS	-0.08121408
-4.844235	ANNEKTERAR	-0.08120476
-5.145265	ANVÄND	-0.08121408
-5.145265	ANY	-0.08121408
-5.145265	ANYTHING	-0.08120786
-5.145265	APPEAR	-0.04268029
-5.145265	APPROVED	-0.04268029
-5.145265	AR	-0.08121408
-4.543205	ARE	-0.4700012
-5.145265	AREN'T	-0.08121408
-4.844235	ARMOR	-0.08120787
-5.145265	AROUND	-0.08120475
-5.145265	ARV	-0.08121097
-5.145265	ASG	-0.08095601
-5.145265	ASSEMBLE!	-0.04268029
-5.145265	ASSumptions.	-0.08098089
-4.668144	ATT	-0.08120165
-5.145265	AV	-0.08120786
-4.844235	AVOV	-0.08121099
-5.145265	Aa,	-0.08121408
-5.145265	Aa.	-0.04268029
-5.145265	Aaaa	-0.08006871
-5.145265	Aaaaah.	-0.08106174
-5.145265	Aaaahh	-0.08121408
-4.844235	Aaah	-0.08034601
-5.145265	Aaah...äsch,	-0.07918584
-5.145265	Aaahh	-0.08121408
-5.145265	Aardvark,	-0.07625927
-5.145265	Aardvarke.	-0.08102132
-4.844235	Abba	-0.08121099
-5.145265	Abobsoslolutot	-0.08121097
-5.145265	Abobsosololutot	-0.08121097
-5.145265	Abobvovoe,	-0.08116434
-5.145265	About	-0.08118299
-5.145265	Absolut	-0.07816347
-4.844235	Absolut!	-0.08118922
-5.145265	Absolut,	-0.0807258
-4.668144	Absolut.	-0.04258518
-5.145265	Absolutely!	-0.08090003
-4.844235	Academy,	-0.3312565
-5.145265	Accent	-0.08121097
-4.668144	According	-0.3597938
-5.145265	Accurate	-0.04268029
-5.145265	Ace	-0.07805703
-4.446295	Acerbus	-0.9242051
-5.145265	Ach	-0.08119543
-5.145265	Ach,	-0.08121408
-5.145265	Achan.	-0.08121408
-5.145265	Activities..?).	-0.04268029
-4.145265	Actually	-0.1097035
-4.543205	Actually,	-0.06952962
-5.145265	Ad	-0.08121408
-5.145265	Adam	-0.08119854
-5.145265	Adams	-0.08121408
-5.145265	Addition:	-0.08120786
-5.145265	Additionaly	-0.07783467
-5.145265	Admin	-0.08121408
-4.543205	Adolf	-0.08047368
-5.145265	Adolf!	-0.04268029
-5.145265	Adolf)	-0.07672118
-5.145265	Adolf*	-0.04268029
-4.103872	Adolphus	-0.3807451
-5.145265	Adolphus,	-0.08118299
-5.145265	Adopt	-0.08070402
-4.242175	After	-0.07374944
-5.145265	Afterall	-0.07474438
-4.367114	Again,	-0.07445718
-5.145265	Again?	-0.04268029
-4.844235	Age	-0.3345691
-5.145265	Age.	-0.04268029
-5.145265	Ages	-0.04268029
-5.145265	Agreed,	-0.08018401
-4.145265	Ah	-0.12072
-5.145265	Ah!	-0.08062933
-3.999137	Ah,	-0.3159724
-5.145265	Ah.	-0.0803055
-5.145265	Ah...	-0.0811488
-4.844235	Aha,	-0.08120476
-5.145265	Ahaha	-0.08098089
-5.145265	Ahahah,	-0.08119231
-5.145265	Ahahahah....	-0.04268029
-5.145265	Ahhhhhhhhhhhhhhhhhhhhh^hhhh^hhhh^hhhh	-0.04268029
-5.145265	Ahl,	-0.08105864
-4.844235	Ahl.	-0.08118922
-5.145265	Ahmet	-0.08120786
-5.145265	Ahoh!	-0.0811861
-5.145265	Ahora	-0.08121408
-5.145265	Ah…	-0.08121408
-4.844235	Aion	-0.08120476
-5.145265	Air",	-0.07785347
-5.145265	Aj,	-0.0810804
-5.145265	Aja,	-0.08103687
-5.145265	Ajabaja!	-0.080984
-5.145265	Ajojajojajojajojajojajoj	-0.08121408
-5.145265	Akademien	-0.04268029
-5.145265	Akbar	-0.08085337
-5.145265	Akbar!	-0.04268029
-5.145265	Akbar!"	-0.04268029
-5.145265	Akbar".	-0.04268029
-5.145265	Akbar...	-0.04268029
-5.145265	Akbaryay	-0.04268029
-5.145265	Akilopses	-0.08121408
-5.145265	Akkurat	-0.08119543
-5.145265	Akmed	-0.08121097
-5.145265	Akokbobaror	-0.04268029
-5.145265	Akta	-0.08103687
-5.145265	Akvavit	-0.08111771
-4.543205	Al	-0.2711478
-5.145265	Al-Qaida	-0.04268029
-4.543205	Al-Qaida,	-0.4674415
-5.145265	Al-Qaidaa	-0.08121408
-5.145265	Al-Qaidan,	-0.08105242
-5.145265	Al-Quaeda,	-0.07785347
-4.844235	Al.	-0.2991924
-5.145265	Alas,	-0.08056707
-5.145265	Alaska,	-0.08049858
-5.145265	Albatraoz	-0.04268029
-5.145265	Albert	-0.08121408
-5.145265	Alcohol	-0.07816347
-4.844235	Alder	-0.07815409
-5.145265	Alder.	-0.08061065
-4.668144	Aldrig	-0.07989104
-5.145265	Aldrig.	-0.04268029
-5.145265	Alec.	-0.04268029
-5.145265	Alfredsson	-0.08121408
-5.145265	Algunos	-0.08045499
-5.145265	Alicia	-0.08121408
-3.713901	All	-0.2042689
-3.844235	Alla	-0.1655948
-4.844235	Allah	-0.08121099
-4.668144	Allahu	-0.08120786
-5.145265	Allahuyay	-0.08121408
-5.145265	Alldeles	-0.07944809
-5.145265	Allihopa!	-0.04268029
-5.145265	Alliterations](http://www.youtube.com/watch?v=x-dooJZntbE)	-0.04268029
-5.145265	Allmänbildad	-0.07775322
-5.145265	Allow	-0.08070402
-4.242175	Allt	-0.1247696
-4.446295	Alltid	-0.2282139
-5.145265	Alltid.	-0.04268029
-5.145265	Allting	-0.08113325
-4.668144	Alltså	-0.07921083
-5.145265	Alltså...	-0.04268029
-5.145265	Almedal's	-0.08120475
-4.844235	Almedalen	-0.07771564
-5.145265	Almedalsveckan	-0.04268029
-5.145265	Almedalsveckan,	-0.07474438
-4.668144	Almost	-0.2336486
-5.145265	Alolanon	-0.08121408
-5.145265	Aloldodrorigog	-0.08119543
-4.543205	Alollol	-0.4700354
-4.300167	Alollola	-0.1399941
-5.145265	Alollolahohu	-0.08121408
-5.145265	Alollolahohu*	-0.04268029
-4.844235	Alolloltot	-0.08095291
-5.145265	Alolloltotidod	-0.08120475
-5.145265	Alolmomsostot	-0.08121408
-5.145265	Alolsoso,	-0.08120786
-5.145265	Alolsoso:	-0.08121097
-5.145265	Alos,	-0.08121408
-4.844235	Alphabet	-0.08121099
-4.844235	Already	-0.337723
-4.668144	Alright	-0.08046745
-5.145265	Alright,	-0.08084714
-5.145265	Alskar	-0.08118299
-3.713901	Also	-0.09274362
-3.802842	Also,	-0.1232521
-5.145265	Also...	-0.08110216
-5.145265	Also:	-0.08120475
-4.242175	Alt	-0.1886977
-5.145265	Alt!	-0.04268029
-5.145265	Alt+#	-0.08121097
-5.145265	Alt+0196	-0.08094668
-5.145265	Alt+0197	-0.08094668
-5.145265	Alt+0214	-0.08094668
-5.145265	Alt+0228	-0.08094668
-5.145265	Alt+0229	-0.08094668
-5.145265	Alt+0246	-0.08094668
-5.145265	Alt+gr	-0.08120164
-5.145265	Alt+shift	-0.07672118
-5.145265	Alt+shift,	-0.08092491
-5.145265	Alt.	-0.08121097
-4.844235	AltGr	-0.07815409
-5.145265	AltGr+9	-0.07816347
-5.145265	Alternately,	-0.08121097
-5.145265	Alternatively	-0.07824798
-5.145265	Alternativt	-0.08121097
-4.300167	Although	-0.1324177
-5.145265	Altså	-0.08121408
-5.145265	Always	-0.08121097
-4.668144	Am	-0.3593319
-5.145265	Amarth	-0.08120786
-5.145265	Amatør	-0.08121408
-5.145265	Amazing	-0.07914837
-5.145265	Amen	-0.04268029
-5.145265	Amendurå!?	-0.04268029
-3.941145	America	-0.02792519
-4.844235	America!	-0.2991924
-5.145265	America's	-0.08121408
-5.145265	America)	-0.08052971
-5.145265	America,	-0.08090936
-4.367114	America.	-0.1608195
-5.145265	America."	-0.04268029
-5.145265	America?	-0.0811861
-5.145265	America](https://en.m.wikipedia.org/wiki/Elk)	-0.04268029
-4.844235	Americae	-0.08119233
-3.511796	American	-0.12906
-5.145265	American"	-0.08087203
-4.543205	American,	-0.1847348
-5.145265	American-English	-0.08120164
-4.543205	American.	-0.1520598
-5.145265	American..](http://static.comicvine.com/uploads/original/11115/111150904/4128004-2590041182-14514.jpg)	-0.04268029
-5.145265	American/Canadian	-0.08116123
-5.145265	American?	-0.04268029
-5.145265	American??	-0.08121097
-5.145265	American](http://imgur.com/sl3c9Ad)	-0.04268029
-5.145265	AmericaniZe	-0.07914837
-5.145265	Americanised,	-0.07785347
-3.823045	Americans	-0.1922632
-5.145265	Americans'	-0.08120475
-4.543205	Americans,	-0.07647616
-4.446295	Americans.	-0.1894112
-5.145265	Americans.)	-0.04268029
-5.145265	Americans?	-0.08121408
-5.145265	Americans](https://en.m.wikipedia.org/wiki/Elk)	-0.04268029
-4.668144	Amerika	-0.07989416
-4.844235	Amerika!	-0.04267691
-5.145265	Amerika.	-0.08121097
-5.145265	Amerika?	-0.08120475
-5.145265	Amerikan	-0.08121408
-5.145265	Amerikan**en**	-0.08094668
-5.145265	Amerikan**er**	-0.08094668
-5.145265	Amerikan.	-0.04268029
-5.145265	Amerikanare	-0.08024632
-5.145265	Amerikanare?	-0.08107418
-5.145265	Amerikanarnas	-0.08121408
-4.668144	Amerikaner	-0.07889221
-5.145265	Amerikanerna.	-0.04268029
-5.145265	Amerikanska	-0.08121408
-5.145265	Amfibieregementet,	-0.08120786
-5.145265	Amiright?	-0.04268029
-5.145265	Amirite	-0.08121408
-5.145265	Amity	-0.07785347
-5.145265	Amomeroricoca.	-0.04268029
-5.145265	Amomerorikokanon	-0.08103064
-5.145265	Amomerorikokanonarore	-0.04268029
-4.844235	Amomerorikokanoneror	-0.07731751
-5.145265	Amomerorikokanoneror,	-0.08121408
-4.668144	Amomerorikokanonerornona	-0.2343083
-5.145265	Amomerorikokanonerornona!	-0.04268029
-4.844235	Amomfofibobiekokårorenon,	-0.3373375
-5.145265	Amon	-0.08121408
-4.844235	Among	-0.08050482
-5.145265	Ampere	-0.04268029
-5.145265	Amphibious	-0.08120786
-5.145265	Amurican	-0.07785347
-4.300167	An	-0.07794431
-5.145265	An(english)	-0.08119854
-5.145265	Anal	-0.08121408
-5.145265	Anal!	-0.04268029
-5.145265	Anal.	-0.04268029
-4.844235	Anckarström	-0.08019026
-3.162994	And	-0.1607836
-5.145265	And,	-0.08121097
-4.844235	And/or	-0.337577
-5.145265	Anders	-0.08121408
-4.844235	Andersson	-0.3351198
-4.668144	Andra	-0.07990975
-5.145265	Andraplatsen	-0.08119854
-5.145265	Andreas	-0.08120475
-5.145265	Andreas:	-0.08121097
-5.145265	Android	-0.08094668
-5.145265	Anfäkta	-0.08121408
-5.145265	Anglo-folk.	-0.08120786
-5.145265	Angrer	-0.08119543
-5.145265	Anjala	-0.08121097
-5.145265	Anka	-0.07860774
-5.145265	Anka!	-0.04268029
-5.145265	Ankarström	-0.08019958
-5.145265	Anledningen	-0.08024632
-5.145265	Anmodas	-0.08091868
-5.145265	Ann	-0.08121408
-5.145265	Anna	-0.08121097
-5.145265	Anna.	-0.04268029
-4.543205	Annars	-0.0799908
-5.145265	Annars:	-0.08120475
-5.145265	Annexering?	-0.08118299
-5.145265	Annie	-0.08121408
-4.844235	Annie?	-0.04250704
-5.145265	Annika?	-0.04268029
-5.145265	Anondod	-0.08121097
-4.844235	Anonnonarorsos	-0.08113638
-4.668144	Another	-0.08017467
-5.145265	Anser	-0.07931387
-5.145265	Anspielung	-0.08121097
-5.145265	Antagligen.	-0.08089069
-4.300167	Antar	-0.5900319
-5.145265	Antarctica	-0.04268029
-5.145265	Anti-cancern	-0.08114569
-5.145265	Antingen	-0.08121408
-4.844235	Använd	-0.07898283
-5.145265	Any	-0.08115812
-5.145265	Anyhow,	-0.07806329
-4.543205	Anyone	-0.1895214
-5.145265	Anyway"	-0.04268029
-5.145265	Anyway.	-0.08055462
-4.844235	Anyways,	-0.08038961
-5.145265	Aom	-0.07625927
-5.145265	Aooöem	-0.08121408
-5.145265	Apart	-0.08057018
-5.145265	Apopohohilollola,	-0.08121408
-5.145265	Apoproroilol,	-0.08121408
-4.543205	Apparently	-0.07395177
-4.191022	April	-0.1217073
-5.145265	April,	-0.08121408
-5.145265	April.	-0.08107418
-5.145265	Aptera	-0.08121408
-5.145265	Aquavit?	-0.04268029
-5.145265	Ar	-0.08121408
-4.668144	Arabic	-0.2344109
-5.145265	Arabic.	-0.04268029
-5.145265	Arabic...	-0.08118299
-4.844235	Arbetslampa	-0.04121727
-5.145265	Archons	-0.08121408
-3.844235	Are	-0.5850731
-5.145265	Are...are	-0.07824798
-4.844235	Aren't	-0.07759342
-5.145265	Argentina's	-0.08121408
-5.145265	Arizona	-0.08092491
-5.145265	Armbandsur	-0.08080981
-5.145265	Armborst,	-0.08121408
-4.668144	Armed	-0.3642774
-5.145265	Arollol	-0.08121408
-5.145265	Arrêtez-le	-0.08121097
-5.145265	Arsch?	-0.04268029
-5.145265	Artificial	-0.08121408
-5.145265	Artisten	-0.08119231
-3.577063	As	-0.4908568
-5.145265	Ascii	-0.08121408
-4.300167	Asian	-0.08107419
-5.145265	Asians	-0.08087203
-5.145265	Asking	-0.0796041
-5.145265	Asossosumominongog	-0.08118299
-5.145265	Asostotroridod	-0.08121408
-5.145265	Ass	-0.08089691
-5.145265	Assyrian	-0.08121408
-4.367114	Asså	-0.1443875
-4.668144	Astrid	-0.08112083
-3.889992	At	-0.3951225
-5.145265	Atottot	-0.08119854
-3.765054	Att	-0.1146286
-4.844235	Attans	-0.08067602
-4.844235	August	-0.07132997
-4.446295	Augusta	-0.9242019
-5.145265	Augusti	-0.07860774
-5.145265	Augustus	-0.08119543
-4.844235	Aussie	-0.3376826
-5.145265	Aussie,	-0.08119854
-5.145265	Aussie.	-0.04268029
-5.145265	Austausche	-0.08121408
-5.145265	Austauschen	-0.08116745
-4.844235	Australia	-0.07477595
-5.145265	Australia,	-0.08087203
-5.145265	Australia?	-0.07625927
-4.446295	Australian	-0.07740217
-5.145265	Australians,	-0.08121408
-5.145265	Australien	-0.07860774
-5.145265	Australiens	-0.08120786
-4.446295	Austria	-0.3595532
-5.145265	Autism	-0.04268029
-5.145265	Autoplaylist:	-0.08121408
-4.668144	Av	-0.07889221
-5.145265	Avböjer	-0.08121408
-5.145265	Avgasbil?	-0.04268029
-5.145265	Avgå.	-0.08121408
-4.844235	Avicii	-0.07859837
-5.145265	Avovpopixoxlolatot?	-0.08120786
-5.145265	Avovsoslolöjoja	-0.08098711
-4.668144	Avpixlat?	-0.234383
-5.145265	Avs	-0.08119231
-5.145265	Avsevärd	-0.08121408
-5.145265	Avslöjad,	-0.08121408
-5.145265	Avundsjuk	-0.08120164
-5.145265	Avundsjuk?	-0.04268029
-5.145265	Avundsjuka	-0.08121408
-5.145265	Away	-0.08057018
-5.145265	Awe	-0.04268029
-5.145265	Aww!	-0.08079737
-5.145265	Aww,	-0.08060753
-5.145265	Awww	-0.08112703
-4.844235	Ay	-0.08120787
-5.145265	Aye	-0.04268029
-4.367114	Ayy	-0.1115311
-4.543205	B	-0.08096846
-5.145265	B)	-0.08100577
-5.145265	B-Ö-R-K!	-0.04268029
-5.145265	B52s	-0.07785347
-5.145265	BABY!	-0.04268029
-5.145265	BACKSLANG	-0.08118921
-5.145265	BAD!"	-0.04268029
-5.145265	BAD-ASSSSSS.....uh...moosssse....	-0.08121408
-5.145265	BALLER	-0.08121408
-5.145265	BAM!	-0.08061065
-5.145265	BANK	-0.08120475
-5.145265	BANKA	-0.08121408
-5.145265	BANKARE!	-0.04268029
-4.844235	BANKER	-0.07624042
-5.145265	BANKER...	-0.08121408
-5.145265	BANKSY'S	-0.08121408
-5.145265	BARA	-0.08088759
-5.145265	BARE!	-0.04268029
-5.145265	BASSHUNTER	-0.04268029
-5.145265	BBRRRRAA	-0.08121408
-4.844235	BE	-0.08121099
-5.145265	BEACON	-0.08120475
-4.844235	BEAUTIFUL	-0.08121099
-5.145265	BEEN	-0.08121408
-5.145265	BEFRIARE!	-0.04268029
-5.145265	BEFRIARE](/r/sweden11)	-0.04268029
-5.145265	BEFÄNGT!	-0.04268029
-5.145265	BEST	-0.08121408
-5.145265	BEST!	-0.04268029
-5.145265	BILEN!!!	-0.04268029
-4.844235	BLAH	-0.08120787
-5.145265	BLAH.	-0.04268029
-5.145265	BLI	-0.08121408
-5.145265	BMW	-0.07993156
-5.145265	BOBEHOHÖVOVEROR	-0.08121408
-5.145265	BOBITOTEROR,	-0.08121408
-5.145265	BOBLOLÅ!	-0.04268029
-5.145265	BOBÖRORKOK"	-0.04268029
-5.145265	BOCKAR,	-0.08121408
-5.145265	BOOM	-0.04268029
-5.145265	BOOM!!!	-0.04268029
-5.145265	BOOM.	-0.04268029
-4.446295	BORK	-0.1897748
-5.145265	BORK!	-0.04268029
-5.145265	BOSS	-0.08120164
-5.145265	BRIDGING	-0.08120164
-5.145265	BRO	-0.04268029
-5.145265	BRÖÖÖÖL	-0.04268029
-5.145265	BTW	-0.08121408
-5.145265	BUBBLE	-0.08121408
-4.668144	BUT	-0.08061688
-5.145265	BUt	-0.07824798
-5.145265	BY	-0.08121408
-4.844235	Back	-0.07671805
-5.145265	Back!	-0.04268029
-5.145265	Bacon	-0.07816347
-5.145265	Bacon!	-0.04268029
-5.145265	Bad	-0.08121408
-5.145265	Badly.](https://en.wikipedia.org/wiki/March_across_the_Belts)	-0.04268029
-5.145265	Bafatt	-0.08045499
-5.145265	Bagge	-0.08120164
-5.145265	Bagge.	-0.04268029
-5.145265	Bah,	-0.08120475
-5.145265	Bah.	-0.04268029
-5.145265	Bahamas.	-0.08118921
-4.367114	Bajen	-0.2935224
-4.844235	Bajs	-0.04267691
-5.145265	Ballerina/Singoalla	-0.07783467
-5.145265	Ballet,	-0.08052037
-5.145265	Ballt.	-0.04268029
-3.844235	Bara	-0.1117696
-5.145265	Baratheon	-0.08015908
-5.145265	Barclay	-0.07785347
-5.145265	Bark!	-0.04268029
-5.145265	Barracuda-skydd.	-0.08121408
-5.145265	Base	-0.08121408
-5.145265	Based	-0.07987545
-4.668144	Basically	-0.07061072
-5.145265	Basshunter	-0.08121408
-5.145265	Basshunter!	-0.04268029
-5.145265	Bastards!	-0.04268029
-5.145265	Bastuaggregatet	-0.08121408
-5.145265	Bastuaggregatet?	-0.08121408
-5.145265	Batman	-0.07806329
-5.145265	Batman,	-0.08056707
-5.145265	Batman.	-0.08121408
-5.145265	Battle	-0.07805703
-5.145265	Battlecruiser	-0.08121408
-5.145265	Bay	-0.08052971
-5.145265	Be	-0.08024632
-5.145265	BeSoGood	-0.08052971
-5.145265	Beard	-0.04268029
-5.145265	Beautiful	-0.08115812
-4.844235	Beautiful.	-0.04267351
-5.145265	Beautifully.	-0.08121408
-3.802842	Because	-0.1596281
-5.145265	Becuase	-0.08086581
-4.844235	Before	-0.0746308
-5.145265	Befria	-0.08121408
-5.145265	Befäst	-0.08121408
-5.145265	Begagna	-0.0807258
-5.145265	Begeisterit	-0.08121408
-5.145265	Begone	-0.08015908
-5.145265	Begår	-0.08121408
-5.145265	Begåva	-0.08121408
-5.145265	Bekräftat	-0.07791298
-5.145265	Bekräftat,	-0.07918584
-5.145265	Bengtsson	-0.08121408
-5.145265	Benutzername	-0.08119231
-4.844235	Benåda	-0.07816036
-5.145265	Berlin-circjejerking	-0.07987545
-5.145265	Bermuda,	-0.08121408
-4.668144	Bernadotte	-0.08000638
-5.145265	Bernadotte,	-0.0811861
-5.145265	Bernadottes	-0.08118921
-5.145265	Bernie	-0.08121408
-5.145265	Bernie!	-0.04268029
-4.844235	Beror	-0.07550407
-4.844235	Berra	-0.3346756
-5.145265	Berätta	-0.08008742
-5.145265	Berättade	-0.07791298
-5.145265	Besides,	-0.08110838
-4.543205	Best	-0.08038338
-5.145265	Beta!	-0.04268029
-4.844235	Betala	-0.337549
-4.844235	Better	-0.08118612
-5.145265	Betulaceae."	-0.04268029
-5.145265	Beurk	-0.04268029
-5.145265	Beverly	-0.08121408
-5.145265	Biceps	-0.08121408
-5.145265	Biden	-0.08116745
-5.145265	Big	-0.08120164
-5.145265	Bigger	-0.08086891
-4.844235	Biggest	-0.08114881
-5.145265	Biisi	-0.08092491
-5.145265	Bil	-0.08112082
-5.145265	Bild	-0.07857959
-4.844235	Bilden	-0.07855146
-5.145265	Bilen	-0.08049858
-5.145265	Billboard	-0.08121408
-5.145265	Biogas*	-0.04268029
-5.145265	Birk	-0.08121408
-5.145265	Biteline	-0.08120786
-5.145265	Bitsy	-0.08120786
-5.145265	Bitter?	-0.04268029
-4.668144	Bjork	-0.04265652
-4.844235	Bjuder	-0.3350917
-5.145265	Björk.	-0.04268029
-5.145265	Björklund	-0.08121408
-5.145265	Björne	-0.07860774
-4.844235	Bla	-0.08120787
-5.145265	Bla,	-0.08121097
-4.844235	Bla.	-0.08111461
-4.844235	Black	-0.08070092
-5.145265	Blanco;	-0.08058886
-5.145265	Blasera	-0.0811861
-5.145265	Ble	-0.08120164
-5.145265	Blekinge	-0.08121408
-4.844235	Blev	-0.07597623
-5.145265	Bli	-0.07922644
-5.145265	Blinka	-0.08119854
-5.145265	Blinker	-0.04268029
-5.145265	Blinkers	-0.04268029
-4.300167	Blir	-0.1331042
-5.145265	Blom	-0.0811488
-5.145265	Blom,	-0.08121408
-5.145265	Blommorna	-0.08113947
-5.145265	Blorp	-0.08121408
-5.145265	Blue	-0.07987545
-5.145265	Blöta	-0.08121408
-5.145265	BoBEVoVISoSAToT	-0.08120786
-5.145265	BoBOOMoM	-0.08121408
-5.145265	BoBegogäror	-0.08121408
-5.145265	BoBehohövoveror	-0.0811861
-5.145265	BoBeror	-0.08112082
-5.145265	BoBetotydodelolsosenon	-0.08070402
-5.145265	BoBloliror	-0.08117367
-5.145265	BoButot	-0.07824798
-5.145265	BoBäsostota	-0.08120786
-4.844235	Bobarora	-0.08082227
-5.145265	Bobasosicocalolloly	-0.08117677
-5.145265	Boberoredod	-0.08113636
-5.145265	Bobifofalollolesos!	-0.04268029
-5.145265	Boblolesossos	-0.08121097
-5.145265	Bobloliror	-0.08097467
-5.145265	Boblolomomkokvovisostot	-0.08070402
-4.844235	Boborordode	-0.0811426
-5.145265	Bobososnonianon,	-0.08121408
-4.031322	Bobrora	-0.1452802
-5.145265	Bobroravovo!	-0.04268029
-5.145265	Bobroritottot-Momarorie,	-0.08121097
-5.145265	Bobrortothoheror!	-0.04268029
-5.145265	Bobrorytot	-0.08121408
-5.145265	Bobroränonnon	-0.08117989
-5.145265	Bobäsostot!	-0.04268029
-4.668144	Bobäsostota	-0.08120786
-4.844235	Bobätottotrore	-0.3376951
-4.844235	Bobörorkok	-0.2991924
-5.145265	Bockey	-0.04268029
-5.145265	Bodies	-0.08044876
-4.844235	Body:	-0.2991924
-5.145265	Boehner,	-0.08100577
-5.145265	Bofors	-0.08121408
-5.145265	Bofors.	-0.04268029
-4.844235	Bokstavligen	-0.08118612
-5.145265	Bokstavligt	-0.08120786
-5.145265	Bokstäver	-0.08121408
-5.145265	Bomb.	-0.08121408
-5.145265	Bomullstussar?	-0.04268029
-5.145265	BonusEdit:	-0.04268029
-5.145265	Boo!!	-0.04268029
-5.145265	Boogaloo	-0.04268029
-5.145265	Boom,	-0.08119854
-5.145265	Boom.	-0.04268029
-5.145265	Boom:	-0.08121097
-4.543205	Bor	-0.1846623
-4.446295	Borde	-0.0805484
-3.783537	Bork	-0.4523456
-4.844235	Bork!	-0.2991924
-5.145265	Bork".	-0.08121408
-5.145265	Bork,	-0.08121408
-5.145265	Bork.	-0.04268029
-4.844235	Bork?	-0.04267691
-5.145265	Borky	-0.08121408
-4.668144	Born	-0.2332124
-4.844235	Bornholm	-0.07780337
-4.844235	Bort	-0.3376454
-5.145265	Bosnian,	-0.08017466
-5.145265	Both	-0.07474438
-4.844235	Bottom	-0.08120476
-4.844235	Bottom:	-0.337723
-3.844235	Bra	-0.2279195
-5.145265	Bra!	-0.04268029
-5.145265	Bra,	-0.07918584
-5.145265	Braging	-0.08059197
-5.145265	Brahe	-0.08121408
-5.145265	Braj?	-0.04268029
-5.145265	Braja	-0.08121408
-5.145265	Brave	-0.08121408
-5.145265	Brazilian	-0.08120786
-5.145265	Breakfast	-0.08015908
-5.145265	Breaking	-0.08121408
-5.145265	Bri	-0.08121408
-5.145265	Briljanta	-0.08121097
-5.145265	Brilliant!	-0.08121408
-4.844235	Bring	-0.08044566
-5.145265	Britain	-0.0811488
-5.145265	Britian.	-0.08091868
-4.367114	British	-0.1079205
-5.145265	British.	-0.07625927
-5.145265	British?	-0.08055462
-5.145265	Britishism.	-0.04268029
-5.145265	Britt-Marie	-0.0811488
-5.145265	Britt-Marie!Kör	-0.07944809
-4.844235	Britt-Marie,	-0.08092804
-5.145265	Britt-marie,	-0.0811488
-4.844235	Brittish	-0.08121099
-5.145265	Brochan.	-0.04268029
-5.145265	Brodin,	-0.08121408
-4.844235	Broken	-0.08121099
-5.145265	Broom:	-0.08121097
-5.145265	Browsing!	-0.04268029
-5.145265	Bruh,	-0.07824798
-5.145265	Brukar	-0.08120475
-5.145265	Brum	-0.08121408
-5.145265	Brunstsäsong	-0.07987857
-5.145265	Brygg	-0.08119543
-5.145265	Bränd	-0.07918897
-5.145265	Bränsle	-0.08121408
-5.145265	Brödraarbete	-0.04268029
-5.145265	Bröt	-0.08119231
-5.145265	Btw,	-0.08086581
-5.145265	Bu	-0.07944809
-5.145265	Bubble	-0.08121097
-5.145265	Buchstaben	-0.08121097
-5.145265	Build	-0.07474438
-4.543205	Bukarest	-0.07299936
-5.145265	Bukarest?	-0.04268029
-5.145265	Bulgarien)	-0.08120786
-5.145265	Bull.	-0.04268029
-5.145265	Bullfika	-0.04268029
-5.145265	Bullfika,	-0.07716692
-5.145265	Bullfika.	-0.08121408
-5.145265	Bullfikka	-0.07785347
-5.145265	Bullfitta	-0.04268029
-4.844235	Bullfitta,	-0.07785036
-5.145265	Bullshit,	-0.08121408
